{"W":[[-0.23288533080880258,-0.24916453867632526,-0.7549071037628159,0.6955267547288959,0.9235690091147721,-0.5312046825932177,0.36359748685492255,-0.7099178511052613,0.5109182100812419,-0.45254024644977653,-0.09830189858448701,-0.45639194461877386,-0.19202153237016617,-0.3101357270996088,0.40521420256389407,0.367246930090694],[-0.19909775782427452,0.04437286795431161,0.5056405398838932,-0.19433542879801102,-0.879139981345979,0.2187127952006569,0.6072619792397571,0.06972882026801086,-0.12411732478784776,0.14054451235670307,0.7375240917569963,0.3728823364974767,-0.00009177799283044408,-0.7009248826139749,-0.0777902158506909,-0.29464386958040345],[-0.744441020339389,0.9048866118986667,-0.753712463297076,-0.46411713141896005,-0.4685308643726471,0.8697566834918988,0.6822994910426492,0.49991977958771505,-0.7636873908199973,0.7841472852455431,0.9550423625592668,0.6060952730064826,-0.09520715058157547,0.2733440666648925,-0.3792527631431257,0.2129315052059897],[0.8562317431664268,0.9273399118519419,0.06764759450271596,0.42100853842604513,-0.6641239899078633,0.26521569390294886,0.14262106391208507,0.8345145819574782,0.5025142959872326,0.7265732209323281,0.9345521729458683,-0.6702816480133538,-0.8911526647660444,-0.3239971535592381,-0.18364496241144224,0.4688919810493086],[-0.7587824365085556,0.08054331752645805,-0.6605797411271399,-0.18785100543371147,0.01566906136291646,-0.40392764497156586,0.10601431491135527,-0.783831392913489,0.828437205582202,-0.24526820962582718,-0.19833566615993004,0.8101424888786557,-0.6436184228369668,0.29242049088218414,-0.3012137846000309,-0.22520312741405712],[-0.6692688315810709,-0.818748147887006,-0.9466723839676328,0.7940554509537181,-0.40293820285252124,0.6568437794785313,-0.8162659257827061,-0.8831158155753132,0.05875244640505173,-0.8557821260519201,0.46424512435852217,0.22522931341469565,0.9016615942292159,0.547490039527097,-0.45262516715603507,-0.15205385111959702],[0.2015837909001026,0.7008693636832444,0.19852062414552307,-0.30093858237544335,0.717856910025541,-0.6670599803114476,0.9321734962812491,-0.03892430031429539,0.0867040398572172,0.6232802280306893,0.33680675901590273,-0.5904883586879817,0.3074899242965432,-0.1371436144566105,0.6835801883941772,0.14854983431881585],[0.7047702356136836,0.3271918006613532,-0.316475595664067,0.7918362876163609,-0.8558419641749131,-0.4211860324729515,0.9650465584268111,0.106639679718465,0.9114731573932748,0.8207634836563056,-0.4192923680482412,0.9901698510214563,-0.7036160072059165,0.2476101563218931,-0.2384798869917253,0.3065379503680239]],"b":[[0.6120913104268495],[-0.00032589718185205285],[-0.018427897214914335],[0.6825248795123167],[0.7239123492677715],[0.8781812150188197],[0.5461616303422909],[0.7490210331718998]],"beta":[[-0.007059669148153658,0.02517449645717485,0.004323451101329846,0.006079080729278075,-0.0012586788673294516,0.002304767770801822,0.001981443463801274,0.003366331304911971,-0.0027775033518827787,-0.0025002994482364485,-0.000772391354367818,-0.000983486055866091,0.0023928774297669493,0.005064862770823458,0.003816346003820201,-0.0070819229424668685,0.006454752364603612,-0.0010932560133299228,0.0012413941455788897,0.0019114426002692809,-4.4486811092316523e-7,0.00046496444196420986,-0.005022190365297575,0.0016178187175055984,0.0018807002452962264,0.0005615383594451645,0.0011497105868223407,0.00075960813500834,0.0007421527492905307,0.003386818525700404,-0.0030342034162776726,0.003239904541459504,-0.007750456567102192,0.004132149110204455,0.001061945926637326,0.002853419881571454,-0.002702289301156473,-0.001247139859604524,-0.00002995421875401919,0.0020601846760052445,0.0028415868470540026,0.001515030257218541,0.0034080279815550995,-0.0013287251105423435,0.004835169096126523,-0.004223403789173746,-0.0011048814563356616,-0.000007337312131088067,-0.00543910543639618,-0.0016201089814289998,0.0002762485097603667,0.0008330783301823005,0.0011254408094933822,-0.0012040543121581986,0.0006509283488145107,0.0009442572900483062,-0.005450289518455973,0.003884263547075548,0.003863316697674198,0.0007096775731089916,-0.00014573299323165364,0.0019698438776249334,0.003732432606044818,0.0009061215972033453,0.004096331356047309,-0.00046846715326244605,-0.0016794859821074395,-0.000964698707259584,0.0020708014044913065,-0.0011028979939668002,0.004359454671848123,0.00007650249168089841,-0.0039850661786120355,0.005799251429550331,-0.00023726385054442345,0.00043266655513628667,-0.003657586241417026,0.00031388388943391415,-0.0008153533870883346,-0.0035437509488699184,-0.006134948786914094,-0.0001946478098092476,-0.002171788064218626,0.0018860446048071795,0.004281471368738172,0.0026851938317812964,-0.0012567987914009497,0.0027532088775186862,0.004454158976521219,0.002958245170643688,-0.0021898570337455098,0.0006695329613272393,0.002315737368847108,-0.0005075620693513235,0.001611407197558572,-0.0016940755793464785,-0.000533881699260978,-0.0013129969609295099,-0.003911793741378132,0.00477893238657655,-0.0033498596255018766,0.0017111044922823062,0.004969847569289101,0.008054987777716271,-0.0008516691023440254,-0.005317640580021037,-0.0027683232488267323,-0.0015797375586482898,-0.0015930025954950338,0.0034145727005217667,0.006806543900651143,0.002024965395181129,0.0013711580785363221,0.003474797713224382,-0.004096265126634208,-0.0018065052279593753,-0.001831641741920472,0.0007075306856335458,-0.004229216426928795,-0.004585255557029484,-0.004790089493262177,-0.002023212986593176,-0.0006246326088471433,-0.004358289800427689,-0.0005678570829847861,-0.000486493087804302,-0.0009124421948676114,0.0012637168645004016,0.0011487980107428796,0.007046131660102845,-0.003054571143821516,-0.00405084866686746,0.003932686211929347,-0.0028666545781601323,-0.0016928878544316824,-0.0007824876272356949,-0.0005656574495201897,0.004950999531146525,0.000668750303657062,0.0012061158720696598,0.0011222184862262358,-0.002736205106848028,0.0033794165886184063,0.0031181644524734212,0.00011302869477773783,0.0059799351430200815,-0.0008111446075071566,-0.0010765727742455377,0.0025256849529532418,0.002222787597599708,-0.0032484971823590622,0.0053119860658232924,-0.0042240368172390555,0.0004475437120349665,0.00090583229362535,0.0017503927969098952,0.001549149254540181,0.0029517454062772627,-0.0008438656282204668,-0.0010129985943747978,-0.00037433462357256304,-0.0006024933668283166,0.0007814419732125287,-0.003745554384954513,-0.0011960655576283455,0,-0.0012916804629835555,-0.00017469704434896956,0.0000902117251446564,-0.00028480205683629036,-0.003472950701036841,-0.002041898014731294,0.0010137978443615408,-0.0013993787715375807,0.0031874246871563777,0.0005221698621211407,0.0022648181465953687,-0.00009674890398986329,-0.001797547679393698,0.000789669506103866,0.0062925784350192065,-0.0030853001390245337,0.002643519558807405,0.0010681528795583673,0.0007156969643965284,0.00025171712645363504,0.002680850645283364,-0.00017009285304662823,-0.0019651321749412057,-0.0007672872396558373,0.001884638344550678,0.0044621528111023654,0.0005796546919387081,0.002673803530441935,0.004777929490101426,0.0009573956780877491,-0.000826189470219962,0.00179065440103785,0.002614163317715295,-0.0027640841614659808,-0.002975546907294303,0.00208859634963704,-0.002367400890205532,-0.0018973185109274389,0.0027489525044175284,0,-0.0025731455823613057,-0.0013181411545445504,-0.0018425918303917612,0.0005457689529485327,-0.0007902708444661268,0.004297356761236282,-0.0006401325722393988,0.0028723425478010393,-0.002871536883978157,-0.0024418519749007392,-0.00470053527630581,0.002486760731882758,0.0045237010481551775,-0.004779768706041553,-0.0012273429277080397,0.0012006194923907855,0.00043267155158045333,0.001023888248115971,-0.0008366970705766947,-0.0012665760206124735,0.000487620413345108,-0.0011053459376566585,-0.0012376508243045633,-0.0008730296692774614,0.0017447813813959963,0.0013836364684107609,-0.00045683201890187026,-0.0002654980222736854,-0.001509536824159812,-0.0015220590049080697,-0.00009792335092052088,-0.0025425970294877336,-0.00010228612569017766,-0.000392018891092462,0.004104810604559277,0.00044558879339384077,-0.001475658730967507,0.004425072784947092,0.0022211130538279367,-0.0035281025869594303,0.0033841968714599267,-0.001234458074126961,0.0005648525635557979,0.003940815181684333,-0.0013775007135178932,-0.0002480703274767537,0.00010950405246747003,0.0011386785713656136,-0.0013660010988286548,-0.00019300195165941261,-0.0004389145524648133,0.006855706888068877,0.002133835979095563,0.00033453508763058807,0.004141723162499359,0.0008236155142602213,0.0009326364525030911,0.0011030240299129115,0.008300064968639085,-0.000019453100110219273,-0.0029863068466454016,0.0025186961562085265,-0.0000066537244907324,0.004346076694605615,-0.002598943492039082,0.005134734809827843,-0.0030503970754780303,-0.0006618290028916505,0.0026802484899741217,0.00012627258470480798,-0.0015195687054339335,-0.0013187302228255416,-0.001804469989024862,-0.00045681623195367775,0.001124281765489479,-0.0017893868713964698,-0.0005380803318359277,-0.0002836587470909993,-0.0005535340675662927,-0.0025075150595017044,0.0010429926051424485,-0.003019405701189291,-0.002631907510089841,0.004634322568335285,-0.0009376634281357193,-0.0017353221551374895,-0.005521830107686439,0.0013487914606895605,-0.0023432048801972773,-0.0002235492278770848,0.0013322593697924691,0.00039352953604419573,0.0018245954443739975,-0.0013921228796217842,0.0011764734299501691,-0.0025596160529242976,-0.001672186601338027,-0.0005943498534272144,-0.0025644099010905166,-0.002088175742566455,0.0024354287222193,-0.0021355218577721463,0.002348226354994888,-0.0033334464274499035,-0.0025436972635415377,0.002639238994099874,-0.0019111346100236935,0.0035902343288566133,-0.0050006016915762055,0.00026682169093036857,-0.00011651054514436987,0.006012682367503066,-0.0030452047276708864,0.004105606676225689,0.0016554893481304284,0.0013156025422615565,0.00045423748077231163,0.004445134186977355,0.0051648638452708555,0.0069822331766236315,-0.001622527080878347,-0.0003668246753378382,0.003975519619584184,-0.0012598292853600022,0.0027531770107296675,0.0022436365639295535,-0.00267181196852549,0.000010170795097821342,-0.0004079169572287627,0.0008061790200737034,-0.0011181782698490156,-0.0004951621569491523,-0.0007382484190881054,-0.0006728124668078621,-0.0008704871242388141,0.0006830259863771992,-0.0007092035015591535,0.005377835144244866,0.001216250200618945,0.0012106996196339362,0.001141078688628681,0.0020540347373867616,-0.001112983265713151,0.0002631610771628631,0.0017631002830738025,0.00028243825796042975,0.0013972806733696561,-0.0015919291202758589,-0.0025548299745163914,-0.000983787028047678,0.0019528259331374877,-0.00032477362476506373,0.00046641297240993716,0.00013083719334932775,-0.00021482159799684494,-0.0004388582028864346,0.0013920006779630726,-0.001991321644000745,-0.0015440973010675484,0.0001730943608558349,-0.0016935144458717802,-0.002023980706328319,-0.00032304762888763904,0.0020766647441348273,-0.0000539540187520863,-0.004460520677568703,0.002002339585043889,0.0023210881404977196,0.0013587027108115728,-0.0034361022118414033,0.0016747435876886766,0.0047600389447085955,-0.0005749899658064346,0.0002583664879059459,0.000002595616965680135,-0.003354455278970222,-0.0022619038880228428,0.0001375294690316192,0.001092713326067404,0.003823524037280775,-0.0010910230659760681,0.000827585459578985,-0.0017399843617565496,0.00046478496573179107,-0.0016158522587768726,0.0025309342823988954,0.0017664647762955195,-0.0031150178421920417,-0.0029584444047630757,-0.0008985237095226464,0.002837682107643705,-0.0012249505231228352,-0.003362041633301173,0.0006186210336518283,0.0014856610002864305,-0.000004673094537047747,0.0003818516570083457,-0.0020760835711043832,0.0002733845557415847,0.0003513472668098957,-0.00024822006450310523,-0.0008837708977025747,0.0021374304427627527,-0.0022736609134434023,-0.0008958195279408148,-0.001939776125208052,0,-0.0005732214047985002,-0.0006338818200855903,-0.001892679774644984,0.0020663120668345334,-0.0011106166804623673,0.000320473451246531,-0.0009708808700410583,-0.005603757061911606,0.0011767143487611492,0.006015299600400575,0.0023285113191709493,-0.0010987643303863967,-0.0016051825042790197,0.0005446768728268858,0.00003171160993416097,-0.0010106371157796931,0.0014816846962538302,0.0004065148400755538,-0.003799243724116085,-0.0009422451706010672,0.0010850423027173996,0.0011710372361321672,-0.0027312232188376113,-0.0009092917501793173,0.00321405227005518,0.00450879786622173,0.0020978475745933273,-0.001625257158638869,-0.0004219176913433014,0.0030421381058323175,-0.004978128743650942,0.0005559405744348658,-0.001581588639285301,0.002078228781068857,0.004778843705961401,-0.003942218324675383,-0.0013952215644534843,0.002535364035243272,0.0014222309180189077,-0.0003800474349268081,-0.0008259399799378743,-0.0008919812520515766,-0.0024405652989190935,0.004874561170321364,-0.0023773910271524317,0.0013021726721538177,-0.0002827188771847496,-0.00003409366153849869,-0.001589461067128973,-0.002957344463730217,-0.0014048136050993677,-0.0017947835994749956,0.0019761068273632084,0.001415617510969117,0.0009204064870102522,0.001838476103895733,-0.0022154656700149903,0.0012042832028089207,-0.0005481368679662379,-0.0031887722284030962,0.0011169005414483112,0.004277245885113639,-0.0021901270900285654,-0.00039017009444251545,0.0008175509073270282,-0.0012824836554106206,0.003476635928652453,0,-0.0017659229409631486,-0.0000456834919242428,0.0031021533636574382,0.0018441508760483217,-0.0038055826655548817,-0.001287018379853645,0.001266238690357715,-0.002052233688539886,-0.0016517694258153463,-0.0017442910076183973,-0.0009221671604503132,-0.0002586026218572208,-0.003180878291539916,-0.000639622045990732,-0.003386504555028963,-0.00012849816411910633,0.0004153185983759591,-0.005175560636178415,0.0011381853232869978,-0.0008298050372387144,-0.00019057762227362126,-0.0014303214368135931,0.003844058978725852,-0.0014034339929570837,0.0010239697374432792,-0.0023544625508565772,-0.00019370478524949209,0.00023508940676375426,0.0013755165608137529,-0.0028336158058765086,-0.0017912772434604193,-0.003769524869960383,0.0027607695711627366,-0.001303125239773191,-0.001303125239773191,-0.001508055374269715,-0.0004216290640525778,0.0019632696663497615,-0.000011405757288601812,-0.0035477402625495344,0.000835190056399183,-0.00013199510397530887,0.002016926635566736,-0.0022049387843413185,-0.0020181669561604035,0.0015309961301586722,0.00174214111488318,-0.004957176922091905,0.000838022757109505,0.00015581678194569496,-0.0000029012929022341287,0.0019314034444581239,-0.00007648086972015622,0.0014837865570341757,0.0014837865570341757,-0.00008924057081147305,0.0014176879436802747,-0.0005017794703006372,0.0003611922738649643,-0.0010830657587366087,-0.0011457039396706936,0.0014725189523853884,0.0007363463287832618,-0.000011689843456129821,0.0015522088582597643,-0.002113014003755141,0.004087328131506544,0.0031896100665024033,0.0016934062567486442,0.0012566239443782667,0.00013351903034110514,-0.0016119921094264623,-0.003163015001951055,0.0008243326832118579,0.0032994854353497662,0.0033518089914044897,0.00041846574347219274,0.0014493299665332764,0.002009643419595852,-0.000004556820628957842,-0.0011927195841980025,-0.0029928269729393633,0.00036871898995324164,0.0021471085300993464,-0.0011511339582432403,0.001693302001976346,-0.002128650334276222,-0.0019169061433374677,-0.0010653709740604045,-0.002410920073423454,-0.0021974725285859873,-0.0013483708646754022,0.00037954241126367597,0.0015265982952993719,0.003429165962536227,0.0008072862363428152,-0.0033671270179146677,0.0006837792321441741,0.000353174250084371,0.00016798668820506294,-0.00296018934277053,-0.00005880479884990471,0.0008448922050922818,0.0006993019621139877,0.0007399942456199924,-0.00018000880793360178,0.0006014907936663924,0.0024974591245350347,-0.0014803237653854629,-0.0015892523469784457,-0.0012276794859365347,0.00095573518667558,-0.0041324930879164355,-0.000933046473828129,0.002041945313854095,0.0032745418864351854,-0.000035944765488263346,0.001119567686129954,0.001274060111062278,0.0005255841430824886,0.00036567281572628946,0.0043974682014761525,-0.0004699816284568667,-0.001957490469387925,-0.0006952950436331449,-0.0009728339034534884,0.0019274447213716388,0.004749732138881477,-0.005760955942264193,0.0016953423000001008,-0.0006438251793111486,0.004946528997262964,-0.0007578721378660789,0.0018840697686023332,0.0035822071231859116,0.0022937021495973743,0.0007944904145576431,-0.0007873415807167088,0.0008387256434194849,0.0008387256434194849,-0.000251584481125595,0.0007396860094880565,0.003170209966178053,-0.001410484910440904,-0.0017039029737901097,-0.00030342798757951995,0,-0.0009257576189308597,0.00040702233674388787,-0.000014483598556428627,-0.0009121093432697128,0.0004256378989257498,0.0010300089160126696,-0.0018936553461308462,0.0006788357581199805,0.0005416671312230021,-0.0035099977453037384,0.0011108869859894933,-0.0003730222931182861,0,-0.0002227476057653149,-0.0030957894753358326,0.0004281696821927948,0.0012281306222804629,0.0010038020664242197,0.0001488740621456069,0.004092899974399726,-0.0023684880130488252,-0.0015705118922961863,-0.003101912144603448,-0.0014961814347233498,0.00460466041315319,-0.001682572773615242,-0.0010677549587497135,0.0036061492007443403,0.003787445753559978,0.0008925848711606253,0.00029332939125278977,0.0025066390679332725,-0.0001499617103973051,0.0019913837494439034,0.0010001109110315065,-0.00003438093565658569,0.0024566674892515707,0.0007210182067986528,-0.0006817039574537107,0.0060606599669479535,-0.0012350133792910895,-0.00017767221313614288,0.0005647939130782409,-0.0008943122149476593,0.000981970272376867,0.0001603663426768905,0.001522367387873016,0.0005958764946503803,-0.002419658569953357,-0.0016374735117416438,-0.0005439362866802994,0.00019673239854937777,-0.0012629219325054094,0.001255603411382138,0.0004167598259349815,0.00030456572669876396,-0.000544628051849602,-0.0021596043807930857,0.0012862078715862421,-0.0008952426818254955,0.0008014058231333619,-0.002026899247046524,-0.000583112821230206,0.0005361047750532413,-0.0012057398620660858,-0.0014121651351146243,0,-0.0016623825828986597,-0.0015887066357291244,-0.001193440941959719,0.0029259071961338433,-0.0014909587084292525,0.0024137886214167198,0.005204577524527593,-0.003494793972390559,0.0006975942258005035,-0.0004728841217655948,0.0003079402678641786,-0.0010070285435924955,-0.002737578331067461,-0.003800703260579606,0.001810828616737265,-0.0028560545504648397,0.0022671438270722866,-0.0005054432604937739,0.001250320506356397,0.0006371544163090268,-0.0031992622483742426,-0.0026212069880890755,0.001945488581599202,-0.00019352009211677355,-0.000303292100864582,-0.0008740590350984935,0.0024835461928946197,0.0002294359251868546,-0.0010162982014193334,0.0002412319383103654,0.00031900344793766243,0.0007010874408866899,0.0008014285601331577,-0.0011553928010798519,-0.00017478349941270403,0.000352064469367736,-0.0018456999391843487,-0.0009570306041571401,0.0004430801377080009,-0.00008259409296890565,0.0000250306997882047,0.0003446364016505844,0.0003446364016505844,0.0008468929359386623,-0.0021123977037338397,0.001050828803581172,-0.003494558976985313,-0.0006646100875961267,-0.0015272910339421582,-0.0013138782481628532,0.0005405655615486757,-0.00016484577417034615,0.0006358398758609608,0.000382057658301599,-0.00032477318980490366,0,0,0.0009049384062600517,0.00033437749902119043,-0.0017453790686516057,0.002799847369904958,0.0000766116321460436,-0.0012397353686762118,0.0020688303505202194,-0.0002737975848793443,0.00022347741159164805,0.0005589204329727727,-0.00029918296847540257,-0.00016937536611196739,0.002435751685132696,0.0011139615202983583,-0.0022083124200644433,-0.0016583212021260374,-0.00360386572372683,0.00014864975468497732,-0.00291079643127565,-0.0023555460663323593,-0.001206415626809548,-0.0010002497206144454,0.0017429655736129683,-0.00019145386373473365,-0.0007063981722221615,-0.000756805451680257,0.0017496664774534234,0.0005388971560807176,-0.002505060970599271,-0.002272947385620477,-0.0018206636131140254,0.0013862458894740432,0.0036379844832477824,0.001304638839091966,-0.00011155755081790434,-0.000042785412259492,-0.0020824815651722586,-0.0010098629403482281,-0.0013957275229739788,0.0003129338160353479,-0.001339175222671422,0.0029153121478139097,0.002960719141996771,0.0012170358694016904,0.0014724966326637933,0.0035245175781482003,0.001037945423282329,-0.000021971459704315518,-0.0017300673394728143,0.0002837903567415543,-0.0017278717830715169,0.0005537265098463357,-0.0006068652788623803,-0.0016088198546986543,-0.0009882080437471185,-0.0015817882965865862,-0.0016828793115865287,0,-0.000522238641616728,-0.0022452086945870644,0.00025682229458925477,0.003309748120004792,-0.0012336551426668553,-0.003588248509674666,0.0001126018200182737,-0.00045639813335504717,0.0018887298177668874,-0.0012456743244517914,-0.004202904522175325,0.00014882230307975618,-0.0015719550094278245,-0.001442646624676626,0,0.0008261520953272169,0.000060899270933586114,-0.0013985498311796408,-0.0006834561564598592,0.0017910349421217861,0.0014572696275693777,0.0009248406509151659,-0.0023632869113870475,-0.0023147872188770888,0.003273912699950276,-0.0014794488381814225,0.0008533842035036547,0.0011753955350349468,-0.003930420531568202,0.0036896697056832163,-0.0005747583918665446,-0.000940109703458233,-0.0014161441968201798,-0.0009581492429867509,-0.0005318501942161437,0.002744592346886691,-0.0009377035931593807,0.0007418198860912421,-0.0021524252716634395,0.0017929998344470412,-0.0010762656862806298,-0.0012315544538847377,-0.0009615303933202088,0.001612251522826142,0.00012293924641099181,0.0030003035588063863,-0.00021442239949039565,0.0019867144114059164,-0.0009907471560436404,-0.0003347387159358648,0.002709032542987197,-0.002481864678943555,0.0005585104221052284,0.001974307732100271,0.000002233749735911514,-0.0016099065083255127,-0.0012430430360580351,-0.005303639905264257,-0.0006800585151979865,0,0,0,-0.0037142832869704718,0.0016223420724668603,0.004723266764380039,0.0002595299521507065,-0.0019997311554847677,0.0009796153224345691,-0.00016012305719803523,0.0007040276241543244,0.0026267248085315225,-0.0006999917477774823,0.0006295431438935755,-0.0016037970613681251,-0.0027344896419170765,-0.005178994626529775,-0.0010938878691994,0.0019427538246881244,0.001910299762569589,-0.0000470400113893577,0.00017301576216298506,-0.0003734065659986688,0.0007932694383303818,-0.0012506760129258184,-0.0006548791022040186,-0.0003974465631558906,-0.0014591611683992976,0.0006520737851048398,0.002001867358936574,0.001144161549907887,-0.0027715100394067205,0,-0.0005700397989819924,-0.00009925379846841627,-0.0013538831874946454,0.0006370958800364144,-0.0009497117946784311,-0.0007281099348343831,0.0008894387345673527,0.00017209195372557093,0.0002526738405455941,-0.0007282440123512452,-0.0014846177267685116,-0.0008399493518201121,-0.000030471121751017593,0.000202389384180495,-0.00006758091395195765,0.0007571730249773412,0.0013774444337740707,-0.0009016756880581101,-0.0008429969087101057,-0.00206177331437021,-0.00015903608259838526,-0.000020762328624437398,0.001546957984794398,0.0008066389287710358,0.00016012837291900822,-0.00029983028165256304,-0.00043793293243727733,0.0015536265641708214,-0.0022816685554870775,0.004622482788625567,0.0032157036177305753,-0.002743540356940388,-0.0005611726864710102,0.0009478791066542757,0.0002487897541699595,0.0008373357473561363,-0.0003411801892631176,-0.0005128105686306589,0.0026553145621027335,0.00087490782138611,0.0026983576265442854,-0.001129996585327035,-0.0005102538769433643,0.0011145534741419305,0.0020469922036186403,-0.000894855571952334,0.0014516546503931655,0.0009402631200948682,0.0019891874696881576,-0.0000018415103978106025,0.0007266123336578641,-0.00037618291401551586,-0.0004976927859761821,0.0010202833862892812,-0.00027248988333694786,0.0002424119464223965,-0.00046955108325327593,-0.0012270754803431565,0.0007444085389691716,-0.001083921789977276,-0.00033973906937892685,0.0014728270753198154,0,0.0011215010666272192,0.003158392396629743,0.0006336208710589384,0.0006336208710589384,0.0019291724527009146,-0.0002968765126453265,-0.0015300190885307943,-0.001028342772131591,-0.0030774378061847432,0.0020299981592596396,-0.0012842025974132431,-0.0005810886433049755,0.0010022036361772438,-0.0007032840951966806,-0.000024889523582430204,-0.0007908185604294262,-0.0012762100889086628,-0.0032493678818526902,-0.00003153207665277084,-0.0030044524078182006,0.0006195502556017739,0.002616908219965803,-0.002008041914593097,-0.00010413882620702476,0.0013435844943684792,-0.0011301672049729193,0.0008493481115213679,-0.002987783181895784,-0.00318496566713418,0.0016377270350275766,0.0009965470373546849,-0.0004512911938617122,-0.0007182454470989812,-0.0014414473263405633,0.0012358474933520294,0.0012358474933520294,0.002309747421278828,-0.0021573842532290276,-0.001437899190449384,0.001436147313712432,0.004215899952400173,0.0021740702381603935,0.0011149824832217452,0.0012937258354536996,-0.00044367050265717994,-0.0009736265735122345,0.0028718415584409887,-0.0002157440626815144,-0.0007261013719192742,0.0004619325358120168,0.0009113997065625208,0.0016935093934768997,0.00171395820474671,-0.0007654012454588422,0.0013867526998900073,-0.0007927236229750889,-0.002834168042424711,0.002413220910277345,0.0013611039696611394,0.00009235118458373383,-0.0018143205165620036,0.0007748934870428519,-0.0000943183858748422,0.000016374474121901105,0.000016374474121901105,-0.002848827301693507,-0.0016260417316585037,-0.00263783298968283,-0.0006378761231728336,0.0035596780122186433,0.00016702011897081468,-0.0016837976418164471,-0.0016837976418164471,-0.0014306243264547045,-0.0006122779642814888,0.0023412798626873633,0.0010846013019575002,-0.0002094965456772539,0.001971494299837542,0.0005402764453540802,-0.0009015896055899591,0.0008299317288134377,0.00034877549550250476,0.0010350652230893263,-0.0005110829437406905,-0.000060183601438573304,-0.0041525007895775005,0.0016530461041864156,0.00021383444444158758,0.00026936252089660427,-0.0006359497560656817,-0.0005212938860078837,0.00012545420195064717,0.0014375646003059565,-0.0013871823054496116,-0.0005222121245077269,0.002851976554844443,-0.00011196540308529403,-0.00004616930824518793,-0.0002418024972058582,-0.003012041834981931,-0.00008169389751640959,-0.0009287528869689267,-0.0002852767053920745,-0.0009412373095417719,-0.001512129281509202,-0.0023005775533660945,0.0006576106550190244,-0.0018059753951984768,-0.0004785172865239167,0.0014994622888544393,-0.0007337401255066667,-0.0003742146320757822,0.0026469279204295853,-0.0007975215923120504,0.0017918460844243058,-0.0003269134450986,-0.0007940052089582743,0.0008874101882782846,-0.0013418594176910525,0.0010022461198669055,-0.0001034361549802265,0.0007459307627647716,0.001549026429025123,-0.0015042316138662055,0.001139867882902106,-0.0008339311711758516,0.0006696303457269053,0.0005465762206712786,-0.00042408231727575585,0.001522255192012251,-0.003581922259315088,0.0007616671545259498,-0.0014597105459012174,-0.0015049221646080027,0.000054907876155107864,-0.0007622079417698841,0.00022818004715494854,-0.0009395931856138301,-0.0007405006114672191,-0.0012144892119813314,-0.000015380393742350822,0.0008196492490024997,-0.0008346516321764893,-0.0022167738395646487,0.00008665679345394546,0.0011117182287609076,-0.0020110121753485156,0.0005534489787393467,0.00011255124958353007,0.00027738007324927907,0.001776400324032195,-0.0004286414105971354,-0.0007476316637013475,0.0002530678538373286,-0.0028975359677731946,0.00003474558716010773,0,0.0005142714911760081,0.00017254923470561392,0.0007470036762604309,-0.00015070606878155675,0.0023752027568065097,-0.0002721313725618925,0.001893245327401557,0.001893245327401557,0.001893245327401557,0.0023516643651272004,0.0030849963459786316,-0.0012961437500726447,0.0014437618590325853,0.0019942888363542683,-0.0003618313201141617,-0.00042241211144752167,-0.0013738988984915502,-0.0003392092667897143,0.0014378016629505632,-0.0007036367925644289,0.0009092568859081799,-0.002149294533850504,0.0007414252993896407,0.000817004172954107,0.0008473101172625996,-0.00018269191912647736,0.0029105490090441475,0.0005630183581334558,0.0014068812256281095,-0.0002771420956101864,-0.0008706046357203302,0.0038051477021258484,0.0009088717086082744,0.002787124659592924,-0.0012741313151810973,-0.002261226122320466,-0.0005035700267083242,0.00014653098194584757,-0.0004776525574223756,-0.001648279631732094,0.00038481659384952696,0.0061455435262541165,0.0009680906325625191,-0.0010820121394269748,0.0012053382023909814,0.0008592499059036076,0.00040436645774816763,-0.00048325661524798607,-0.0011753689034303323,-0.0009413014454215846,-0.0031079145705692653,-0.0016628035554489178,-0.0002237053319527856,-0.0008493405955667702,0.0029509357279025273,0.0010531899572756038,-0.002159589272825346,-0.00028792964242668414,-0.0008988734296107891,-0.0006666931880535002,-0.0015132031989835756,0.0003799367306868859,0.001263381098585985,0.0009699603946334167,-0.00024436962693779425,-0.001205259284608668,0.0002333017804366637,-0.000903593217174872,-0.0004289961120241726,-0.0003844176697934188,0.00016693790884926975,0.0002336515297017377,-0.001009367303625655,-0.001009367303625655,-0.0021839717057780617,0.0019059419954322084,-0.001958570781348184,-0.0005781360888543969,0.00014898550879804788,0.0019581129431279843,0.000685380587349097,0.001147189394256108,-0.0004284303503244507,-0.000603966124380257,-0.0018931117196420266,-0.0004104281596162479,-0.0015842419909365463,0,0,-0.0015842419909365463,-0.0020533729884678045,-0.0020533729884678045,0,0,0,-0.0020533729884678045,-0.0020533729884678045,-0.0020533729884678045,-0.00008805958318821151,-0.0006300215774361884,-0.0018902846023021937,-0.0033557514071096916,0.001214292343637617,-0.0006009903695691746,0.000744798782071309,-0.0005636208156376078,-0.0008890496081318831,-0.0013394252212052126,0.004402971484783569,0.001227996480215077,0.0031957066980170114,0.003962809607831476,-0.00332250728404991,0.001290141458808245,-0.0010220973343076955,0.007760045825948355,0.0001878016873267911,0.0003498109760303149,0.0000552870924401739,0.000996036464111093,-0.0006342955681414705,-0.0006342955681414705,-0.000959587233082653,-0.000604149400437122,0.0011214078321708403,-0.0007054164002782367,-0.0017834812033731304,-0.0015277329590457768,-0.0022701678213289545,0.001079888295826155,0.0035235233800213575,0.0023922563479233834,0.00007335640453219681,0.0007821410894751713,-0.0007408961723489832,-0.0028062527962429426,-0.000015348477239570836,-0.0004718955496494729,0.0019916843323939675,-0.00007496172694754303,0.00013684933432506056,0.0016555704521582864,-0.0010357658645853227,-0.0022956230679286272,-0.0002826569905170736,0.001813914377306531,-0.0002703964416537249,-0.00043731598571274707,-0.0015843059212650307,-0.000745553289041533,-0.0023814042864639335,-0.0010893699736552595,0.0008503065222168273,-0.0009311837841438381,-0.0018319863897456995,-0.00005307541740469607,0.00012388562942568059,0.0006284509745631871,-0.003153279154436567,-0.0005601845776758471,-0.001332308669117856,-0.00027701661663569627,-0.003808841066126131,0.0005691691930859848,0.001025897780541081,-0.00019194391250194917,-0.0003883066268726107,-0.001001995210476391,0,0.000664046700816985,0.0033412685875756822,-0.00008530489247320558,0,0.003699838331045761,0.0008222837088220367,0.0003898975136959364,-0.0019674602993344755,0.0010283110796386065,0,0.0015189806959683247,0.0013737631659107522,0.0017805664750532024,-0.0021957515794127818,0.0025663903046777396,-0.00014141151154555096,0.0005591973080782158,-0.0006405527428950362,0.002037709923419756,-0.0011099597807901604,0,-0.0003763811618493764,0.000012044293376078085,-0.0016462362149392749,0.00004997002865729809,0.0011212751996605259,0.0002751340474254543,0.0010084831243619594,0.0007022131058743098,0.0012644234245837024,0.0018143317499191313,-0.0009918103099860898,0.0007281384462224438,0.0010449043583334449,-0.0003074710216130999,-0.0005323570500145805,0.004200467706284254,0.0008187207329564604,-0.0019168496987746015,-0.0005084237728734305,-0.0008609587783802347,0.00042848606796265114,0.0003581645418256904,0.0013131317756766112,-0.00048665669869055677,0.0019344004576634622,0.0005188959936010483,0.0005179266792255903,-0.0030806495323181097,-0.0006621468235036827,0.0014711348466480284,0.0017027285541111636,0.0008105120352132482,-0.002795309319952611,-0.001216961851649598,0.0016059164839093466,-0.0018642367669160231,-0.0009612132912150586,0.00032233213442670614,0.0002629095387244234,-0.0009526566587012807,-0.0008536064868812412,0.001098950439469296,0.0013868142670611003,-0.0014537417543556256,0.0009709922591564489,-0.0012748512230894933,-0.0006740620750017202,-0.0029426250798589987,0.000314554156020017,-0.0002977454736974816,-0.0004894613182745851,0.0012025021850112006,0.004014583346727301,-0.0014853211074668808,0.0022038732083206904,0.0000185734023074266,0.001928364853352431,0.0006789247214206674,0.00024084295834879259,0.00016107892741592188,-0.0010356662172483501,0.0006233842781722949,-0.000058677312581153894,-0.0011359571605105408,-0.0019938331783923772,0.0012047803107056664,0.0031957542907158944,0.0006157995942298452,0.0012266227058488242,0.0007819485101082488,-0.00007229014907404318,0.0016618201068712764,-0.0010199610535748607,-0.0002789560217429849,-0.00028838595902599365,-0.0009686251576732412,-0.0003304119159770315,0.0005150234424825987,-0.0025793751714522414,0.00008718258263487523,-0.0014792241595545294,-0.0024132495091766177,0.0019275516464320424,0.00007932980466846971,-0.0008952164312171648,-0.0003036563718312226,-0.00047726614513400606,-0.0013058367945350117,-0.0017974898731741376,0.00009238779864385258,0.00011228242820780868,0.001308585758707656,0.0005631298128385589,-0.0010853841616027648,-0.001351407328526554,-0.000013913275205184867,-0.0003651260293992725,-0.0005436685922919739,-0.0013384766707194842,-0.00003741565876774376,-0.0003758841069146095,-0.00027978363081432957,-0.0007010998511356719,0.0014258554124050888,0.00013937143090655708,0.0011864915844467148,0.0029844193962203715,-0.00012243079950554606,0.0011426504027453042,-0.0012194797015742545,-0.0010724119887314222,0.0008890004320179588,-0.00009461704019323678,-0.0022852236207148175,0.0019414938858342084,-0.00014886219763858859,0.0019446459494076986,-0.0003297528943933916,0.0012337403768824182,-0.001908229215304573,-0.0006296103766511916,0.0004465452073871338,0.0013331100381291663,-0.0022585788342028364,0.0009564182202888171,-0.0013392253731979277,0.0018806985346925692,0.0003413255860278434,-0.0004438380935227826,-0.00021978251555707407,0.0032906202593954437,-0.0008793284743847807,0.0005474484269893329,-0.0011679341211045218,-0.0007359226836079468,-0.0025606242742987127,-0.0011740271480134626,-0.00003862755978680833,-0.003087917922502454,0.00019306485734255376,-0.000038341011471868056,-0.00205024100408643,-0.0010582964570649,0.0010907883505575269,0.00013656611477086357,-0.001324800105475436,-0.0003251668514660934,-0.001917266976907802,-0.0005157706564361318,0.00025902013901681563,-0.0012547205712020687,0.0013765582294258253,0,0.0010870945583464637,0.00005834041904156169,-0.00039268921958486374,-0.00009918972389826947,0.00009497838110446392,-0.001029994637816385,0.0016842832344105764,0.001074540913151292,-0.00018956423816177874,-0.0014542941938353855,0.0011233375083726084,0.0006080096419030395,-0.0003368753469532631,0.000212303864389542,0.0011469779282591939,-0.0009266943079470214,-0.002532759264659625,-0.000246228650765432,-0.000246228650765432,-0.0003118277682095137,-0.0003118277682095137,0.002254843057353476,-0.0004175605916144999,0.0003343499443435351,-0.0006633108536253565,-0.0012575609845510319,-0.001036356371199159,-0.0020971226245061012,-0.00151585072635029,0.00005512404386803554,-0.00027977831404890825,0.00247244893074174,0.0023296900492823973,0.0009355633653955181,-0.0009948108981516998,0.0014819745305619972,0.004623171587875565,-0.0004001054921927842,0.00043228896229135475,0.0009440173679220954,0.0009746369936407093,0.0009183214508229631,-0.0006803823752600175,-0.002277712525036576,0.0006354325537218794,0,0.0023625321534615678,-0.0015944075555924455,0.0015399823598031255,0.001657317668771045,-0.0013833622821160455,0.0010931422241178801,0.0009150191375333125,0.0007180867564778523,-0.00011186221738317711,-0.00016108864254873957,-0.0018347239366843932,0.001782172896694103,0.00017825438238209027,0.00022574410434764885,-0.000848389758957877,-0.0007953009229743958,0.001178913407564891,0.000060162534281747504,0.002156721851613322,-0.0009681471823491772,-0.0012260765521469373,-0.0012260765521469373,-0.0012260765521469373,-0.0012260765521469373,-0.0012260765521469373,-0.0012260765521469373,0.000850374805335052,-0.0003604351901966889,-0.00006654399014191238,-0.0007857775774633812,-0.0019258308867516492,0.0005785303827646376,-0.0016623592853730578,0.0008195853918033064,0.0002589982141575225,-0.00019500622689218485,-0.002896944517205697,-0.00010063489762337022,-0.00048007116446613043,0.002897402569480542,-0.0001993041324401141,-0.000252401833095124,-0.0001993041324401141,-0.000252401833095124,0.0015265547496853432,-0.001269358859390458,-0.0007600960741526517,-0.00004774269419956657,0.00022121621525014355,-0.0005693838546468096,0.002073069965492598,0.0005066016070899761,0.0015294804653877992,-0.000340899713889822,0.0005262016977386917,-0.0016795698398075992,0.00020124116286947236,0.0012815184876016914,0.0014490640363747508,-0.0017852141097034356,0.0022690561450303057,-0.0007838999014147169,-0.002403401339251313,-0.0012140513873267595,0.0021910019252583033,0.0026257440493433577,0.0021177031704891513,-0.00151508624318212,-0.001034809873784225,0.0009110721993035194,-0.000637499192450736,0,0,-0.0012179618033257142,0,0.0011503570443344982,-0.0001742796011945327,-0.0018187380875765724,0.0001971373568755334,-0.0008776170499409289,0.00014767356678132106,-0.00015436630341006516,-0.0004581195184649017,-0.00042245964191227293,0.0015692279992859741,-0.0009666662877824985,-0.001319524839659697,-0.0013771125008064176,-0.0003421116327690829,0.00035300861870951345,-0.00241608171454283,-0.00241608171454283,-0.00241608171454283,-0.001205965718991058,0.0005833621860790819,-0.0010068005239963255,0.0015455522815037467,0.0004967005540532796,0.0024082347188203942,0.0014798082747256977,-0.00010644562314395918,-0.00014082834909217242,0.0008789314406608339,-0.0004115897852072901,0.0003478322900193495,0,0.00042523057274185006,-0.0005961842373003015,-0.001039875701455446,0.0014735235164330949,-0.00019406062939595928,0,0,-0.0007133359168290954,-0.0011950357956575148,-0.0007032442891499405,-0.0024531965949094337,0.0011735677315734112,-0.0029101626223614393,-0.0029101626223614393,0.0019158026234498177,0,0,-0.001685790398950953,0.0005628202112614654,-0.0023875219716630704,0.00039981510008337933,-0.0017808320997113923,-0.0017808320997113923,0.001150536801147862,-0.0007715905944856234,-0.0009484161051096455,0.0016376635487752554,-0.0015168610004783047,-0.0007790198781040081,0,0.0017421376692558367,0.0017421376692558367,0,0,0,0.0008442688898756957,0.0011169740045607775,0.0008819965061555112,0.0008819965061555112,0.0011169740045607775,-0.0011919164355098206,-0.0011919164355098206,-0.0015094613921729915,-0.0011919164355098206,-0.0015094613921729915,-0.0011919164355098206,-0.0015094613921729915,-0.0015094613921729915,-0.0011919164355098206,-0.0015094613921729915,-0.0015094613921729915,-0.001258678248025307,0,0.00013673986602152693,0.000274365501063445,-0.0007914395065709606,-0.001044605503541802,-0.00010514798405084503,0.0005573716701675511,0,-0.0018282516017156518,-0.0010895639819199232,-0.0008836762509369182,-0.0008836762509369182,-0.0010895639819199232,-0.0010895639819199232,-0.0008836762509369182,-0.0010895639819199232,0.0002889019076462441,-0.002090557622437479,-0.00003113963176982786,-0.0006472460331487752,0.0012634693740101977,0.000041039279629977334,-0.0013888812211458109,0.003204179649815492,-0.0014053310789814172,-0.00021536911579995733,-0.0011547268267611047,-0.0004976786432360505,0.0018603575633524443,-0.000818090398850799,0.000543447284504584,-0.0004371774946828204,-0.0015452367158508941,0.0003291771763772718,0.00032356231580246263,0.001011620179053305,0.000928018276958111,0.0009755359965968125,0.0008514159677512651,0.0010497873753082176,0.0015560389516347626,0.0008370651551808313,0.0005574312265549191,0.0028301186926255723,-0.001242816391398057,-0.0019338938255127056,-0.0019259948817685402,0.0017441151756185352,-0.002492263231796289,0.0014350619780891844,-0.0017427604547429199,0.0015766443755913025,-0.0015384591598028032,-0.002406108128414803,0.00046580492409407963,0.0029753704063488246,0.0009247271511068142,-0.0023759266781772552,-0.000064611296233723,-0.00003854763237198637,0.000042443649496523594,-0.0010718601926296163,0.0012018935991492037,0.0027416904847089706,-0.002408805325859952,-0.0006838790863601305,-0.0024400512735616585,0.00024045814383602272,-0.0007187801181212355,-0.00032676579484959307,-0.00009621474598789782,0.0009501469033130757,0.0007012898692468885,0.0013842199298826465,0.0006627902399115822,0.000437350293797517,-0.0018889213909921046,0.0004898289473478044,-0.0009766546961289576,-0.00048041589467044644,0.0015332637598361749,0.0004727910981113443,0.003214958278859285,-0.0005090344534634226,0.0025562821776780576,-0.0001712234429358825,0.0005148009777177158,0.001705693095542608,0.0014687290222766963,0.0014687290222766963,0.00004591920683555905,0.002565474094886811,0,-0.0012463725745957568,0.0006815061628357409,-0.00013208453153624707,-0.0006162219567666276,-0.001348466712712422,0.0012576073237969643,-0.00032724346898798176,-0.00033385489375928833,0.001033329370057392,-0.0008910157142194661,0.000053860532270731264,0.000022467243425429567,-0.0009797693794067126,0.0010396700692093383,0.00007933211977849056,0.000683644604305486,0.0011616975256830374,-0.0004169084669373986,0.0014811607727448187,0.00010567918695525403,-0.0002500633745037487,0.0037450843437767355,0.0006092435708251046,-0.0010349377903292717,0.001051204020023921,0.0006352914947515584,0.0013658356580495854,0.004763948293839054,-0.00008375090924889487,-0.0011848799149187198,0.00006517302390840409,-0.0010092392895003721,0.0008061196628256308,0.00040630224700493114,0.000251152542049364,0.0007472556385108131,-0.00020553423858718403,0.00032427858585786103,0.0005539205830680403,-0.0008971438363832274,0.00247535781076539,-0.0007125180954340769,0.002246000341500558,0.00043817838511881526,-0.0008865760691131849,0.00005438316779439853,0.0034583184543694762,0.0013124594496568818,-0.0006455865233718903,-0.0006696668746216541,0.001836520841691773,-0.0005569376056400884,0.000637787382558061,-0.0004990820749325592,-0.00008611453738893807,-0.00039467412281660907,0.0001804425837044054,-0.0010500466018639769,0.0004253960010553012,0.001183399885130705,0.000497885939872961,0.000279567205414413,-0.0007394584672031336,-0.0017277168387647415,0.0021252952515895566,0.0015538800782248958,-0.0012043537189677885,0.0014840214768850845,0.000228472706185058,-0.0002021966717243434,-0.0002021966717243434,-0.0007243509863836342,-0.0007243509863836342,0.0007766814733364137,-0.00025739510715676393,-0.00019566611598773953,0.0008020464505895544,-0.000011351405938837442,0.001446330868833199,0.0006082103043939506,0.0007805531896700186,-0.00020504107814677675,0.0002905931061849958,0.0013828983874618218,0.0013828983874618218,0.0009601861661670144,0.0016679457918669042,0.0021145908456564576,-0.0013215835549189444,-0.0011044249047607944,-0.001935895010245743,-0.0017361109356860106,0.00007411625148063763,-0.0017896173346669062,0,-0.002206580280057554,0,0.000029443988757986168,0.00003630414374126594,0.0010935698902826755,-0.00010555102568740929,-0.0003303154286105367,0.0008861604777070168,0.0021872079726061523,0.0018832028723278595,-0.0005993279114132384,0.003083264578915177,-0.0018325443656971177,-0.00009635892881055169,-0.001039809859254707,0.0002136532635233188,0.0007077649721528932,0.0007720478681166057,-0.0005633318689212405,0.0005957313550243492,-0.0005652146239165137,-0.000487911288600935,0.00038655063623059045,-0.0009544790057917842,-0.0010718173756055175,0,0.0002731443760019208,-0.000031604684882948495,-0.0023169949457119217,0.0029509414338701597,0.0012003660756252515,0.0003777627810302829,-0.0007465797446696961,0.0013512958511569773,0.00029039494587617483,-0.0027414689551282802,0.001404899936104402,-0.00023189263646800952,-0.0002672548845680144,0.0007387195700527034,0.00002665858200330296,0.00038028027142398494,0.00038028027142398494,0.00038028027142398494,0.00038028027142398494,0.0020136002911735028,0.0012660811692850429,-0.0017387316013327816,-0.0024964348343233423,0.000395276155280341,0.0020473741215679556,-0.0006499953597373319,-0.0005271700167684995,-0.0006499953597373319,-0.0006499953597373319,-0.0002830129341712173,0.0016386254075303735,0.001020258969261844,-0.0007330283373951794,-0.00010534467614406099,0.00015234754302791655,0.00024712198564641,0.000872895203862542,-0.001416470889287562,0.0010196797636681156,0.0014595651316592201,-0.001353994870434876,-0.0011323314670274964,-0.0010308028025967468,0.00035469536029772886,0.0003643108903807514,0.0022185761657332586,-0.001146492334325293,0.00005214344994316766,0.000822243562834989,-0.0008349572253918697,-0.000675163720220945,-0.0004885552866750816,0.0017888302805045687,0.00016488779569841683,0.0017699143539104765,-0.00010156430652224184,-0.00010156430652224184,-0.00012522777444565382,-0.00012522777444565382,0.0002861092129873762,0.000425749896235832,-0.0020783105307870383,0.00004166448926853233,0.00042830973664627093,-0.001875255023263229,-0.00019670873664153307,-0.001995933413620869,-0.00012126296623671186,-0.00038885129651241164,-0.0011136855921477142,0.0010613661887158264,0.0017163175062482792,0.0010016450355052572,-0.0001659463649662866,-0.00004815179154111604,-0.00015164300386620632,0.0006495734386656926,-0.001935177489686309,0,0,0.0011597500286777643,-0.0014899010729861651,-0.0031721388770741105,-0.0005974817770996123,-0.002859580461103964,-0.000156840422694274,-0.0014616229510699109,0.0006308012169257008,0.0007777715933689419,0.0006308012169257008,0.00007911217511136486,0.0007777715933689419,0.0007777715933689419,0.0008466803334712681,0.0002242202043125269,-0.000018806220598094163,0.00177432246412128,0.0006542545076290676,0.0025189519736464614,-0.0008370165637101209,0.0011280447459040238,-0.00038721463296420794,0.0014778846571305594,-0.0005103008677402064,0.001393712552429905,0.0003413389292143452,-0.0005534879630738102,-0.0019816975666586663,-0.0010262005521443922,0.0020173318594849535,0.000036214144448552934,0.00003197302867866627,0.000036214144448552934,0.00003197302867866627,0.000036214144448552934,-0.0030536153148474567],[-0.0027784348081189222,0.029049686768221037,0.0061964982029877455,-0.002645121343930503,0.009220645448248485,-0.01421930291890066,-0.0051737825115603965,0.017002295639314075,0.004944865034445987,0.00040848667599500894,0.004616950472924481,0.0013610408858641524,-0.001808028489331825,-0.0074085878671645905,0.0011610587536186204,-0.0018849595659786672,0.009944465902162388,-0.003491202337256284,-0.009903493020011202,0.0007714817559137134,-0.000001648687398061192,-0.00440709709714274,0.0039718870034684455,0.002412526362561086,0.0007545748646473567,0.0024530010671039004,0.0014451463872675462,0.00015357900803281718,-0.0031384384430040925,-0.015846929126052043,0.004929913677586752,-0.008090294686621863,0.009052340881620276,0.003831650409692597,0.011292498950222449,0.0010418663018298816,0.01586080411697347,-0.0023325118228622456,0.009438321671352426,0.010267192583942503,-0.0006716530622120482,0.008828331059026265,-0.00718285822307406,0.017926341421138144,0.0051527091149357225,-0.0037054017238785978,0.017329867266000065,-0.003298836072691135,0.009912992096859618,0.0029524153918699674,0.0033995394778769967,-0.012568805881799624,0.009007811255730434,0.01829941107248039,0.01944689604333401,-0.0004593875502467192,0.0005137812796075106,0.00833197670197056,0.0005215324124396967,0.0009187279508460727,-0.0041530538369176995,0.0018616786040608676,0.004063889573899343,0.0022386760254701817,-0.001240587484375471,-0.010145011601443495,0.0005717649079708086,0.0054628682147117805,0.006479597302076612,0.006066278623233982,0.002585730116342757,0.005226813643966011,0.006151448967273576,0.01349853124167165,0.0012482795784744042,-0.0006442436613720273,0.005632564600641968,0.0056012550880953854,0.006704917538323503,-0.0030461924251774103,-0.0005402282064361915,-0.0018285265915430884,0.004503476771777419,0.008911091836461372,-0.005351286877441695,0.0010814770994377174,-0.0035779758505506557,0.00422629674578342,-0.005243564914543442,0.0009482823815413021,0.0012262140000874624,-0.004357909486207612,0.002269594604815514,-0.004189492663465119,-0.007582230694353037,0.002834719329850823,0.0010658918081632924,-0.0009407557553866681,-0.0015460712612559496,0.0037121323111850143,0.005613273541072627,0.008499991638599144,0.002683909225634391,0.0042797114153652616,0.00561947210138147,0.002689033213997634,-0.005256722202568299,-0.007261876592793362,0.0018485960095352008,0.001284031022619185,-0.002986401092443302,0.005943973087134002,-0.0010798738545116386,0.006455145158294718,0.009270437820688298,-0.0011123640607400525,0.008188791444837825,0.00719375464635643,0.00333798552060371,-0.006101034762885924,0.0037269524110185278,0.001576684175895136,0.00023190284485329597,-0.003142958534521351,-0.006113146660150017,0.0016798216301906566,-0.0032940460230817844,0.005807604177181682,0.004822274553500037,0.014055221817497299,-0.001241515491211182,-0.0014808135738355373,-0.002315748889223684,-0.004092971349284982,0.005803748592764042,-0.005999642835878341,-0.0029585110673000896,0.010101058069474408,-0.0037072434569547837,0.001960140733191134,-0.007037174528997896,-0.0024615175131935084,0.0008086725892473016,-0.0037159406455505857,0.002859694457175099,0.0017158136000815216,-0.001740828479592885,0.00006242838075957256,-0.002079878653727834,-0.00006713612499391493,0.0025419745135504823,0.011095786367152286,0.005198535961890689,0.00616301335270564,-0.0013212621233820861,0.007912464245002101,0.002695142518285769,0.005923120979693799,0.002941956848006804,0.0008607617971072295,0.005421885217834618,-0.0024487592203473714,0.008756488997007334,0.01435584845808658,-0.0019875618288532474,0,0.0009854676671605743,-0.0012393757417228845,0.0005751306017512517,-0.006000001125658712,0.004822730245379167,0.004002345580249618,0.005186471694951332,0.0004517582487423152,0.0042388025532143336,-0.0054925498386359664,-0.0009994462623497838,-0.0024075832570762136,0.003505379369858519,0.002584544571107507,0.0018326375393463439,0.0055077867098436714,0.00876865833131264,0.001028203018056759,-0.004349307249141128,0.0022088593933730773,0.0031539731363635667,0.005751173185987602,0.0010335376857465075,-0.0024236311495323126,0.0002046967787697932,0.008052161535824753,0.0031052017028424853,0.0003347005767855454,0.0032482999364573644,-0.007124713073944498,-0.0046643776251530265,0.0029709075430719998,-0.0041211299704367425,0.0008184651640801683,-0.0036526988170849806,-0.0043207857951931584,-0.0003893913896794829,-0.0032778360265308575,-0.0023315113438644184,0,0.0021360617956391347,-0.008284775487442986,0.0024847472666883895,-0.007325063565534945,0.0036190377822959514,0.016515313749674028,0.0009733279819142608,-0.004773870826654496,0.0006061992939672442,0.00010902541874530654,-0.01116181403990115,0.004072230921927082,-0.0005495190642120494,0.0008947049777861588,0.0054448970329555564,0.0031967660369626883,-0.0008372131574725162,0.005886775735024724,0.001327822345622111,-0.0030980851879414024,0.005784160885447555,-0.008406221039436602,-0.001850245716184649,0.0009956979202074227,-0.0013754930983570317,-0.0009250636627205877,0.002509073037793938,-0.0021487929457951237,-0.0032039990947059296,0.0066330292412376405,0.003082525494318809,-0.0017956255221144855,0.002090952485262561,0.004429535573889516,0.002019978197650509,-0.004398458001989274,0.00035786872876928836,0.0032402726010224746,0.003293361055185982,0.008503616165085062,0.0015687351743621444,-0.006030676871192136,0.0014941030342672103,-0.001648041924546938,0.00369674708853946,0.007006827262915336,-0.0027587299287524037,0.0006321358714135924,0.003184133116681063,-0.00175428899787851,0.012133369336686115,-0.003806290772027958,-0.0012824385763070317,-0.0025025848348200212,-0.0036004090976368927,0.0010807889247007392,0.0022137521551728653,0.006653657373154132,0.0034185076968773877,-0.0031544010221097323,-0.004745952702507747,-0.0006206495013193717,0.005975862965847347,-0.0033073056132675656,-0.003262736738318459,0.014664017908225514,-0.000037063639335657583,0.009261052558912002,0.005511396763057524,0.008318549457871553,-0.00024356494831243882,-0.002675163809078296,-0.0057986482516343765,0.0022228090316326323,0.0006617109754808692,0.010420884725984571,-0.003060051006403282,-0.0004315059029564004,-0.0021191341778025495,-0.004826841190944955,0.0025610611586589158,-0.005398534315921803,0.0037625532631991063,-0.0019363658301264543,-0.0049863268551931005,0.009167281045848219,0.000749305433972489,0.004196628052977304,-0.0005945399039112831,-0.003973974676139789,-0.002972297093241155,0.0014503722066592512,0.0052517301758467465,0.005175472793961523,-0.006657484262173859,0.0008460716872722237,0.0025966710357756277,-0.003921884307787605,-0.0022211666024397514,-0.0007586722909895928,0.0005843689782848834,0.0018105475572981887,-0.00021438817362354881,-0.0019061314175583678,-0.0024048261236012387,0.0021870843600467664,-0.00044893539830158087,0.00016475524043583074,0.0006375597839436079,0.00035791003496827884,0.003006855170563225,0.002392453288946493,0.004673040202282734,-0.002596408589110518,0.000623030540896317,0.001122263227125211,0.0007597632723067932,0.0062379534678409345,-0.000045170110875435,-0.00203716326640313,0.00017930228294242177,-0.0016447871198992888,-0.0003911958711401997,-0.0019486006915864539,0.0016275584937012074,0.00011217902168919472,0.002552143474466905,0.0017452783563351856,0.006106847045127739,0.0016754922874345692,-0.0015118134930539517,0.004255522754148476,0.001789756898714405,-0.0014260451599080975,0.0006611142377563213,-0.00042929935971793584,-0.003680467276906363,0.003145687185757925,0.002786040779522346,0.0016651481745001123,0.0009538993100959595,0.0006527636407465329,0.002688771375475582,0.0019024919615587008,0.003424682976415593,-0.005291129632609583,0.006189937201888571,0.005263134579288103,-0.0004583202342879256,0.007883471273694789,0.007062956557817496,0.0016566995581269366,-0.0031322630295525363,0.0038512243452827485,-0.002780748149490198,-0.0014085676552332957,0.00839888970807971,-0.0006726905697892883,-0.006309719439360059,0.0011579309343695908,-0.000719867066353121,-0.004499750914672225,-0.0018711851801556688,0.0030387639757276687,0.002382464147396704,0.005874892928659061,0.0015746156473395547,-8.189601594884069e-7,-0.0008849104617002326,0.0034839437837495095,-0.00270348304910746,0.0024224726144663894,-0.0003337839749299695,0.0021581891767446662,0.0015917672846083282,0.0025803973096701323,-0.006166779204946741,0.00012214835085822245,0.009568194491571053,0.004291037100893751,0.003572304419959416,0.008885234049987912,-0.003981218502777683,0.00414068435513131,0.004653174918940604,0.00484633489075269,0.0025718698645046,0.013023122371453106,-0.00007201908426916976,0.005592229561860534,-0.00009568320369020256,-0.001909486813770817,-0.0026714410834209456,0.002605964502416437,0.0008497752660845436,0.0005604099687014094,0.003045311063296412,-0.00406605689143522,0.0010336775863804624,0.0005167293247869821,0.0016451001757167248,0.0022448063547334477,-0.0028918016838961817,0.0010666756890175023,0.0034247598921083033,-0.001193720507594366,0,-0.0061010855563967395,-0.0000462299680965457,-0.0006464422308738612,-0.0037288096615141226,-0.002828825739810289,-0.006828508728142586,0.001454020970954084,-0.0018050739876142577,0.007242638765873246,0.005659111612713182,0.00669926894781931,-0.00023979067286240632,0.0034246065761589766,0.005383750305265917,-0.0009261007710381615,-0.003347352908503187,0.0073528913329943294,-0.00048307673255225793,-0.004207044300596474,-0.004018772324295697,0.006260337220122441,0.003788562746188098,-0.0025454403103053287,-0.004812973608324288,-0.0014282808310087098,0.007339280677925547,0.0014956450033261968,0.001475748750781662,-0.0011437447232534393,0.012469904838847086,-0.011924525127574062,0.007703953128009769,0.0006824555173066476,0.0059204882783911806,0.002514320237372943,0.00496412087079803,0.001574196506548579,0.0008452043312008544,-0.004214139157003058,0.0017042995055297743,-0.006304479490368091,0.0023503735768029884,0.000937934627737187,0.009915161271999758,0.0027735282969815855,0.003194914313146605,0.0034384118940948673,0.004933763005185807,-0.0022593295403952906,0.0024385486978243417,0.000014706642281883025,-0.0018769956098165941,-0.0012908560497853034,0.0010204246185972347,0.0020642586288088897,0.006763503681214988,-0.0006561502878880757,0.0004511102404062922,-0.0019499426876612978,-0.004993411368861827,0.0015587595999231414,0.0027208988594734545,-0.0025332668405381284,0.0029634704465144987,-0.004678694211155,0.000026121743141187682,-0.003911454893778521,0,-0.0007105493799085053,-0.00044926466844406486,0.004853953382712932,0.002175928004382973,0.003804646454266582,0.0005204348056092845,0.001030380388480504,0.0025048368927782934,-0.0035654998560822604,-0.0017241838282625003,-0.004107718554651713,-0.001379280259439887,-0.0025388471107400225,0.003952232341906052,-0.004844296509358792,0.002707355022687983,-0.0023669590243478806,-0.0028563727358720137,0.009012790175275634,0.004571402065990194,-0.005447677200927221,-0.000505947406908252,0.005371580988388602,-0.005087460149119432,-0.0017865984329363423,-0.0018154576142611098,0.0005343516378766481,-0.0024019597645704256,-0.0024428422615450154,-0.0005671352494761113,-0.0028360637991818247,0.0031734384871086522,-0.003531845436630564,0.0027072662640371496,0.0027072662640371496,-0.0022180874366136,0.0007423512714852766,-0.001958925176909647,0.0027676111812384753,0.0005555299989163125,-0.00044539825792981917,0.00240428761921439,0.004339965466903559,0.0006918403121606286,0.0002870916787798684,-0.0006539422824999965,0.0021581736948082663,0.005054707496647258,0.0006568618846767528,0.006210298608434403,-0.0005030009478304344,0.0024344824839651552,0.004149463090717096,0.007985235182566811,0.007985235182566811,-0.00462948931814116,-0.0005448461849396895,0.004318720735415094,-0.00405930976267849,-0.0009650632717080857,-0.0010208768798278783,-0.00032472124617510307,0.006618483167581949,0.002553936487976344,-0.00409506306385022,-0.00343274162540472,0.00607128967332193,0.002219026319228464,0.00009038392136877498,-0.000935298907956409,0.004321810413556629,-0.005896853848417238,-0.0027933580405887235,0.000981416350135396,0.0028688457257181176,0.0006492621285193207,0.007029493355922218,-0.0015554872207904627,-0.0004527377188514103,0.003492546380312473,0.0005142906764288676,-0.001682858485584254,-0.00028570731941177725,0.003366740380528741,-0.0012934733851576933,0.007327707307993063,0.0024422295400373314,-0.0011548623913173288,0.0034851230643571647,-0.0029860391885965804,-0.002702273354894465,0.0002729365976148466,0.0052912869659100985,0.0024667749934095037,-0.0026819529489212892,0.00515194627759332,-0.0023907130327203356,-0.0015050153009775703,-0.003811582103076223,0.004487610913999764,0.0047680815937762204,-0.0011484761131363224,-0.0022361203933003062,-0.0008451868175174802,0.001496077130388111,0.0011736507621892699,-0.006613313035568589,-0.0012951074165537335,-0.005476317303135833,-0.0006508207826233412,0.0016461590314129021,-0.0024579934389804244,-0.003503899063246067,-0.00003168892585168602,-0.0020618059527360787,-0.0026368826745854787,0.00018741531400613101,0.002237987680823674,0.0025102738835556834,-0.00453002420998939,0.0007893880055111516,0.007848432828663491,0.001452890557321597,0.0021145524360380204,0.004386890842861658,0.005305652756647329,0.00341743706696944,0.003987018486473322,-0.007281684347717464,0.004221846237020365,0.003723451277866373,-0.0007321612189745561,-0.000689768778256431,-0.0013544229505332215,0.003915167425373874,0.004143323537237964,0.0036903788024712733,-0.0005327433944898794,0.005765258820569552,0.005765258820569552,0.004339188525150557,-0.004009128484778119,0.007576947517775731,-0.002992616861944147,0.0023866656424750936,-0.0034395929983183473,0,-0.00009732960791241014,-0.00039819915318995444,0.0041686562734504565,-0.004603978734002761,-0.001707011455949307,-0.0021908830393192894,0.0047873742378753675,-0.001066192683429078,0.0027198128567609784,-0.004976019577267529,-0.0057549788044955206,-0.005543646818287822,0,0.003739161082002761,0.012584666000707154,0.0013219427460365563,0.0005565165729874343,-0.002558494858806672,0.0027418531145484313,0.0064623795682576726,-0.0011330201403136888,-0.00011501073008355863,0.0003970810948975682,-0.0019582581410572146,-0.002424163078516298,-0.0058330158412503354,0.004855188962878432,0.002504433660895806,0.002631146488984497,0.004332455554832666,-0.001767896172830977,-0.0021720767565037713,-0.0019479848969975004,-0.001472779879610934,-0.00025623852144071916,-0.00208989230188476,-0.0043474580432463425,0.0017267545485361501,-0.000852823912258188,0.009197798549581129,-0.00012512741690417096,0.003498402030149574,0.0037659044638007943,0.000003897953641302963,0.005790910955084621,-0.004762293022180207,0.0007871955992585295,0.005423389907692931,0.004227653475716103,0.005219269985787971,-0.0016353072992998459,-0.0004767439491681377,-0.0020140824070565364,0.0018935152100419176,-0.0023648772998178308,0.0024037477676311708,-0.0008665746839660335,0.00014448318167679507,-0.0017126714802848642,-0.001806035231329898,0.00031609485413905576,-0.0015518935825755233,0.0025258866338576645,0.002873755567735128,0.005500889744278791,-0.0014108822157621436,0,-0.0046343758357225324,-0.00313529164849098,-0.0034011886181129283,0.005938361599183924,0.002437098900094153,0.010969774512801442,-0.002013791406341707,-0.004449256029993377,0.001780121833853128,0.000410405389373719,-0.00027983670672147366,0.0007253624954084075,-0.007351852802231611,-0.000031676830741787874,-0.003615494754958617,-0.0026660001636035937,-0.0016418415023650968,0.0006022247839723813,0.0011527380802715862,0.0008906723625470322,-0.0017143059530895775,-0.003410488478946151,0.0023840547088253253,0.000775096624859604,0.0011622644944471782,0.0012243115120132166,0.002840537323705905,-0.002627858428801617,0.003171216156904863,-0.00816042229236631,0.0021239792120189846,0.0001242862327610572,-0.005459221664613596,-0.0013964672810583278,-0.005270435182137827,0.004142540176035616,-0.005007598766998071,-0.0012873993239731932,0.004451750493902218,-0.0027521066714930455,-0.00016810522614802044,0.0023332011116071693,0.0023332011116071693,-0.00304151453548337,-0.000554343725526539,-0.00024707264757818355,0.0005180013673317004,-0.004388518127133101,0.0003313053476183049,0.003421297045798225,0.0022806249986472315,-0.00016425996951624825,-0.001081778465948566,0.00478206059814471,-0.0013169862487499165,0,0,0.001706658247141496,-0.0010481036941481755,0.0015026791362247255,-0.005211244656056633,-0.0022097065931685526,-0.00813678110287974,-0.0018113589378721262,0.001768251280647704,0.001029176148377382,0.0015432265547027668,-0.0006095277505895862,0.0004021231992126371,-0.002270251471038154,0.002157141917621323,0.0033172371602497646,-0.0006145691343423758,-0.0043141793114111595,0.002065683685187346,-0.0040396804755819206,-0.0030802419509720082,-0.002425546904034235,-0.007489461109792682,-0.0002558912078309179,-0.0013420691404979997,-0.0012951023813343003,-0.003996761638497651,0.003786255522882664,-0.002510820610960806,0.00017349031892461121,0.004291037298186776,0.000804541131973735,0.00617435998137012,0.0015053766368699124,0.0005920423250913837,-0.00019848440670117997,0.000264914582263142,-0.0009207006301002201,0.0016800640576553004,-0.0012230124878507421,0.00015140517216512947,0.005749173199340499,-0.001970753453571535,-0.0020014486196686812,0.0009449397910821938,0.006148485262643771,0.006202696154694783,0.0021913015215819847,0.00732923589732639,0.003003162327414203,-0.00325156696286505,0.001943308501994956,0.0007466960970543547,0.00013970862325746403,-0.0018232165910525983,-0.0030429663253742413,-0.0036946977000494427,0.00014099414237521746,0,0.001059614975617034,0.0007570430951409325,0.006186303852278117,0.005358203953741878,-0.0008379987123769371,0.0006408403522961722,0.000423494608250059,-0.0032985855335328045,0.0006185594972361946,0.002020982188763061,0.001029785178450285,0.0007288996902289349,-0.0030729584118619835,-0.00394999870429857,0,0.005000613695859476,0.003155923145533853,0.0005891846189359558,-0.0001858754559685953,0.005468598990374463,0.002067745341257041,0.0028655907113749324,-0.0030050900830803804,-0.0018614735291031758,0.006849762402235705,0.0012847017540258574,-0.004928897403016011,0.002778400602400014,0.004395770491405491,0.006059174899579799,0.0023041628143081016,-0.0012172639752791189,0.004880654214670126,0.002101482153826824,-0.0007339100492063353,0.0037404950791957493,-0.0016310591876517377,-0.0037860754219250954,-0.004619129132771278,0.0046581043777975265,0.008903931387580237,-0.0030809593763114953,0.003125442906805817,-0.0020612974261689683,0.004380577795812614,0.0016071073417339328,0.001434858437399655,0.0005864079321248228,-0.002063504486209949,0.0015148099663778746,-0.0012096960678288633,0.0011768940532815918,-0.0014072494663994579,0.003561359877811807,0.002122206760540013,0.00625341658334163,0.00036446102338729704,0.0006266821789763148,-0.0024295247101176047,0,0,0,-0.00036464214892408604,-0.0015895310026639905,-0.004703249444349746,-0.0008903002372929257,-0.003565373966814959,0.004318585633860256,0.005618022488481832,0.0013972239267571163,0.001178583312698203,0.00031339216198164274,0.003999663861431682,-0.0008102178188385434,0.003243561762258718,0.0026372428432306517,-0.0035900135190387542,0.0072154763352313646,-0.000009860276768829525,0.0034661621711283403,0.001301892106153823,-0.00275611020375129,-0.0017974947219687306,-0.0027103569801243893,-0.0020732870981493177,0.00226960121381503,-0.001182094513573764,0.0013613751310999891,-0.00029314678968559034,-0.0020399725425069857,-0.0031788361220269467,0,0.006289766652840315,-0.0008616384238540111,0.000909687212913136,0.0003736973511060857,0.004925998328665915,0.0005704575456689251,-0.0007772319034159452,0.0017195159878017046,-0.0019740449876564387,-0.0013709668995958743,-0.0023065699030052423,0.004620922681655649,-0.0022892208040124285,-0.002278807816989097,0.0013444599612850482,-0.0015790730597976521,0.0012289067316353821,0.004504361929850319,0.00517621964150802,0.0026911536212702895,-0.004427352372886659,0.0008979144187008487,-0.0018100636420425374,0.00038735935140055513,-0.000887728772498425,0.0006421818809536748,0.0004884742543348302,-0.0017260996441336562,-0.0041767041067195445,-0.0004633954238548712,0.002947608600422237,-0.003264484676205327,0.005440402877610535,0.0019821341249819033,-0.0008849880695187202,-0.0031940724141947697,-0.0041939235393389646,-0.0016558302046858983,0.0021443193830019682,-0.004265386802663519,0.0070506501646755825,-0.0008424134640585552,0.009897431513607162,-0.0007890686402648997,0.003998988303978506,-0.0011646810174473932,-0.004678826161990663,-0.004935690962351555,0.0002713257496609171,0.000759283780334484,0.003445440947784731,-0.0004945083583205661,-0.0006542382265955858,0.0007298163161841419,0.004571094356371709,-0.0017079575419520444,0.0024095221522777315,-0.00005666682871393442,0.00022697437447202675,0.0024850023923203017,-0.0029602110406395797,0.0017397089317946637,0,0.0008455926611817125,-0.002718805896053178,-0.0017823834857581653,-0.0017823834857581653,0.003403472172100099,-0.00036947972442808596,-0.0013223684001541442,-0.0017075071325838994,-0.002716971520460583,0.0007115614391154966,-0.0009659817206119717,0.00421005897336736,0.00577575743012115,-0.00329105521116998,0.00039026753330196826,-0.0009942250616064032,0.005598780370393965,-0.0018735468559660728,0.00011993991929595772,-0.0007093997316055221,0.0031850157415095138,-0.00013989912568762022,-0.005081425201777964,-0.0016891949675350518,0.005131815593820617,0.00023420972831592488,-0.000057292328302838494,-0.0007456093191565136,-0.001042399022447423,-0.000256714313826287,0.004820139430317215,0.004575098131722216,0.007856042198860401,-0.005296024866846985,-0.00007399523336268235,-0.00007399523336268235,-0.003835501458609982,-0.0021275455073302787,-0.001327063328482853,0.0016087192333707205,0.0019450352029766543,0.0001805775195437866,0.006319891286122705,0.0013911510517719522,0.002144264955862926,-0.0013124750643479155,0.0010963410160772509,-0.0011697761847476586,0.0006216742160795377,-0.001373422364023721,0.0021382080117158717,-0.0013453886327300987,0.002631034813958253,-0.0010641183646030634,-0.0011308568544057044,0.00012124068414114998,0.0032409103006017168,0.0021482836737002904,-0.003018054254127648,0.003643316555229535,-0.0035712575168459965,0.0017772720534957997,0.0014328670486776027,-0.002262940483013524,-0.002262940483013524,0.00022063102219220543,-0.0005393387964025682,0.0004889884823411092,0.002000289651841652,0.006416176082970699,-0.0047988994121354244,0.004460019350474102,0.004460019350474102,0.001237511956729379,-0.002852328632963769,-0.0008084005560437391,0.0018919370811622813,-0.0015348619911517234,-0.0000969238937688435,0.003873575028677991,-0.000243739317507969,0.0002182386043887638,0.003301957958675949,0.002836044063615143,-0.0014317051317518509,0.0011836658622504611,-0.005741595423723434,-0.0028320147961500212,-0.00043751537163164026,-0.0007748761195426773,0.001208827908232012,-0.0002912428983852099,-0.0024268903109458976,0.003360921918993678,0.002740072239247396,-0.00036826587026746985,0.0054127086066201435,0.005194004877463277,0.00013148271762169366,-0.00041468137192572695,-0.0013349894108355027,0.002709095585620717,0.002825090488582337,0.004166495013820652,-0.002227150532218096,-0.0037029526743039337,0.0020082668032636304,0.005785559418071443,-0.0033871841756467104,-0.0008623869524060572,0.00027817044826247727,0.0012989006209839348,0.004863692505980544,0.0027355842390140214,0.0018650013641715564,-0.0016121534188797146,0.0001574172881147509,-0.0018957130427543112,-0.0002851769192649008,-0.00047727894594697855,-0.0012398983817523653,0.0015861955359826273,-0.0021635320751349106,0.0006534740001773139,-0.0033461439022588633,0.004061182345221534,-0.0035088742409595053,-0.0029103165949318113,0.0006646712020902069,-0.0003015228520618102,0.0032784408032224704,0.005104301254812885,0.005175971223059666,-0.002516480453462409,0.005228739600560386,-0.0028670942751785494,-0.0006757684794003565,0.003136457167457702,0.006775939337243455,-0.000838530364523111,0.00007570389227616825,0.0007093183878814376,0.010989727024380442,-0.0012516964805802345,0.0034820672714263316,-0.0013830624711900085,-0.0031802329389671365,-0.0007105969518021596,-0.0002561811584828608,0.00016661620941609435,0.001912378957731758,-0.0005901923818134215,-0.0005548663913488077,0.00317780655124873,-0.0026710286552235254,-0.002039445634029519,0.00014105159345162584,0,-0.00025010976191482814,0.005036941129725853,-0.0010751514461146525,-0.002739557370466731,0.0023053243960299077,-0.0009306608225111609,0.003957860071244404,0.003957860071244404,0.003957860071244404,-0.00034271509456396457,0.004454179303166847,0.0003377980873641111,0.0011402968834645943,-0.003354788732585554,-0.0050870956598629,0.00011106123547308577,0.0019015209767855976,0.0020892328537560926,0.003586273200990991,0.0003677609433561272,-0.005250653257303327,0.0045146978468156695,0.002364258323151429,-0.0019357351372040347,-0.0013862100145440735,0.0014599961336639006,-0.0016666224014303082,-0.0022786065897368256,-0.0029918927213765634,-0.002790845842149535,0.0015810580383916126,-0.0017934909042757524,-0.0021260167311040108,-0.0026243295071876316,-0.0011277802959381593,-0.004902568971920632,-0.002055376764482862,0.0006075255283549956,0.0014126553899024442,0.0004918573927124947,-0.0029088835613323106,-0.002834599465462467,-0.0015086540979335856,0.000006196909430286482,0.004063587974998143,0.002730288891051607,-0.0032768713895011863,0.0037323910776637464,0.0016298960010718093,-0.0012134159481257333,0.0016226065884034167,0.002047842228341754,-0.0008102636117584468,0.0011685988041696045,0.005509367006219924,-0.0014369487671968802,-0.0009173699177622122,0.001182984155430468,-0.004706554050871445,-0.004509404797208758,0.0021587255433421913,-0.000742207366844128,0.0030764764038438957,-0.004885695045081955,-0.000499110985638896,-0.00005465204994241097,0.0020295651442443,-0.0001964495410688615,-0.0028847477180106557,-0.0018897492232711928,-0.0009582223948273777,0.002652023200890488,-0.001626961803186661,-0.001626961803186661,0.0009625699949737604,-0.0025872313672344596,-0.004107440306666417,-0.0017769770359039468,-0.00021636842811943344,0.0039232536421117915,0.0016188022848557145,-0.0012383554297874897,0.0012653368914189865,0.007571244189475629,-0.000465221275626918,0.0000041765015643026185,-0.0022403700048113304,0,0,-0.0022403700048113304,-0.0029037958079456867,-0.0029037958079456867,0,0,0,-0.0029037958079456867,-0.0029037958079456867,-0.0029037958079456867,0.004559772319260018,-0.0012712969143039458,0.000759658080276556,-0.004733029844711245,0.0008895076276329479,0.0010805465937718,0.005494698501178326,0.0005852381779163458,-0.0016061157162425177,-0.0034305817122155823,0.0021773010477904825,0.0003887902727004143,0.006489835454799113,-0.00046477800037160856,0.0024342877408710913,0.0008620363936034872,0.0028554367192755543,0.005498682095203806,0.0008204264628546949,-0.0013882851000663373,0.001325668098379736,0.0003543861195514363,-0.0015519052645053216,-0.0015519052645053216,-0.002605554726688096,-0.0013269387382488303,-0.0010769373238607022,-0.00454495218566105,-0.0003728579032395655,-0.003542987559827087,-0.0008250395853592543,0.0005985945904576741,0.0016921352990446458,0.008005746353478428,-0.0025465295852969833,0.00267562383846645,0.0025428771917756525,0.0003094661117361147,-0.0016642017072563205,-0.0016241210516526822,-0.0009135355033225647,0.001391356547842839,-0.0011657608308020305,0.0027775778847345207,-0.0007464429662063746,0.001213283912912058,0.0032002240397615805,0.0045116258823486455,-0.00003840966925123168,-0.0021660040002698796,-0.0029344498132967698,-0.002347278788587531,0.003499821595054815,0.001711653220249043,0.0029887941372171403,-0.0009034583077716742,-0.0002968185359463208,-0.004320595778854797,-0.0006000602484996388,-0.0005767625318599663,-0.001226429741424388,-0.0011294106791750142,0.000021917994997183103,-0.0005148235968566498,-0.003398736087524202,0.0022072286233190347,-0.0005877489782433523,-0.0031994673893084016,0.0020114392686834967,-0.006918758627742452,0,0.0018208310440940836,0.001370329958722537,-0.002313472518628126,0,-0.0016774372337151158,-0.0022487400245333362,-0.004416976743818049,0.005118808492929732,0.0000307336351486455,0,0.0029396345837337415,0.0011239348107841777,0.0014567581180565618,-0.004524458178271079,0.0016129033554310964,0.003241497186698632,0.0035462862648800025,-0.003066174981964073,0.0036896735522350447,-0.00032687951541607996,0,-0.004091439637881124,-0.0015815101666652568,-0.00041777162354766104,0.0023098306387805394,0.00400899651872962,-0.000020589255288273704,-0.002054510627097027,0.008959626671715322,-0.00042827731724968704,-0.004723314244882339,-0.0017108944060836642,0.0018392761367765804,0.0013822358285431578,-0.0012433821946650485,0.001887123323129455,-0.0018654584511438716,-0.00039339217701731466,0.00047480991342957165,-0.00016942149570554693,-0.0034105482805952556,-0.0011059814373419953,-0.0012111398798922057,0.0000824394687157276,0.0007139229887338345,0.006516061366745965,0.008270286958091599,0.005161575641885253,-0.0038095961234597864,-0.0019581404928322946,0.0025934467735864077,0.0001633333930595536,-0.00033398584956841645,-0.006733702542121635,0.0009849022021898093,-0.007218764312162189,0.002175700591215789,-0.0021127119519340656,0.0003099389334176787,0.0025641101167479634,-0.0020227858536123852,-0.0006961081100200732,0.0008095855715947839,-0.0029890772775049423,-0.0004416089937811247,0.0006146319540944963,0.0009394409736537455,-0.002450194991241582,-0.004344464007463749,-0.0007982282606362624,0.004661201559934013,0.001044348045620776,0.001423750101034372,0.0018762654094961,-0.001849293386199562,-0.0015474160680373045,-0.0009786535241819432,-0.001895839867774355,-0.0026714265167862026,-0.0006221968074600194,0.001683981459511605,0.0015302615667262746,-0.00002553498509979586,0.0010149253841119999,0.004700450881282052,-0.00563106453946571,-0.0032740450651819715,0.0017391582748850077,0.0020054626815790466,0.0024632949638237543,-0.00010440173952911151,0.0017810717684940739,0.0020056121641876612,-0.0028275741730782117,0.0009988014791038565,-0.002935621819728455,-0.0027427675566948895,-0.003294023332562985,0.0022157258731790924,0.0011567856473965765,0.0015922038220320765,-0.0024771550699157507,-0.0021569274834769064,0.0007017459152471638,0.000016415297120398473,0.0010885535097024304,0.0008975032199171171,-0.0005657021460076441,-0.0013628028658570256,0.0010100728453975912,0.0019905675597299945,0.0024192129523485286,-0.002827090951435872,-0.0024413198141795163,0.005646677548846655,-0.00012033180175754794,0.001186360313761302,-0.0013034918661624217,0.004410597829845183,0.006094471496011743,0.00195825316914484,-0.0015441280463332795,-0.0010381811328256082,-0.0004798144184467762,0.0037066218347872396,-0.003202248592589752,-0.0002416375824155508,0.0024320437856716125,-0.0025976576622102733,-0.001683999338843199,-0.0002578711841714392,-0.0021161988813455544,0.0020450283549977304,0.001703784799495752,-0.0012485407411682377,0.0031942499189777074,0.0025482486175472095,0.007717895526083088,0.0057787695853308545,-0.0009395575975022285,0.002027811111217536,-0.0017355038557380167,0.00225133326225165,0.0008112433814744446,0.00045254771852318765,0.000869112065571899,-0.0006084861574495071,-0.002297837209222633,0.002920768857161451,0.000682576017238013,0.0026311664540070523,0.001760009118143813,0.00010767340295269007,0.0009029671946008046,-0.0016625863112726127,0.0011390259524865305,0.0022815892223150094,0.0007100947362508234,0.0009912186590432196,0.0005236120667018074,0.0006955853383944273,0.0017086289280296,-0.0017701320582504242,-0.0002266887403314583,0.00009112350760446267,0.0034494410729084633,-0.0030579981460000637,-0.00034508909886490663,0.0009301048646770237,0.0002996229851475084,0.0019701374796250544,-0.0028002105484446135,0.0006703017926329307,0,-0.0020733167189533074,-0.004937669704642375,0.0009605749651118519,0.0011563300899177713,0.0035252462440338397,0.0006905017214749018,-0.002417811875073061,-0.0017718708205704007,0.003374711458636405,0.002544304991862913,0.0006073225162151962,-0.0014195229543613377,0.0012943353560440078,-0.0019457994075359633,-0.0021601498467689983,-0.0010837920466651215,-0.0001997061281402686,0.00029866217406145654,0.00029866217406145654,0.00037823039234742106,0.00037823039234742106,0.006143389829451497,0.0002876619636235302,0.0011795876789360547,0.00033331054543270596,0.0037539199305330786,0.004107912338631295,0.0011350777286761936,-0.0011187079160577887,-0.0007343070815950198,-0.0010974340428458733,0.0038177746961256995,0.0028567118070494863,-0.0006181224992158363,0.0014460254898106283,-0.0022681922594113145,-0.00047903567065948546,0.008604450512337512,0.0068007931046986,0.0009113192518893538,-0.0011652672566772552,-0.0008527214667300513,-0.003858740186259473,-0.0018550979575142274,0.0041995015999907424,0,0.0007113796555984501,-0.0015270477948876359,0.000011407481989608335,0.0057391729702662994,0.006122652653372361,0.0032567645850966258,0.0015815851049477436,-0.00015747677965402052,-0.0019985202083589635,0.0027743301136215395,0.0013087782398740091,0.00241170735077885,-0.0023183691169289516,-0.0029360184745783795,-0.00262295780853691,0.0017729283443616388,0.002942423825762001,0.0004600626633044326,0.0015909354432694141,-0.0008386787077555761,-0.0010621156752932,-0.0010621156752932,-0.0010621156752932,-0.0010621156752932,-0.0010621156752932,-0.0010621156752932,-0.0034423572961913475,-0.0016901414532281298,-0.002092000248319905,0.002321280979005316,0.0015037124690794007,-0.00036562387726127093,0.0018922593473059616,-0.0002517310472894258,0.0019300500055814778,-0.003655758124142279,-0.002904282230594778,0.001329733855030556,0.004707548925655881,0.004438757562160677,-0.0011690272672242904,-0.001480474195758353,-0.0011690272672242904,-0.001480474195758353,0.002677493380533013,0.0007602320102932524,0.0006420969075295563,0.00046447102156578816,0.0011037178403815863,0.00008451958173904704,0.000023129840770349218,0.0006862547142200366,-0.0016230354944767066,-0.0018653014381203614,0.003956717153070816,-0.003522340149344033,0.0010746057910145646,0.0009243160725859611,-0.0020315551921864243,0.000050891110050922,0.003797515169184121,-0.0008512605785585563,0.0014143158041744154,-0.0026922959718611024,0.0032598490288827187,-0.0017969846473547733,0.0009818155091927273,0.0034471280773010534,-0.0027092739079565146,0.0018426546890758884,0.003279795120139738,0,0,-0.000020150727561566958,0,0.000015310507284262056,0.0013058882099312784,0.004949033410624871,0.0012636039850292063,-0.0034447582538024383,-0.0033687441636767908,0.0025059459986519618,0.0002951084105249139,-0.0011418395488491757,0.001628799085200272,0.0012995252529275452,0.0014341396098765352,0.007738223476094426,-0.0027548635912621054,-0.0004976631488127529,0.004100089397731362,0.004100089397731362,0.004100089397731362,-0.0005751994021131896,-0.0010970612208030515,0.0011639211269172528,0.0011269744086335502,0.000907224712214491,0.0023709584851266765,0.0029581065353126933,0.0007960797775851604,0.0010532194515068176,0.002907143012530953,-0.0005724147764547469,0.00017971606109214638,0,0.002206141600987,0.0038769083058245064,0.0016072522525457243,-0.0021095455301957445,0.002033953552762182,0,0,0.0018915205506495098,-0.005629354894566063,-0.0009677326283669523,0.004428258097426776,0.001467128906395655,0.003722852345254643,0.003722852345254643,-0.0031480147014658543,0,0,-0.004793324805891988,-0.003719275885158995,-0.00021243386957466525,-0.0020133305990705317,0.004997652474274137,0.004997652474274137,-0.00020286183042605172,-0.0019231417953018645,0.0008918528016552802,0.00026973941998677557,-0.0009795468262023953,0.001061738029509155,0,0.0005507720431292106,0.0005507720431292106,0,0,0,0.000012488617728128232,0.000016522533901811584,0.000013046693221803538,0.000013046693221803538,0.000016522533901811584,0.000714820755100758,0.000714820755100758,0.0009052600501200559,0.000714820755100758,0.0009052600501200559,0.000714820755100758,0.0009052600501200559,0.0009052600501200559,0.000714820755100758,0.0009052600501200559,0.0009052600501200559,-0.00110805347079764,0,-0.001677989670945151,-0.0012055082654749858,-0.0008266415513096059,-0.001616430455002487,0.00037216971713480764,-0.0016514680312200128,0,-0.0022832114987908596,0.004147274078656719,0.0033635910054381525,0.0033635910054381525,0.004147274078656719,0.004147274078656719,0.0033635910054381525,0.004147274078656719,0.002248341333977929,-0.00009624770645093208,-0.0007661433171096139,-0.0017765556371885666,-0.0025510509479574673,-0.004367526830388829,-0.0005649732042474266,0.0022106521941018375,-0.0004226280769579927,0.00020462901419314927,0.0013520678005710578,-0.00009858984211717721,0.0006810339346458932,-0.003931402275357058,0.0020785577498003897,0.000989420514762303,-0.0018113702021120338,-0.0011327797083768695,-0.002995558909360563,0.0007805691063676231,0.0011184282686490627,0.0011756956331236777,-0.00001726628309138152,-0.0000212891544137982,0.0021326108565481003,0.0005612198691853111,-0.00022287980249832782,0.0019289374925373346,-0.0025276619374119125,-0.005752599700175346,0.0015358191824238964,0.003941038803454447,-0.00414334194176686,-0.0019060979779542237,-0.00041655787724626745,0.0023118732789763593,-0.004548557000793982,-0.0005594439962582817,-0.003153541283342027,0.0009334581120929332,-0.0016166904426864808,0.0004512796595925457,-0.002412881916653399,-0.00001449488075003951,0.003207877159210628,-0.0002966436275195167,0.0018568904241546733,0.0005003328286837576,0.0014160551098457816,-0.0038716943658618254,0.0039533000059218965,0.0027580878701321024,0.004186143312205231,-0.0003111154283268422,-0.00009554357959639867,0.0003966095057896025,-0.00011945702804513035,0.0002183729858933855,-0.0014934099592778406,-0.00020324925053345137,0.0012788071179519883,-0.001301185923128631,-0.0054480310174665186,0.0007899128665533452,-0.0008928231083884103,0.004190973598160579,-0.0007313069695644842,-0.0003133697127596733,-0.0012794820969465861,-0.0016234591018758088,0.00015009481575069985,-0.0027836519495979557,0.0015641897469545318,0.0015641897469545318,0.0013383881966151354,-0.00024442238961044286,0,0.0010662967196300313,0.0010868367033871791,-0.0002529551105247022,0.0017110501118734929,0.005216936546827062,0.004752776146094923,0.0029214311370285373,0.00466987431443414,0.0011327171102093357,0.0001279175364862818,0.0032524487609579787,0.001562610911430082,-0.0012265555452466441,0.0001616255536530032,0.0010213311072537422,0.0006910286437966601,0.0003131427394172133,-0.0008707683762920157,0.0017584606501096322,-0.0018428164177828428,0.0018166643817925194,0.0038293032101063425,0.0035482823044443376,0.0018920205639864427,0.0011659491273025256,-0.0013910815945478488,0.00098959689543507,0.0074626441985818125,0.004205081982994846,-0.00014980836222995054,-0.0026426766894341942,-0.0009618258728372617,0.0004585909712075558,-0.0006937322798698578,-0.00030570064964012143,-0.000015460161370723334,-0.0017737088582077325,-0.00022163202397788728,0.003778605891370696,0.0019312830775816536,-0.002234425308762937,-0.0018888501522109783,-0.0006923808038757388,-0.0001444645675060469,-0.0029573741397444665,-0.0004287621032794843,-0.0015494373701272722,0.0028091409463793793,0.00020013132973869174,0.0017790614853922721,-0.0009524596375202611,-0.0030015427698351364,-0.0022689689135911664,0.0037126189961721474,-0.00212148773941685,-0.001901311557919188,0.00010034519287680055,-0.0006650884374109092,0.005686634567844613,-0.0017647236246228898,0.00012367590880768103,0.0007081603574297274,0.0025958611946363353,0.002093580961593161,0.0003396177104145725,-0.00024255720118690114,-0.0012503350723314449,0.0007880923657297943,-0.003572741510181314,-0.0025308255201507983,-0.0025308255201507983,0.0030145060799939235,0.0030145060799939235,0.003010065092442167,-0.002015729003866792,-0.0011243575113253298,0.0001985432935801947,-0.002072142483093899,-0.003168424662841579,-0.00035593983216820435,-0.0030524772068071773,-0.0025856135607978544,-0.0019949813318084443,0.0007735418733897174,0.0007735418733897174,0.003844191749578435,0.0011863059510347418,-0.0006136204184557911,-0.0008941559501005361,-0.0007245287515896007,-0.00032577836109778577,0.00002809707754007889,-0.0002640421828946386,0.0007226023030755444,0,0.0008909614147135213,0,0.002263251687877782,0.0027905667019075945,0.0037197523792393264,0.0008557275963302893,0.004462359459634836,-0.0001756820936475844,-0.000069523741546434,0.0018950708786300056,-0.00005304427355543398,0.004188865386834212,0.003520924108027569,-0.0017934851612161887,-0.0033267862565694913,0.0008925018977853004,0.002295527494450251,0.0008784485688538655,-0.002542374167072826,-0.0037712374541785847,-0.0011558121916144732,-0.0020115618895152937,0.0018203921069360354,0.0002205901439038751,0.0017011302808242362,0,0.001475432923416696,0.0015456333483692545,0.00007795044487557586,0.000003488700876848154,0.0020045159592472295,0.0020298720748456204,-0.0011997433594163008,-0.0020797397392662794,0.003987531177762736,-0.002233262093947422,0.003793742117309456,0.0020055378564738727,-0.0003602603612257148,0.00039543386226986114,0.003226118758407916,-0.0004439423643313751,-0.0004439423643313751,-0.0004439423643313751,-0.0004439423643313751,-0.0010422648655642182,0.00359177508594896,-0.004687402710203424,-0.003234103727789199,-0.00030243642303401375,-0.0009719613638438558,0.0009740156314313137,0.0007899623113646905,0.0009740156314313137,0.0009740156314313137,0.0030101881315650722,0.003289531860924856,-0.00008844539429690213,-0.0004035824460637595,0.002006438972403646,-0.0018537921896498307,-0.0009719769899256493,-0.0008136647074353867,0.00282784440851422,-0.00039888705880098123,0.002852298760142825,0.0034006900518132334,-0.003525907690354312,0.0018950755098342126,-0.0026735923524174813,-0.0027460714727330954,0.0008637778424369021,-0.0010708429337678708,-0.0005348414407550981,-0.0009204529592155624,0.0006071459860798803,-0.0005601227249127499,-0.0018208551889486448,0.006877599976406256,0.0019215306490327805,-0.0045543711253110426,-0.0017568227064336086,-0.0017568227064336086,-0.0021661448313447804,-0.0021661448313447804,0.0019930173592327214,0.0051192017168714705,-0.002431469138532319,0.0017407096228427106,-0.0004410697182140644,0.0014892104543663487,-0.005008959751943471,-0.0032934727740455516,0.00025131975174201115,0.0027600544145161064,-0.0024873688773374356,0.0033239246523144327,-0.00013526659835007672,-0.00021322400766421012,-0.0017772179530101827,-0.0025616780947973175,0.0005849450737714641,0.0019531577094194746,-0.00200864967512865,0,0,0.0007206216909108143,-0.0025005263847068648,-0.0017904718523000986,-0.0010041472808707931,0.00018004149892557526,-0.0007904824655397616,-0.001602085428957793,-0.00015037268843765445,-0.00018540802133408302,-0.00015037268843765445,0.0009274434541559497,-0.00018540802133408302,-0.00018540802133408302,0.000019170783026796392,0.004840688786293391,-0.0004246535681662663,0.000565507729916515,0.004978117993084313,0.000004987701085260509,0.0013558903477095601,-0.002356075095629936,0.0018890158210083433,0.002761821161722415,-0.0008251271096771316,-0.0008264217902148022,-0.00006768569182263255,-0.0003178963370470102,0.00004810126972540243,-0.00044502127673444036,0.003544079950804394,0.00000110528609425706,9.7584368008506e-7,0.00000110528609425706,9.7584368008506e-7,0.00000110528609425706,-0.002251230849285888],[0.003153895423855667,-0.0014232326051062218,0.0066709398100572425,0.0026035850525766902,-0.007582995818176713,-0.005975017973394809,0.0034861701888115743,-0.0021426950479161953,-0.0015776401745702568,0.002262887956203491,-0.017961820020770115,0.0011889504791147032,-0.0026802662510619956,-0.0006700159180061675,0.003934588004901176,-0.0036132128757581303,-0.002779999137154797,0.00682842011722021,0.0014047113448363102,0.0096894318750673,3.327051140776522e-7,0.003190248968981172,0.0008602212575237719,-0.004254312966218924,0.005462791839280628,0.0018304914556582094,0.002080212821234563,-0.00035320774478543474,-0.0006459645204388469,0.002308535281573507,-0.002355903455454025,0.002102819267594021,-0.00154135016979104,0.0007145304983181975,-0.003867079237332996,-0.00031967729213964693,-0.0008757395068238563,0.0008191103767338538,0.0006212940121836837,0.0002363332631530892,-0.00017246297242785375,-0.003974327822997512,0.005155137863192659,-0.0056808756595991,-0.003363385381037145,-0.007501395962429318,-0.0050691306383694994,0.0026690166667643848,-0.003933497199219321,-0.004426233738357822,0.0012313541398466235,0.0025393748876117775,-0.004771219141935572,-0.005584577122884926,-0.0044899495907533985,-0.0031141306596018554,-0.0042837211368433395,-0.005161606019428823,0.0024274320903041923,-0.0019040648233543725,0.0022189254450541503,-0.002116552922613699,-0.0008953057493369596,-0.005710006564429471,0.0017838913928152804,0.0030906258186701933,0.00005167324770515903,-0.004093584449519178,0.000035661778444060524,-0.003436145930700711,-0.0029428495406270305,-0.0027068346954247104,-0.000022903569401714697,-0.0029458731748016483,-0.0007380686002389508,0.0012036782203672072,0.007650657446623372,-0.002688053122008661,-0.001684080389793828,0.001555740037711076,-0.001576420112802594,0.0016771016705212684,-0.002401589865936909,-0.002506485132137506,0.002876500487266124,-0.000806213335816865,-0.0032509794500307668,-0.00020763009939219027,0.0032039235077108976,-0.0025295213572226576,0.0010330700310251613,0.0023402338849411322,-0.00001035782164110564,0.0018448686821065264,0.0020989463953290715,0.0025426887538581664,-0.0003607072574421102,0.003960690978564956,-0.0015419556466558858,0.004144396077523368,-0.000661127118207524,-0.0008898624251316046,0.00214820336986141,-0.0024595275090585605,-0.00446483863055222,-0.0020895035263576132,-0.00007274184732054969,0.0034184915306277198,0.000038377200860151024,-0.002219391388800505,0.0031555785521559447,-0.002401929685841839,0.001609537162432285,-0.005498640447041986,-0.005563477583101884,-0.003756382555153923,-0.004534221856487779,0.0014792902184534392,-0.000948129375489496,-0.00030442242078194026,-0.0004719690572011851,0.0017496487025680156,0.00041783366005961585,-0.00025792576972006513,0.0007360370379300661,-0.0025356935677708897,0.002856161333825189,-0.0018997535484503354,-0.004045750534360932,0.0009276114560896353,0.002883162853134915,-0.0032142905092482532,-0.0006272151834486081,0.0008292493603600857,0.0015373519986874745,0.004053790821544951,-0.002357225181231209,0.0012583982498139596,-0.0009229820292155284,-0.0019425522000593445,0.0003716596835240006,-0.00042584004787331255,0.0010271251952530857,-0.002476472038078689,-0.001982934952726531,-0.0027943422030429713,-0.0001870575329723477,-0.0006714906133417353,-0.0007556286780404469,0.0007385932152632956,-0.0011923934585950531,0.0033872567683433897,0.001961997517952957,-0.00037191417223686197,-0.0030404260954291448,-0.0009662126926438539,-0.0013226579417296208,0.0005596935122795751,-0.003124262894303118,0.00025257960093757765,-0.0020955261704029542,-0.0005534116479713697,-0.0005861026849596376,-0.002648657956526665,-0.000867958245332685,0,-0.002763236177063656,0.0005560788363452877,-0.0028032235396727783,0.00028824015800984256,0.0005767190180641088,0.0005004467095673355,0.0024473988212771977,-0.00015081843240569571,-0.0017582598665262534,-0.0014179581169221382,-0.0000800132566676312,-0.002677155433997539,-0.0010424961604875611,-0.001107743871103067,0.00037463418977313817,-0.0006071484716879767,-0.002958591277277585,0.0022033790585789348,0.0007178265058846371,0.00033853309833752537,0.001769636516150232,-0.0029065749761681,0.00029005561393413964,0.00222732178765211,0.0007447816011410982,-0.00013544231574794856,-0.0018793584255700634,0.0006866736009357047,0.002276010911148562,0.004038949882745197,-0.0010913684956008135,-0.0032213645985916233,-0.0014517460328695247,-0.0002645310811971517,-0.0011444595521627238,0.0016111189462347227,-0.0017703208502867864,-0.0008478254337899364,0.0002867801524441949,0,-0.0022395999076338406,0.0022307550290066296,-0.00009773630611955382,0.0020184273828554467,-0.001536114177820286,-0.0038685640746788257,-0.0004437527214346689,0.0003394824388909151,-0.002459396614945569,0.0006014587450702964,0.0000450829204189305,-0.0019441764847090612,0.0022136638164813637,0.0003884441909440099,-0.004177603880937351,-0.0037429562067923723,0.0006650149724949983,-0.0034051937647973955,0.0018552052437386746,-0.002626504930424105,-0.002539167905442383,0.0010917909493028805,-0.0015685647157472355,0.001670454568307954,-0.0027671294737030058,0.00004249462265358664,-0.003354472512681952,0.0016738462232847218,0.002875800886418268,-0.0034046033321746094,-0.0016966155486533997,0.0012786707379934307,0.005180555608737093,-0.00230276863137251,-0.0005913330489990319,-0.0013399276993003798,0.0008282062886920908,0.0007129298410554599,0.0004211405830758891,-0.002224905949834201,-0.0007329805078172137,0.0003664274949903343,0.00021257847779104894,0.001967475094774042,-0.002683575634151319,-0.003383573382892982,-0.00012528008883811348,0.0002725951368092679,-0.00022828593161749287,0.002058216135158841,-0.002611587819262748,0.0034027725681243146,0.0013068470651735986,0.00019447772361799493,0.0015936177398577298,0.0005568946915311904,-0.0014743108762331014,0.00007291172069582642,0.006510506442245537,0.00001979704409606873,0.0008960830171112403,0.000314643223095649,0.00032953589471469995,0.002322436019863671,0.0015782651155855918,0.00331715670744058,0.0022297575789609544,-0.003389096110424355,-0.002298337245665942,-0.0042219376239217565,-0.0015312696448514837,-0.0020164260089084464,-0.0004002675854180049,-0.0028144231884151363,-0.002428050606087157,-0.0005426241635106332,0.0031006280082921042,0.0012890623841365103,0.0023241076814272737,0.003092634354035946,-0.00017736221273652008,0.001873133218025994,-0.00476926901546443,0.002803769979757084,-0.0016409654551098746,-0.0028330082026982997,-0.0026296561700463934,0.0019913776182244078,0.00012104628233534735,0.002380282948166552,-0.00035140186285773474,-0.0013825372554359136,-0.0023236739422138517,-0.000730135217458949,0.0031580084146978224,0.0004358629255622399,0.0003479032635842992,-0.000340000445870595,-0.00016171906514485343,-0.0004982594316102691,-0.00046617799985214077,0.003571684462165503,-0.00013014998908320534,-0.0018738026325929172,-0.0011414269756893896,0.00021636371828018933,0.0016823539985422861,0.0011874770073644425,-0.0017284332600370146,-0.0024916568315168156,-0.0005497376820740414,0.00392095329607084,-0.003169972759440376,0.003128443553588391,-0.0017212776232212038,0.001145484392984365,0.0003832910052017506,0.00005150436874752794,-0.00031765436322538565,0.0006274379446595899,0.001363064837331336,0.0007342581729616155,-0.001336349374651628,-0.0009876679318706345,-0.0013189669716885941,0.0022983198231159227,0.0013446383157601884,0.0008478385494038575,-0.002172592186715483,0.0012217695959476724,0.0024948522436875177,0.0017741966122837322,-0.002289736636627719,0.000055853616910324605,-0.0002289057958972582,-0.0012008279123349773,-0.0005243484080629339,-0.0004802404126400694,-0.00023851917636970348,-0.0008395863475214324,0.0004972047431259811,-0.0022166891879443953,-0.0006346736473716617,0.0009622624036540036,-0.0006649936473516044,0.002811683337340525,0.0011847771457648344,-0.0019813331575734127,-0.0029385015562939133,0.0007363285379697936,-0.0031596412326556065,-0.00033368912470286394,0.00244544434192816,-0.0019305685427545743,0.0009195495350102485,0.0005425918896961896,-0.002559894005035895,0.0026725308658521107,0.006758991823880446,-0.0014490667370754447,0.0015928150855101636,0.0021731356048690794,0.0008068348660687083,0.0007992747947726301,-0.0008680095591197525,-0.0009440439129182656,0.0005148796272608224,0.0008015384302542306,-0.00292994402594578,0.0006605806610928401,0.0013157486701975835,-0.00010210513543076872,-0.002201871449234056,0.0007435345894959829,0.0005005724658471458,-0.0011418962160052075,0.0015788176636872572,0.0016470561393702701,-0.0017031139776829676,0.003063088422393063,-0.003384519665750175,-0.0036097901761669698,0.004193478982911882,-0.0008561848970517208,-0.0010927456805395934,-0.0011515962288418979,0.0018533649339221438,-0.005186819941283772,0.001303589619848969,-0.004162970387403973,-0.00022920343631453543,0.00019495905225420268,-0.0013297639538407723,-0.0003324097308919695,0.0005768916078982947,-0.002099803779761944,0.0009940418518831033,0.0019055468333378143,0.00015019414992312988,-0.00021148553579441857,0.0010064334421861082,-0.003138747407812971,0.0016762406388690148,-0.001519975532796854,0.000979682387850328,-0.002247706319913502,0,0.0005504281570932701,0.0006722236249394973,-0.0030688798624052957,-0.002425426586031277,-0.0006953683890386744,0.004143070209592919,-0.0004316938366784575,0.004749123867390642,-0.004301581987814562,-0.0016312017150885505,0.001402420528765286,0.004356232326975793,0.002951013629312351,-0.002395524139968738,-0.0005671728572933835,0.0035883263220104636,-0.0009255742579923241,0.00006878733426908274,-0.001864060938249686,0.002004202344393209,-0.002272988824798285,-0.0015990059371182941,0.002244708010761637,0.0029119128809508782,-0.0016629496412125095,-0.0010186581439389835,-0.0011295184237424215,0.0004420178128720638,0.0001957934046994164,0.0009599454912748464,0.002350369642311512,-0.0005317187407382436,-0.000890731901636037,0.001552363277409913,-0.00047843895941129377,-0.0011108630699389291,0.0020714434429689333,-0.00003911532948135422,0.00010882984700220764,-0.00129665354098016,0.0028576657884777693,