{"W":[[0.5529113714444818,-0.5159062262351952,-0.4014003950376144,-0.549704483901881,-0.5757397977151313,0.6291956597855846,-0.46652278065500985,0.23106194410767378,-0.1650753738170896,-0.407242122503793,0.4090727766665285,-0.5047386280211268,-0.2624736229199618,0.8978053516785223,-0.5151735371815702,0.1387546930030048],[0.5367716359642789,-0.5529173796078024,-0.7131624582924667,0.44358531133364787,0.09347727105771853,0.27653254599508115,-0.03160254340722046,-0.9576540310121913,0.09791611329765271,0.4145918460054778,-0.6556813516239499,-0.9696968543455582,-0.09661856636994992,-0.19266722437010353,0.6081294651505011,0.4107721132094584],[0.08833430898705608,-0.4440342253534073,0.11562568198086876,0.34540209716747095,-0.015860230652213758,-0.2246485474144051,-0.8304500473127137,0.7030638898163972,-0.2568019591339823,-0.6247622667221702,-0.2800869466700999,0.5077521026829213,0.8648403756497132,-0.1920038972696405,0.25241021213063863,0.37124238223688133],[-0.17079868362123563,0.08347113340582668,0.6890490583567761,-0.42998621387250147,0.26525454336433985,-0.6715534300925659,0.5250457011193603,0.8523409405308611,0.6046550006447324,-0.9997975523787446,-0.001171184026840244,0.4173869590301429,0.010773967791906536,0.32986131143516806,-0.2785824620566082,-0.5067234548756492],[-0.9232183893653301,0.09338134249135877,-0.21047546790414184,-0.30338365599881856,0.2555483845655373,0.7993414698279442,-0.029765551132723278,0.1277451610433138,-0.7921807850326616,-0.3915932708181762,-0.6276599235664944,-0.5605887524215678,-0.503169737703959,-0.6395618528901053,0.9979281258089121,-0.8300235826775841],[0.6880128853278085,-0.8240144594171781,0.5573749633550809,-0.8077605280358724,0.652574312191923,-0.13058814003208186,-0.8737834273745415,0.2760612631499284,0.3647623339309871,0.6834637770618159,-0.9714938454085362,-0.0995753634602412,-0.5121032459852972,0.05049629068873873,-0.19982364921545237,0.6327043035071305],[0.7632630682877566,0.06333654498165409,0.4708909596661286,0.8326522994650158,-0.7039982199741015,0.6418361936845942,0.08329856156046755,-0.3751678248350667,-0.5550247404706186,0.9263399119361897,-0.49897943597290695,0.6016493995620742,-0.317537104270301,0.8732002876836669,-0.9361346506517765,0.9080796426359874],[-0.9655075143199312,-0.38723761006513513,0.7494384254441213,-0.10954216078364176,-0.05477289211386971,0.59005683893806,0.4161174355277759,0.61731808051203,0.5038806742232542,-0.4269110503316389,0.051391616178412036,0.7910857596900911,-0.2844137621062557,0.8347056694834398,-0.9140844981269369,-0.7494197485663352]],"b":[[-0.4016288756566091],[-0.8001374108089019],[0.7617770922505511],[0.07779441949115995],[-0.7943984399105171],[-0.23770476671543594],[0.362867077527274],[0.8839171517351461]],"beta":[[-0.3009541938942311,-0.4168623024035348,-0.08719450093176746,-0.07003333369664085,-0.1780901596683192,3.398843728738411,-0.04711961707251788,-0.08842647607683762,-0.10387222007439992,-0.0867352352866404,-0.11830725713198668,-0.09131935170849416,-0.15507787466282147,-0.037428631070991605,-0.09681023619204625,-0.05531969806065449,-0.044950876514210626,-0.10466966965172088,-0.060094920956522246,-0.02672375373007939,0.000004232958895976251,-0.11980169344100722,-0.10237895451638841,-0.13689636158913046,-0.10485570551243983,-0.04459174500381873,-0.03941049132584434,-0.021399587173635784,-0.025501310777252467,-0.060931281527133764,-0.04162015038412758,-0.1615643490147299,0.054651089544013945,-0.09609135866372534,-0.023083450623514024,-0.03588638578582885,-0.055798911153908906,0.018126179894916397,-0.0407785226735194,-0.0722940676577412,-0.12914569401900988,-0.07353111105909138,-0.08041135729843496,-0.026209336571919487,-0.011977082046495094,-0.05615797161686277,-0.06144631901840387,0.0018387638356778331,-0.05381848136940452,-0.001374534156742319,-0.11377469495880548,-0.0027396442004346136,-0.06891721319380642,0.0011881618346868857,-0.07765144416229458,-0.06545833088741229,-0.03916818255947978,-0.03092495646802967,-0.014377459469201992,4.842421170802594,0.013419196738166592,0.03388167120875167,-0.01929721078689199,-0.05822015698091134,-0.0850013862781744,-0.06468626624462562,-0.05592663968559904,-0.010785884866386555,-0.03800799579690016,-0.01531958601947762,-0.022919504791598794,-0.01504029783581738,-0.0419647917164588,-0.013960848115655518,-0.18943026275850866,-0.05461533702213667,-0.04410769631437586,-0.07258335154032898,0.020138529998699244,-0.058082900985659255,-0.05181457628620295,-0.041903801411840996,-0.05158064801632123,-0.024683136536437666,-0.05993572972989224,-0.1122187428476407,-0.04929360202150727,-0.06797315784006812,0.010043221739083827,-0.036372835002232845,0.02233481676951389,-0.06666662425745468,-0.09601478571176339,-0.027346913479183013,-0.05792693772105253,-0.0318037643013409,0.035249428857805805,-0.05015663652535265,-0.006260226840005835,-0.021203285419107338,-0.03311927862903736,-0.013805926618017843,-0.07542639117606051,0.02912336071686378,0.01490210226135504,-0.12065714184289161,-0.014908223390934621,-0.03726106402094175,-0.042054390696148344,-0.030532782625857804,-0.04986912540893326,-0.03505594029962514,-0.004122137495661228,-0.06198159088981223,-0.04469118050314768,-0.046732003173381775,-0.0359967066320045,-0.03363098153509034,-0.06213760021608376,-0.03617435339545442,-0.011023376258842655,-0.050001466686226854,0.0027734864907767182,-0.02400646851577293,-0.031060356451682355,0.01720366473400464,-0.05712581992573175,0.019713974198829136,-0.04238570350740951,-0.013020010727902173,-0.024685628951544747,-0.03281963686559209,-0.005853322446927066,-0.09619609710674744,0.0027084137751650864,-0.017205858076193105,-0.04756999741073121,-0.01698049887952308,-0.006266801603526253,-0.025105847123930297,-0.0360124971608201,-0.014437437170873577,-0.053038909113224654,0.0033488086629386406,-0.0402713650535934,-0.06252192977335125,0.019450048331949736,-0.014590206441681478,-0.04049980280522591,0.042796944365465134,-0.08070410442222163,-0.02239178793606688,-0.0013434388878238671,-0.04492745719991967,5.616663905955188,0.008507088596539657,-0.007867487682489745,-0.03315997230637018,-0.04039442374009636,-0.004226395679280132,-0.01652507029547487,-0.012383325706144609,-0.023411323210027014,-0.10299023736304964,-0.010720192706492498,0,-0.004862813139740587,-0.04746936780601032,-0.0700579508801182,-0.059058925313672496,-0.06241663363873612,-0.051032055660491675,-0.036997008261620765,-0.05226992999481389,0.010531949374456565,-0.021680913155331195,-0.052225811585280425,-0.0007121838904476179,-0.0739669635303937,-0.0009713990904471083,-0.022259313826039594,-0.006538935283896971,-0.10232427334860418,-0.06540087135059795,0.0184511178629266,-0.03277748462712703,-0.011219604024684275,-0.06517515057536209,-0.002914265906201599,-0.02050536877592373,-0.017017128013789046,-0.05262967066407217,-0.013237540151108167,-0.0337596845757227,0.00923003476065766,-0.05914368379187511,-0.00998204752499267,-0.04755340929903935,-0.030846519383529582,-0.023240345894910832,-0.01984506001775161,-0.021366339952826413,0.0044206288597156505,-0.04546909745712741,-0.016741507174656056,0,-0.01041511398284222,-0.02468312176480629,0.01636293472293719,-0.013723755771567012,0.005480174906441421,-0.0029832935807034573,-0.06902481267581254,-0.037188961585112215,-0.0606966606640491,-0.00543368808398782,0.014920596258495683,-0.006135805455416655,-0.017317391256531728,-0.017260590211024426,-0.024301047800727286,0.014052954927597854,-0.04251489117357334,-0.03628784699839798,-0.04616186187661872,-0.0002942568626186134,0.016907328240063094,-0.06779482255896181,-0.06537024774272467,-0.02803105703164614,0.010229022983185856,-0.008887549886737326,0.0016007525420598267,-0.04463393590026531,-0.007293714265223109,-0.020519375239326884,-0.03421186506142882,-0.021594163666959754,0.0023140974796585414,-0.039206325627607064,-0.01003615557369034,-0.025785390036023488,-0.010638008136132597,-0.09851796008999229,0.0031626069626362846,-0.04448968181845157,-0.02954788949123638,-0.05383531420822675,-0.01374552916537711,-0.02972771977644488,-0.03507744513459153,-0.0023491192262585464,-0.012367956230896468,0.021685500137340757,-0.038822852602050074,-0.009309576038129175,-0.016236421246232084,-0.02819540506020357,0.0037878767351678384,-0.00193860013976155,-0.028900936600184078,-0.010933348105116475,0.006542172596014589,-0.0005670674464049654,-0.02923872651816429,-0.023518353680827338,-0.07587204266199479,-0.006993841284223571,-0.07546154275375563,-0.05617710744383394,-0.020671394393040384,-0.028686711522939164,-0.03696399812907844,-0.020023226254432883,-0.025113006282621714,-0.03548699992896408,0.017546439653938945,-0.020378501701345,-0.03864876951578376,0.002932095190754738,-0.040119398853784544,-0.0619765076534182,-0.07121352730930675,-0.004566460965781819,0.01708987030699942,-0.024093001877973336,0.018621455397628058,-0.004906790519148602,-0.016187214160870402,-0.04895274616819041,-0.05676540567457756,-0.021775463600474564,0.00987211013976411,-0.03717660758453601,-0.06940200364580408,-0.00687431097949418,-0.0448984834304527,-0.019748128838193796,0.0065575047775992944,-0.06747071858391636,-0.014055445317562799,-0.003782910111971205,0.0015516480315955414,-0.02885695305437997,0.004918035392136685,-0.03519495558082969,0.029950569034488513,-0.029931321723189033,-0.01768126760184065,-0.08259536892661484,0.006433093142473249,-0.0007442191023069305,-0.0032158172315209736,0.00922187819340034,-0.0019253162007636937,-0.010840163481328467,-0.008882824950194369,-0.0120448156006932,-0.0159676318172921,0.02804602385430454,0.007902887757278041,-0.005638647573701927,-0.01221743225010714,-0.031476692075333254,-0.035349757640687325,-0.0066624824991747145,-0.028032246202470773,-0.010696286233213158,0.0017639502420804076,0.019463661866897713,0.01472528352101004,-0.061314810070709255,0.007053980580637076,0.022656994739307382,-0.010323713191905753,0.014344422021299959,0.0011372452659789735,-0.019981688205036655,-0.010066232527513902,-0.009860071927562325,-0.0197015664439331,-0.029415716830552125,-0.04917617957919967,-0.012520210340537933,-0.03871597933082775,-0.0738748826320717,0.02429503643933701,0.03462296194543359,-0.0019309162938032595,0.008346429720797122,-0.01632680521063253,-0.03522536087020473,-0.08748832632632268,-0.0009672503607653237,-0.04569083902900753,-0.04566057034532233,-0.023951283838623487,-0.030884729880108232,0.006246607314462332,-0.035642136541446434,-0.0239541756044989,-0.037267600892352364,0.0050628177187677335,-0.005293524398855506,0.0014741592635468736,-0.005523673092093931,0.005795427576086918,-0.021014537286864414,0.012826221493864708,0.007715655814418151,-0.018401109451994177,-0.01555937299728437,-0.07206182947516815,-0.08052654457318378,-0.009152904759453365,0.013141731607895923,0.036164351352834655,-0.04270408821881636,-0.04867794462269347,-0.009857060347619694,0.04079038858056739,-0.013392864725137803,0.007616076097430519,-0.01045040689016185,-0.026434570549578585,-0.010340016904051322,-0.045281062028589315,0.0004549692238999523,-0.022750023301768427,-0.023456183966225112,0.03201211659976229,-0.027689350805795987,-0.05304903117443548,-0.003215432955121342,-0.08907845253400948,0.061673226165710186,-0.044515935111775054,-0.028494192610818498,-0.0012583897913008347,-0.022552175162629223,-0.022861179012780664,-0.054481907595515106,-0.06332140981225831,-0.04588993156113825,-0.0370199797702662,-0.054833881624798665,0.0026064284143771663,-0.02640252137036587,-0.0010014275911141369,-0.015672674128193627,-0.008635913995373161,0.00141910601022648,0,0.020917393552198092,-0.0102738867534518,0.014418909019792406,-0.06199101637147982,-0.0058949744335448345,-0.05112847292344526,-0.033247995621387534,-0.0015943932990085084,-0.007408700745360566,-0.001311211163571195,0.0036667173861796637,-0.011019654607351144,-0.04030717640206692,0.0043358735611721735,0.003747435029712331,-0.008275078213911113,-0.022982895295282614,-0.045956000662984636,-0.003334978149334533,0.0011386351335020283,-0.022141645417279865,-0.026489775307813008,-0.0035175360005326537,-0.010549601524471538,0.002266467913772263,-0.030222860835953904,0.013429657705304961,-0.0003540388528246383,-0.04784739185471528,-0.049886823156721424,-0.08349650186784893,-0.024391510683452536,-0.015946522544440254,-0.017477596729053434,-0.005519255933808394,-0.02710570309636838,-0.013003356934740997,0.004753969850130697,-0.011555347814511141,-0.025427229413403234,0.0028303476889448642,-0.07510658379701933,0.004247235901804117,-0.05531945882445563,-0.023697678148263207,2.925776915962911,0.005834496982771079,0.010190409689431829,-0.004656765276405702,-0.003854803640818291,0.014360197890526082,-0.021138644485166343,0.012516109374703776,-0.015438309528979547,-0.03621477629845715,0.02363332819937635,-0.016955102516995182,-0.024867859365199835,-0.027083990879876264,-0.009294096563108437,-0.022034641873115025,-0.018295081377693572,-0.015476961612295392,0.004345235447858611,-0.03213546456474668,0.01063411275082068,-0.01912189717318326,0,0.03068420392310985,0.010159905899954453,-0.005112678282456293,-0.002817744102366895,0.0006924032911458139,-0.017239782450492767,-0.02756351899487247,-0.01226524126445526,-0.034172848477164335,0.012037139785680225,0.022177721541984642,-0.023320996579686615,-0.04460878847034855,-0.014578359241689608,-0.03416093628055358,0.0145978616602481,-0.030836756546216555,-0.03799963479087,-0.03247396592227379,-0.004308172902734825,-0.008163855107200276,-0.04406589503466028,-0.05430766876489784,-0.014257693545328857,-0.01152847134230852,-0.02670326788303376,-0.01574729178066457,-0.011266726889160975,-0.04593592095341073,-0.01160649876798232,-0.038827797609594955,0.025622440432243966,0.010635170850215243,-0.06196098491006034,-0.06196098491006034,-0.0044404127017190365,-0.019601045846067873,-0.04551532870384145,-0.06589355866191669,-0.02576152842276954,-0.03679535199040722,0.04069101885358638,-0.026717315608609432,-0.03938734850105928,0.00591335064053569,-0.010444625245327629,-0.007217739489642277,0.025520890697306668,-0.030513087105824562,0.006368014074533019,-0.004035991968450689,-0.004200906180830988,-0.0025400540058930325,-0.004633922706545865,-0.004633922706545865,-0.02841355179316399,-0.005844321462246833,-0.015570657094003947,-0.05384892653125728,0.01491906142581246,0.01578189257103015,0.023617403280817052,0.006629598038063854,0.0008082446474459055,-0.04179036748970773,0.010317936296135317,0.022476220369326384,-0.008747301292227956,-0.045431804779067726,-0.008216595775585447,0.0048286692289341935,-0.022933231884942885,-0.029091916775862446,0.018544281718987702,0.009704619652090022,-0.057435756871184816,0.0042167201325107335,0.006211308797513212,-0.030940676033738995,0.0069137241179524165,-0.008150532683472001,-0.03507256577530432,0.0035923883653212374,-0.03186579064810385,0.00182956580002425,-0.017114135392482552,0.004924274174844859,0.004696087235955802,-0.008481102836957457,0.034757862328880694,-0.0033848324307521427,-0.0013750376441222303,-0.0318411060890171,-0.04908187072117988,-0.03999155983122242,-0.004585455374928999,-0.055057578095750244,0.012527289192098619,-0.03765802600164503,-0.044852932935817935,-0.027588719811096018,-0.029250948465059712,0.015337285747465769,0.004637456120124433,-0.03493793737694603,-0.0347407494167032,0.006244320411410995,0.02057755784243742,-0.03656575621313644,-0.0213463332317703,0.00908152386723602,-0.010751615466802457,-0.026720341079565297,0.014134693797433094,-0.03536118402980538,-0.026905090250704568,0.007495913781007498,-0.01899088190803401,-0.01187953682781968,0.012449501852334392,-0.0003065752528957679,-0.03610895088039382,-0.0629049660408449,-0.026665016191454928,-0.012582515669948661,-0.03319616390923309,-0.02506639643040244,-0.02687629974403323,-0.021774138511949544,-0.02469585600737702,-0.01659167293478081,-0.03520630390985643,-0.07267300746454923,-0.02344753930597909,-0.023929406903796763,-0.046899822884674945,-0.04202675904811709,0.01514397427839212,0.006995037123057411,0.006995037123057411,0.011089969787964362,0.029111082756584528,0.021455756034571186,-0.005641198852326614,-0.011197587189772523,-0.03213314936661496,0,-0.0030111705503029955,-0.030895519718647967,0.02164557320773626,-0.03360458547287652,-0.015103748274422134,-0.00003241636958393936,-0.004977586321147143,-0.016198317488134474,-0.018451140361119615,-0.05151642681363311,-0.05563881987196334,-0.023950863481647964,0,-0.02639494475796674,-0.04875420299032529,-0.013377593350428341,0.018722589366863593,-0.01132440563293745,0.04139298752834521,0.0026466368524990245,0.01794229405183083,-0.026565280841999637,0.007952110290001858,-0.028126959149597452,0.04880980634542997,-0.0020030131028369413,-0.020166668509175336,-0.038065779769259664,-0.02146351336885309,0.0026653455790113714,-0.002439933340776995,-0.010736759743294692,-0.01246129007683504,0.0021889671407690388,0.012320570264093207,0.0018209969651697437,-0.0099235236119612,0.015143711639488036,0.006567583518706415,-0.05269494267289051,0.017394379770269038,-0.0194824356309924,0.008344694716375993,0.008409491321752682,-0.01989709274027981,-0.05238107108027299,0.018788310768952984,-0.007436977411937384,-0.007080824611460488,-0.01282337666984104,-0.02121314342487062,-0.01307302614841736,-0.03226124447010129,-0.024454256646084357,0.007073818064258986,0.0055016696816796475,-0.037706430920991074,-0.00568183924738628,0.0044777155538876425,-0.0159839587860499,-0.06192945862329995,0.010542143744068491,-0.03498961321921773,-0.03642147685868744,0.005289465996733357,0.006886477381798007,0,-0.031793610109314835,-0.012390812755953851,-0.02018085749781974,0.005164460812209252,-0.016825751880097474,-0.033345779680943696,-0.04974876808635177,-0.026555676204755588,0.015429824121663025,0.00020883200275021536,0.00564036623433696,-0.031067844739037433,-0.0026911694274522877,-0.03063453843904156,-0.011766716387123488,-0.02714500281262719,0.006276480281038308,0.0229719289380533,-0.014282432476197315,-0.008500241773112377,-0.0008333353303369515,-0.0244031032719447,-0.041085014957280896,0.00023818585314536785,-0.00649946786975209,-0.049181583095909684,-0.0235321802214105,-0.023636683213099884,-0.024286865940325395,0.003335696788197646,-0.01183870592751097,-0.008517550236407897,0.028496544289081396,-0.026838123878328925,-0.01090362640130961,-0.02435798476398525,-0.024224160806503678,-0.02083518125094411,-0.026059576742162895,0.006216616246687167,-0.0061874435294795565,-0.01289989833119964,-0.01289989833119964,0.0012137239031516209,-0.013165701751627198,-0.0011199911824340027,-0.028973826026724547,-0.003777961139324668,-0.0403302886503892,-0.025602836438302027,-0.001626167237403151,0.000859067839111181,-0.030164039185773327,-0.008167121466530147,-0.014408915001917696,0,0,0.007967536533623984,-0.0073429268142609794,-0.01045651692253094,-0.00535846522747324,-0.009582526989124561,-0.013299964550909319,-0.039708614778925955,-0.008575928296678893,-0.0034686252450734176,0.0173465813060987,-0.0052227429986031575,0.0021213584656724726,0.00272636956898099,0.018849014665613475,-0.032685492008848606,-0.013843678400762293,-0.029726385852501903,-0.018512410028716897,-0.006709051624450004,0.0003214831119433938,-0.022412264959669064,0.010375561199056428,0.025655568199766922,-0.03999149376426119,-0.016491860855160145,-0.014014832238538551,-0.001846396596440039,-0.026093472873643674,-0.05281400525148595,-0.018896484148980805,-0.032760011123225206,0.019569207409868516,-0.027074247642152563,0.0046726085897554025,0.024273848621640132,-0.040507275478171775,0.000057857565974262816,0.010650525099607653,-0.017166981302649195,0.010924511616118036,-0.020444517855176987,-0.014707661670297044,-0.014936738583521398,0.0014129626500488102,-0.02457026460638874,-0.025282903594156237,0.0008517457049754063,0.026470835249008007,0.007465013175602558,-0.03130269725843422,-0.018591332520723203,-0.01980126872666697,-0.012695488186657184,0.004283707198352752,-0.007601284521641299,0.0009716054353604451,-0.01017682592809549,0,-0.023038903565773348,-0.003926649345074398,0.0015269149626287578,-0.0412614333006772,-0.04557701486733759,-0.035681173585770144,-0.0130159023699645,5.283218759142054,0.01178160074068796,-0.04378204673082334,0.013068819842591015,-0.02180907661660468,0.010851413062846395,0.016672565065658517,0,0.022247021532409147,-0.02630379220096003,-0.012742830461124371,-0.007513236122518091,-0.030646594035076417,-0.0189515418345655,-0.009907451565841406,0.00005420335360287057,0.013855854808266756,-0.005519640221560953,0.009142292653733222,-0.028300589627882223,0.023914404567940216,-0.0050147356546150785,-0.00799319482607536,-0.029924627107906977,-0.034329955402683326,-0.009207238345299623,-0.03111458099567969,-0.0011909969655506684,0.024888657333664035,-0.021554457714286962,-0.015518763306426583,-0.006802702522821181,-0.0623171583896035,0.0031008105856435804,-0.009779859464897612,0.0019480847678141687,-0.05182650671627871,0.013523034616955712,-0.03759582973935838,-0.009539397273296378,-0.009508023252020192,-0.037066096068531736,-0.03897567508575899,-0.028254528710301437,-0.02629376750925211,0.007546935818521886,-0.002981619702445512,-0.01648697771746504,-0.022738463620192818,-0.02287612864397772,0.0004008475347727471,-0.026174822975125366,0,0,0,-0.02547982466412335,0.011443468633595246,0.0058532104607674695,-0.009590182480389352,0.0007039633070994478,-0.010717491830521666,0.022532883295874107,0.02101180844899489,-0.05829989620874229,-0.02605953881064522,0.0015873122639548706,0.00976948056213297,0.006638198620266799,-0.021068214090865657,-0.009440614866266694,0.02581959785992244,-0.008116628586655447,-0.013934643732179662,-0.0006650799192891525,-0.005219460099836031,0.0022928312841733584,-0.01622424423249789,-0.016871917073322494,-0.020257339288261653,-0.006938240072196039,-0.04948968783471212,-0.03847920918192068,-0.00013538631211553495,0.014899492306779696,0,-0.003278396411686129,-0.01099676411475825,-0.009705400927033599,0.008454622597207999,-0.002179013190254264,-0.020467986520028077,-0.015842708780060735,-0.0007806897877301782,-0.03868885287028915,-0.010633085599991527,-0.02692380337963881,-0.043482666459490796,-0.006308900399346076,-0.04068633733210827,-0.007682261678866396,-0.008062762995952115,-0.0059877736768373414,-0.005233231663990193,-0.0008710637357670819,0.0013094913205150029,-0.00217870718769412,0.0010708389275884969,-0.014016279644684694,0.003463464626587063,0.011899886457672277,-0.00678334281086629,-0.010486739241161211,-0.028202891676365572,-0.026920384888826636,0.0021195724874795625,0.015112554132224983,-0.007486939644061254,-0.03785292351581233,-0.023288962535375768,-0.0005297601874251275,-0.024071931027557798,0.018117041268419544,0.00439171300993477,-0.0012314973856042463,0.00630064855707003,-0.003857793133717445,-0.014968699128524065,-0.0018797900578662735,-0.022408135343336726,-0.006543333057160207,-0.003617502469791376,-0.07219819450410174,0.0011145373089923426,0.015456573672263132,0.008386958941947239,-0.01651479165189647,-0.021974267769278764,-0.029072119276070823,0.01988551168971034,0.006105017937593198,0.0043534141655842545,0.024514648973803604,-0.022994464001648254,-0.010898930035723463,-0.006016969988769904,0.03620013487755757,0.015453333377086004,0,-0.006585588686318609,0.01451595561640765,0.009893664159951746,0.009893664159951746,-0.01809943779932711,-0.006083461040681112,-0.03364395091689218,0.032076912428361345,-0.000024379244412665174,0.0007727154991693306,-0.01122795890820057,-0.005929378839560653,-0.0041067353793303235,0.0031896322861560134,-0.014154717915960463,-0.002927618962947725,0.012877168889862416,0.01282369314801947,0.020886156954738704,-0.003718643127040508,-0.02740398197939245,-0.013865499160794204,-0.07277029306596378,-0.011810800287989113,-0.025080580258175722,-0.011978374787696516,-0.017721722303588254,0.014468593683524765,0.002786617388942386,-0.003675740304451694,-0.0007670546603776689,-0.03251073965152657,-0.016420086373277465,0.0028291219568701894,-0.00012879963669479777,-0.00012879963669479777,-0.01397187586348305,0.012965650784885272,0.007780227317935892,0.0037172188640796685,-0.008928146825824759,-0.00014483596645304873,-0.0043864863193311164,-0.010130713620855717,-0.0340243812015067,0.02528475732366622,0.0068715123077670035,-0.0057842738641102915,0.012282718881375934,-0.04759219585080631,-0.009460257406227118,-0.04766066010609469,-0.014000118759262447,-0.023861041224522463,-0.011582859357161196,0.005346026269391204,0.019380230083587552,-0.0009368806370076191,0.008280541611879976,-0.0046633696864193455,-0.025130712173489125,-0.009723195073117833,0.004847259737340107,-0.012007399301480724,-0.012007399301480724,-0.0028725840071264505,-0.008979311561851378,0.012358257947647885,0.0046393282254156825,-0.014644635412829923,0.003316669713767194,-0.025725075420046244,-0.025725075420046244,-0.004415137596338785,-0.008596005888904083,-0.018996542542298222,0.014568809162896356,0.004616256168429058,-0.00913807448439806,-0.0028955806879745255,0.0037925859534802563,-0.01277999925604301,0.002598959311995509,-0.027678714893768854,0.003798418857395243,-0.033879754387923205,-0.004473753125488246,-0.02442771539617021,-0.004715184793489394,-0.008419014825294564,-0.06620865288261503,-0.0011677583038139931,-0.0008125066432732536,-0.013121486816740538,-0.025662827368679024,0.010813401116124081,0.019645649458021733,-0.011609451618042643,0.0014737465585641812,-0.024122437811806632,-0.008783051822921294,-0.0014650617317474995,0.007374393917314425,-0.001811307127671781,-0.023229022074465974,-0.003939067412011007,-0.06337078291408088,-0.038006880469753875,-0.010465379161751755,-0.02814437926059774,-0.018724700130097974,0.00194328873799404,-0.013883773256944685,-0.004970425939480967,0.004775772051223464,-0.011056938773089066,-0.02142418546578687,-0.004932940880453542,0.00042984779091040023,-0.031005876817086928,0.00418817730599943,0.0027587640978225456,0.0032278212974970397,-0.021472535026109782,-0.05535509827126319,-0.026986895325198962,-0.04085963020461412,-0.038458174628189866,0.0008036199912534606,-0.010976724931595863,-0.019612728628034787,-0.017475230271821997,-0.028393217052492085,-0.01710957228652467,0.0009480749248427026,-0.0005695875377010422,0.010679686666779929,0.012296411238502369,-0.048231675017230725,0.0011914436850933305,-0.019508093248618522,-0.005528612619056103,-0.038702329799817546,-0.009431175358920076,-0.036492376073884863,0.016640818304280644,0.00884052365398063,-0.0419418522240264,-0.027434931356701338,-0.03415740619025677,-0.0040046070446002465,-0.010175313494244723,0.001821111391753386,-0.004790689365050662,-0.03717015451680264,-0.018758705332932613,0.024827290691310993,0,0.010075944829979885,-0.000529624270274744,0.013146556669793003,-0.020666340556424346,0.0010408117814742612,0.01174459392288721,-0.02694997034897214,-0.02694997034897214,-0.02694997034897214,-0.022383914471177043,-0.005558742330262479,-0.004759523994264223,-0.004432276858403943,-0.03181053127443102,-0.006904544140184725,-0.020560747416750604,-0.01711195497907734,-0.010875563716090575,0.0062354179024187405,-0.010216958561007551,0.010153530622064158,-0.03840437869484286,-0.025926368403467032,0.019520448401787953,-0.00747922566638109,-0.005544255594165733,-0.01047529335966357,0.0002891989313769767,-0.0036475750957616435,-0.011203850864641967,-0.01463269436453406,-0.014430996437563536,0.028612738621828677,0.006426617336187719,-0.028500535120093977,0.009919276208198931,-0.007910654762520973,-0.000904099945136501,-0.009293831866243822,-0.023057954572519874,0.005458953857440033,0.006046466916028932,-0.0012135370025288176,-0.004454079809628407,-0.015492003597205442,0.0071850335723895415,6.968198477644151,0.0016137824204204387,-0.008657871556339623,-0.01977481522707153,-0.01730646836039319,0.009373481423199107,0.015186803005495322,0.0014738600137400642,-0.016989611704763066,-0.025411069823853,0.009160393532399093,-0.01704822148578322,-0.013297484438320052,-0.02016654883038091,0.0025255574949190375,-0.04290318867813162,-0.01330876635405517,-0.014104532499631266,-0.01848912296015629,-0.004673691224642288,-0.0031724594095801396,0.02196950235609882,0.00151422589321292,-0.04153805236257648,-0.013268084175202033,0.001712974176765988,0.021536132112441785,0.021536132112441785,-0.01320868164143645,-0.012350281036542142,-0.027705803715268512,-0.02271058305904346,-0.0243623611943263,-0.013103039853937508,-0.01229512833740935,-0.015130348199517099,0.0022687940979067875,-0.03115918414043578,-0.008870050909906311,-0.03270202978676469,-0.011141270973111564,0,0,-0.011141270973111564,-0.01444046111911447,-0.01444046111911447,0,0,0,-0.01444046111911447,-0.01444046111911447,-0.01444046111911447,-0.0063574280826087315,-0.036824523098611735,-0.021817421166348588,-0.010338205565144247,-0.001247845554258316,0.0006180191006852852,-0.012606901925276944,-0.006006159929630089,-0.03637206095860253,-0.0002451900619928984,0.00212363986073096,-0.011997790634501657,-0.011311186743710757,0.013499046934999401,-0.006475621703682556,0.011554111139711021,-0.020246688122681,0.017280533895519184,0.015186517992200495,0.013193325224094655,-0.013368593038716896,0.003707593459578347,-0.027264130122019233,-0.027264130122019233,0.022397520336558254,-0.014359104525600287,-0.0053305923531192755,0.002360299935787098,0.006511671393026344,-0.015407090617187185,0.001131878844820666,0.012227064729450081,-0.01851880024647503,0.020499111302927506,0.009513791579498544,-0.00661169325638077,-0.0006302671414306267,-0.0015062550570396184,-0.00307943379759978,-0.025847626905224658,-0.0038383481576186387,0.0008144663230525909,-0.01113061419079087,-0.02594435513102656,0.004570859825305304,-0.002068887919540811,0.00007096105232674821,-0.01883377693412012,0.00820629916380083,-0.0097410903907875,-0.011233463048749809,-0.02261939391622068,0.004435181603900921,-0.01669258394199872,-0.029201168281218964,-0.0356838426894246,-0.006363308319717568,0.017928017129635737,0.0018039856316330524,0.03605941570930413,-0.011978086558588152,-0.022364404551743905,-0.008744351809084967,-0.012973625777087142,0.0032181265507026245,-0.01579366344516326,0.0011441619605967184,0.006100469343159543,-0.0035672290278124918,-0.024411434039237782,0,0.010762137669783688,-0.011900744757847508,-0.039081856468072815,0,-0.045981487582728506,-0.007743266583178035,-0.01945629743357299,-0.01731514338127478,-0.01925368220745655,0,-0.028265048283521742,-0.006031518646547215,-0.007817591970869557,-0.001024062054749576,-0.015287318512549348,0.0009418116338810083,-0.0020054936464477275,0.02068888234746099,0.007775119010479616,-0.007417699394519794,0,0.00021581587678008848,0.0016355660025844882,0.01414314754965582,-0.030913565564369277,-0.007880340518360014,0.007057174129221157,-0.009067010682777335,-0.014074321043251277,-0.01778553019595482,-0.019954042048850942,0.001134715521418161,0.011691009327249749,0.002083104708563862,0.004736942268812726,0.027956157003782067,-0.02878998799917301,-0.007537651844740492,-0.025481017515683428,-0.06716365781116153,0.010281813382959026,0.0004784347565830057,0.010842468696220051,0.016583710627589395,-0.030614965802616485,0.0165922899510428,-0.03350429256531909,0.0005045820992866583,0.010774911739449753,-0.003972716778204401,0.01612630626568872,-0.012504018387632203,0.02299423162831776,0.01606685449905372,0.016958453099579593,-0.009223286638815872,-0.032276193582328215,-0.002741167829353618,-0.0036298795146195058,0.016242353069486088,0.008441061374410867,0.002358711633612632,-0.001701755533533817,-0.04394680498911309,-0.013946672378578011,-0.004938953583325956,-0.039440091680919546,0.0009320258407414031,-0.012798100003420272,-0.003054524825044983,-0.048352688964092394,0.004553793068103239,0.0025771810180234443,-0.016837084909149404,-0.033530980925267115,-0.034612427303322285,-0.03625597823325144,0.02035825756789607,-0.005176157114235776,-0.02088276979689099,-0.023762049559025104,-0.016242795498587367,0.00380513186644002,0.0037329967179376014,-0.022390031465423565,0.02709928206442036,0.0034518284050430023,-0.004161318375476569,0.007734701552772616,-0.023637689471093067,0.0025626197773908526,-0.02491415682044433,-0.03901141732958339,-0.003004696581559543,0.0061341963055971125,-0.020794909184731942,-0.01237671794960531,-0.016754354648515053,-0.015395992444931474,0.0077418326514797076,-0.009527218302621293,0.024560594203972674,0.011464211198315699,-0.023373414349995347,-0.01046709100397793,-0.022730556821720475,-0.027786403358222647,-0.030274218624445084,-0.0025528318733931427,-0.02757821217359301,0.007302894964730284,0.008875487798421063,-0.02804000487161943,-0.0384405757840868,0.027000828629386374,-0.0008618498125424373,-0.01965218105030323,-0.007356975681535159,-0.0005559670402937502,0.00470076820814839,0.014238264672821403,0.013817448686468862,-0.024070476331325318,0.0017390932311872236,-0.017622255874440284,0.0006200703490542477,-0.002573853346314361,0.030089630679152834,0.0071393888568963525,0.026122906321395186,-0.007441449704360035,0.0037464457603779903,-0.014229727619289435,-0.02229499248863524,-0.04298367012194854,0.012085520485395643,-0.030698842702138632,-0.054426153058226616,0.030248577358857505,0.01046417279594512,0.009312027543020334,-0.009327162308233302,-0.008625615132701148,-0.0061135066762098835,0.005595943144994344,0.016996965300189897,-0.018754195098627476,0.006992906144700023,-0.014886813425542008,-0.017178476806366104,-0.021460125636441594,0.00954448833251648,-0.007181272563678702,-0.017243542177609678,-0.04628700719186403,0.010979547215480329,-0.0050057020602960155,-0.018950965255417174,-0.00023326891596534612,-0.021492169013321388,-0.008941221948033793,-0.001176837671738868,-0.004028118765209977,-0.011393841823659386,0.011389338418753522,-0.00879066267588662,-0.01587617717628751,-0.030713332050637105,-0.016049853455622112,-0.023159805522562065,0.008947572669977033,-0.010842481171298095,-0.03090134283249462,0,0.007175100049109027,-0.0154895276976307,-0.03647906613140657,0.006152311403448059,-0.011382382794037993,-0.01788919945707044,-0.019715622204330416,-0.010939421544728729,-0.005363382538011172,0.010548206142631782,-0.010745362301249173,-0.0008534699391110692,-0.006551117428794999,-0.001090270353717494,-0.026060672473783204,-0.0019051058706741082,-0.019851703839865634,-0.0024648793457124397,-0.0024648793457124397,-0.0031215612922781072,-0.0031215612922781072,-0.022338683926306155,-0.021162751356840655,-0.009319220522203447,-0.025400342443080412,-0.01936358580115024,0.006151314563242044,0.004440743355405147,0.016961192581300286,-0.02168776857339695,-0.008451073112571584,-0.020937593159510638,-0.022322131248332575,-0.008453317266239485,-0.03648429887993923,-0.02437787268790394,-0.01746149092320103,0.00875286615430313,0.028484953797072936,0.004287310592940696,-0.01745021899597961,-0.0179716272739286,-0.019235805423048286,-0.024042577248659266,-0.01589395953600304,0,0.004190040751181599,0.008066415729766583,-0.04812350457052136,-0.0007077292547809286,0.006204870500155772,0.00963646556893481,-0.01376511595322421,-0.021077780212128795,0.0032550472806026983,0.020155317111484237,-0.016891692504656195,-0.02461300900109848,0.0021269104400382004,0.002693552247623887,-0.008988788414927817,-0.016512571861024224,-0.013488420182730564,0.006026285140311526,0.010923410948273319,-0.012088974406411171,-0.015309663994724502,-0.015309663994724502,-0.015309663994724502,-0.015309663994724502,-0.015309663994724502,-0.015309663994724502,-0.0005959950707581478,-0.023045196921576628,-0.00157394617788377,0.002933836354537629,-0.003888080085613296,0.003169493382081201,0.006306549546258966,0.007134044349677373,-0.021753722746190515,-0.006819441051050763,0.020991396681974243,-0.007100488466343039,0.010432428430044424,0.014358073465320913,-0.016427506707741,-0.020804048342861845,-0.016427506707741,-0.020804048342861845,-0.02047650590925222,-0.0064329540971019734,-0.030244657351350127,-0.012009091552919878,-0.011111965871550323,-0.0021163202464506608,-0.004486312846730567,-0.006832580109805072,0.0012427732254220569,-0.012908605738075632,-0.01594255126967204,-0.026455834853618677,-0.0034685145298733863,-0.03987358628712617,0.010450556082220418,-0.003242179953680566,-0.020998461868065556,-0.01867256564184617,0.0011142214887493247,-0.0032790487720963726,-0.016753443576757888,-0.02702509733189788,-0.016530145286650307,-0.009461034178171653,-0.030221110628128607,0.013483173705097976,0.003005202165156111,0,0,0.01622009464254616,0,0.0045614002642556245,0.02031823340951143,-0.026523901444559038,0.020341958296611232,-0.01409126309244173,-0.04326390343839116,0.0022286822716075898,-0.02149241469878247,0.009372164485338546,-0.0022581280720374505,-0.016125859872714633,-0.00820929965813083,0.008269970087342333,-0.00349157666198694,-0.040395815256051334,0.02033031929039943,0.02033031929039943,0.02033031929039943,-0.052164067918870585,0.0048512913996542634,0.0164412339456088,0.004926682506456208,-0.01935435233353409,0.005609947525403606,0.007895177707189241,0.00396393820778497,0.005244319655593304,0.00632006595730384,-0.00962783397036485,-0.011952732835567267,0,-0.03653511169464625,-0.00232454844064513,0.005651555081871514,-0.020991613120606913,0.0025533421843873107,0,0,0.006529292559746465,-0.023200428955366614,0.0035541435009628086,-0.009661854266363689,-0.024194466791848283,0.004994088316521641,0.004994088316521641,-0.0026802597631041263,0,0,-0.006839322908718383,-0.013439031626941,-0.03280544704195675,-0.017184158549233136,-0.009741991518876062,-0.009741991518876062,-0.010020986747536499,-0.030271550102738756,0.025626159388790603,0.010294384422394953,0.00934190530815526,-0.019287176601729277,0,0.0002469707749678837,0.0002469707749678837,0,0,0,0.0015607794683204803,0.002064922815316394,0.0016305255996588957,0.0016305255996588957,0.002064922815316394,-0.022019347217605657,-0.022019347217605657,-0.027885641573195386,-0.022019347217605657,-0.027885641573195386,-0.022019347217605657,-0.027885641573195386,-0.027885641573195386,-0.022019347217605657,-0.027885641573195386,-0.027885641573195386,-0.014870115349365937,0,0.010721870058297243,-0.014347028851897106,-0.023118617872208095,0.01688073488047842,0.009949322125548159,-0.005232173226930198,0,0.011545033219573992,0.021114005770058814,0.017124231133511608,0.017124231133511608,0.021114005770058814,0.021114005770058814,0.017124231133511608,0.021114005770058814,-0.014408814593020944,0.001996670966935527,-0.0008132089637796808,-0.0022871735065876906,-0.0013081173045379406,0.0012483382175010054,0.007698482633846184,-0.03563610103904967,-0.015518656796097438,0.006376266581013925,-0.02705851623472865,-0.017476641986464106,-0.007897087000534337,-0.021424846890162046,0.0006976329854086812,-0.017107899634082394,0.014931350020724201,-0.0032182476223837067,-0.009704005211713058,-0.020212097820610033,0.006745034920840968,0.007090403849750801,-0.0033493255487222814,-0.004129684913159999,-0.01764452518138533,-0.026273017211204928,0.006745160745010412,0.002897231500836747,-0.0029642637466136953,0.017178114370341918,-0.017378192989777407,-0.006217342791975673,0.010080365172140419,-0.009245743863264547,0.0027014026080626136,0.009885326006218328,0.00740879310478189,0.0008968132284475107,-0.030067074729912588,-0.00292715295256989,-0.016053816074764825,0.009490820252239575,-0.004998548388846988,0.012112577399791422,0.006027569834126114,-0.10034247330383991,-0.002499924575820473,-0.0011109723849036385,-0.03729405744813406,0.011257948443528298,0.007912179354969712,0.018985082240013915,-0.0020889907335729964,-0.02778937553311841,-0.01216850667548384,-0.0141259409040727,-0.004020520866339388,-0.0005981828980253125,-0.002446071393020941,-0.025803204036731406,-0.04103180989603023,-0.005148105578761118,0.023306409792343594,-0.017442026752063466,-0.013646978646367845,-0.01828965440449541,-0.015287259642116587,-0.016933045525292473,-0.0031286552219587016,-0.0014989294039820635,-0.003470914875709652,-0.05013967969526845,0.010706810555780277,0.010706810555780277,0.010886522067501004,-0.009590373162883106,0,0.00026635877510506863,-0.009297711676848078,-0.01551726237218981,-0.023406266503560633,-0.024355806386983776,-0.024486012007653164,-0.00637960070471312,-0.006484738004925337,0.011929878518154163,0.0000954787140572612,-0.0012499185502735668,0.0030289489461473324,-0.016247554655105186,-0.009121234765731085,0.01698263702456305,0.009284153940703985,-0.0019186030468800075,0.004228294539384373,-0.02895548610718514,-0.0017659536687192486,-0.022721358117334806,0.01197623116199697,0.026673219059690265,-0.008964295011042291,-0.03195957657110247,-0.01722043535921843,0.009643307280944625,0.006363071015795967,0.007514269375653835,0.002714109723321924,-0.0017252072276332285,0.002029529830378354,-0.004207464600815318,-0.003215993303461131,-0.0010894521804845434,-0.002291382168666945,-0.006859605557406961,-0.015165590010640943,0.006476434704353881,0.007650972490022006,0.017496479004290404,0.009783076155605827,-0.012076348513225709,-0.003423675295512275,-0.013829058722121043,-0.01290228783208185,-0.00353599379388318,-0.007661719813642408,0.02639639231811337,-0.0038680584297849556,0.0033249095759874904,0.013787413581016268,-0.017481900180969737,0.01119437142088509,0.01244843910633206,-0.023622413501797213,-0.003168652614414684,-0.022957281568097967,-0.004777072819530585,-0.011422012511592056,0.01339513741337389,-0.003388819749527979,0.02421438886211119,-0.034939985399318904,0.003979744585585254,-0.004786920253749026,0.0024089027951252695,0.007195257705323603,-0.015162535109685625,-0.010703451738021633,-0.010703451738021633,0.004320383330663573,0.004320383330663573,-0.003830767872655539,-0.011425284818997575,-0.0363663548994662,-0.0206164630224443,0.006043984252830122,0.01590650174946268,-0.001755652087393173,0.008119283939527733,9.00213574826253,-0.005594314089188082,-0.01644467940858372,-0.01644467940858372,-0.0020729250617501447,0.00016556057670452304,0.006607122436683986,-0.0013735779211247758,-0.008802985964403737,-0.007374447368066143,-0.003498013997216178,-0.016512088478451634,0.0026951308876684258,0,0.0033230694370816726,0,-0.010266979718326035,-0.012659083337738092,-0.01774173687359988,-0.006986380114127034,-0.001384257091910295,-0.01624679472822094,-0.011527776509324739,0.0028092105560915243,-0.021757283882504697,0.003948543353066991,0.01838201355287819,-0.011905527222094998,-0.012870955487551634,-0.007728331881609556,-0.03367309727025597,-0.0007559117832316737,-0.01868757505230532,-0.007385462045073442,0.022302962248337284,-0.010626824004950743,-0.0025798588834499005,-0.027125483865771106,-0.02536169818322162,0,-0.006151123337739119,0.01115761639483046,-0.0012950322653318413,0.0054685562838470095,0.009538320564248798,-0.003056683872585471,-0.013794042693449343,0.015159081068975983,-0.009348812508625858,-0.011311245428407604,-0.004638845158488282,-0.022600886640684218,0.001652692144741709,-0.007693200827216243,-0.0011298906280396226,-0.0289721450724129,-0.0289721450724129,-0.0289721450724129,-0.0289721450724129,-0.015075413936069561,0.013335376110331228,-0.013467392880182958,-0.050694135420951233,-0.02127894746279792,-0.03141266681703305,-0.0036244737488113597,-0.0029395808113307216,-0.0036244737488113597,-0.0036244737488113597,-0.0024946456444740603,-0.026773244426824667,-0.02753758033057064,-0.008133907118778292,0.007803037788392652,-0.005847740846046381,0.007786955736568257,-0.026466375436600582,-0.03101802326779951,-0.03229032844232075,-0.013344697146582318,0.011644491678022655,-0.013570314854584733,-0.025118270431471763,0.003072885177533905,0.003156188832370127,-0.016478811667773808,0.0006718485673763057,-0.012450397681342658,-0.007644703537080318,-0.006853385364607738,0.0009516023746406624,0.010153330575756084,-0.0005642106079180535,-0.0028108060557564644,-0.026459446055967305,-0.005042442080760195,-0.005042442080760195,-0.006217280668444554,-0.006217280668444554,-0.01004821792437268,-0.000773562175112554,0.0027846987867821077,-0.01481570435068382,-0.033220997903721176,-0.010282589024290079,0.026983956266241955,0.001097508101575986,-0.016489026645821893,-0.01490840958312444,-0.04839486807810357,0.007416179314900326,-0.03855201328151851,0.016299397721816627,-0.019385066534830377,0.0019320058466086518,-0.01735662328789955,-0.015371565869292295,0.0006891453848847555,0,0,-0.004896128607937348,-0.015282518551188506,0.0102443115934296,-0.016036871813910777,-0.02865362514557841,0.022235343456959752,0.00056230014260271,0.0008183835310536867,0.0010090587111367267,0.0008183835310536867,-0.006352359659973593,0.0010090587111367267,0.0010090587111367267,0.009058169140399813,0.010809782149217633,-0.004117898396390844,0.016561730321477397,-0.01765709662076888,-0.00025692606085759087,0.003177776952598801,-0.005202457472524576,0.00045011379409371204,-0.026423878713794924,0.016080149029313772,-0.012861728362861351,-0.003545327951412349,-0.001559800648704772,0.013481067915572284,-0.04241405530500307,-0.0027924330263074983,-0.0513452405956134,-0.045332089852592634,-0.0513452405956134,-0.045332089852592634,-0.0513452405956134,-0.0021356085375205357],[0,0,0,0,0,0,0,0,0,0,0,0,0,0,0,0,0,0,0,0,0,0,0,0,0,0,0,0,0,0,0,0,0,0,0,0,0,0,0,0,0,0,0,0,0,0,0,0,0,0,0,0,0,0,0,0,0,0,0,0,0,0,0,0,0,0,0,0,0,0,0,0,0,0,0,0,0,0,0,0,0,0,0,0,0,0,0,0,0,0,0,0,0,0,0,0,0,0,0,0,0,0,0,0,0,0,0,0,0,0,0,0,0,0,0,0,0,0,0,0,0,0,0,0,0,0,0,0,0,0,0,0,0,0,0,0,0,0,0,0,0,0,0,0,0,0,0,0,0,0,0,0,0,0,0,0,0,0,0,0,0,0,0,0,0,0,0,0,0,0,0,0,0,0,0,0,0,0,0,0,0,0,0,0,0,0,0,0,0,0,0,0,0,0,0,0,0,0,0,0,0,0,0,0,0,0,0,0,0,0,0,0,0,0,0,0,0,0,0,0,0,0,0,0,0,0,0,0,0,0,0,0,0,0,0,0,0,0,0,0,0,0,0,0,0,0,0,0,0,0,0,0,0,0,0,0,0,0,0,0,0,0,0,0,0,0,0,0,0,0,0,0,0,0,0,0,0,0,0,0,0,0,0,0,0,0,0,0,0,0,0,0,0,0,0,0,0,0,0,0,0,0,0,0,0,0,0,0,0,0,0,0,0,0,0,0,0,0,0,0,0,0,0,0,0,0,0,0,0,0,0,0,0,0,0,0,0,0,0,0,0,0,0,0,0,0,0,0,0,0,0,0,0,0,0,0,0,0,0,0,0,0,0,0,0,0,0,0,0,0,0,0,0,0,0,0,0,0,0,0,0,0,0,0,0,0,0,0,0,0,0,0,0,0,0,0,0,0,0,0,0,0,0,0,0,0,0,0,0,0,0,0,0,0,0,0,0,0,0,0,0,0,0,0,0,0,0,0,0,0,0,0,0,0,0,0,0,0,0,0,0,0,0,0,0,0,0,0,0,0,0,0,0,0,0,0,0,0,0,0,0,0,0,0,0,0,0,0,0,0,0,0,0,0,0,0,0,0,0,0,0,0,0,0,0,0,0,0,0,0,0,0,0,0,0,0,0,0,0,0,0,0,0,0,0,0,0,0,0,0,0,0,0,0,0,0,0,0,0,0,0,0,0,0,0,0,0,0,0,0,0,0,0,0,0,0,0,0,0,0,0,0,0,0,0,0,0,0,0,0,0,0,0,0,0,0,0,0,0,0,0,0,0,0,0,0,0,0,0,0,0,0,0,0,0,0,0,0,0,0,0,0,0,0,0,0,0,0,0,0,0,0,0,0,0,0,0,0,0,0,0,0,0,0,0,0,0,0,0,0,0,0,0,0,0,0,0,0,0,0,0,0,0,0,0,0,0,0,0,0,0,0,0,0,0,0,0,0,0,0,0,0,0,0,0,0,0,0,0,0,0,0,0,0,0,0,0,0,0,0,0,0,0,0,0,0,0,0,0,0,0,0,0,0,0,0,0,0,0,0,0,0,0,0,0,0,0,0,0,0,0,0,0,0,0,0,0,0,0,0,0,0,0,0,0,0,0,0,0,0,0,0,0,0,0,0,0,0,0,0,0,0,0,0,0,0,0,0,0,0,0,0,0,0,0,0,0,0,0,0,0,0,0,0,0,0,0,0,0,0,0,0,0,0,0,0,0,0,0,0,0,0,0,0,0,0,0,0,0,0,0,0,0,0,0,0,0,0,0,0,0,0,0,0,0,0,0,0,0,0,0,0,0,0,0,0,0,0,0,0,0,0,0,0,0,0,0,0,0,0,0,0,0,0,0,0,0,0,0,0,0,0,0,0,0,0,0,0,0,0,0,0,0,0,0,0,0,0,0,0,0,0,0,0,0,0,0,0,0,0,0,0,0,0,0,0,0,0,0,0,0,0,0,0,0,0,0,0,0,0,0,0,0,0,0,0,0,0,0,0,0,0,0,0,0,0,0,0,0,0,0,0,0,0,0,0,0,0,0,0,0,0,0,0,0,0,0,0,0,0,0,0,0,0,0,0,0,0,0,0,0,0,0,0,0,0,0,0,0,0,0,0,0,0,0,0,0,0,0,0,0,0,0,0,0,0,0,0,0,0,0,0,0,0,0,0,0,0,0,0,0,0,0,0,0,0,0,0,0,0,0,0,0,0,0,0,0,0,0,0,0,0,0,0,0,0,0,0,0,0,0,0,0,0,0,0,0,0,0,0,0,0,0,0,0,0,0,0,0,0,0,0,0,0,0,0,0,0,0,0,0,0,0,0,0,0,0,0,0,0,0,0,0,0,0,0,0,0,0,0,0,0,0,0,0,0,0,0,0,0,0,0,0,0,0,0,0,0,0,0,0,0,0,0,0,0,0,0,0,0,0,0,0,0,0,0,0,0,0,0,0,0,0,0,0,0,0,0,0,0,0,0,0,0,0,0,0,0,0,0,0,0,0,0,0,0,0,0,0,0,0,0,0,0,0,0,0,0,0,0,0,0,0,0,0,0,0,0,0,0,0,0,0,0,0,0,0,0,0,0,0,0,0,0,0,0,0,0,0,0,0,0,0,0,0,0,0,0,0,0,0,0,0,0,0,0,0,0,0,0,0,0,0,0,0,0,0,0,0,0,0,0,0,0,0,0,0,0,0,0,0,0,0,0,0,0,0,0,0,0,0,0,0,0,0,0,0,0,0,0,0,0,0,0,0,0,0,0,0,0,0,0,0,0,0,0,0,0,0,0,0,0,0,0,0,0,0,0,0,0,0,0,0,0,0,0,0,0,0,0,0,0,0,0,0,0,0,0,0,0,0,0,0,0,0,0,0,0,0,0,0,0,0,0,0,0,0,0,0,0,0,0,0,0,0,0,0,0,0,0,0,0,0,0,0,0,0,0,0,0,0,0,0,0,0,0,0,0,0,0,0,0,0,0,0,0,0,0,0,0,0,0,0,0,0,0,0,0,0,0,0,0,0,0,0,0,0,0,0,0,0,0,0,0,0,0,0,0,0,0,0,0,0,0,0,0,0,0,0,0,0,0,0,0,0,0,0,0,0,0,0,0,0,0,0,0,0,0,0,0,0,0,0,0,0,0,0,0,0,0,0,0,0,0,0,0,0,0,0,0,0,0,0,0,0,0,0,0,0,0,0,0,0,0,0,0,0,0,0,0,0,0,0,0,0,0,0,0,0,0,0,0,0,0,0,0,0,0,0,0,0,0,0,0,0,0,0,0,0,0,0,0,0,0,0,0,0,0,0,0,0,0,0,0,0,0,0,0,0,0,0,0,0,0,0,0,0,0,0,0,0,0,0,0,0,0,0,0,0,0,0,0,0,0,0,0,0,0,0,0,0,0,0,0,0,0,0,0,0,0,0,0,0,0,0,0,0,0,0,0,0,0,0,0,0,0,0,0,0,0,0,0,0,0,0,0,0,0,0,0,0,0,0,0,0,0,0,0,0,0,0,0,0,0,0,0,0,0,0,0,0,0,0,0,0,0,0,0,0,0,0,0,0,0,0,0,0,0,0,0,0,0,0,0,0,0,0,0,0,0,0,0,0,0,0,0,0,0,0,0,0,0,0,0,0,0,0,0,0,0,0,0,0,0,0,0,0,0,0,0,0,0,0,0,0,0,0,0,0,0,0,0,0,0,0,0,0,0,0,0,0,0,0,0,0,0,0,0,0,0,0,0,0,0,0,0,0,0,0,0,0,0,0,0,0,0,0,0,0,0,0,0,0,0,0,0,0,0,0,0,0,0,0,0,0,0,0,0,0,0,0,0,0,0,0,0,0,0,0,0,0,0,0,0,0,0,0,0,0,0,0,0,0,0,0,0,0,0,0,0,0,0,0,0,0,0,0,0,0,0,0,0,0,0,0,0,0,0,0,0,0,0,0,0,0,0,0,0,0,0,0,0,0,0,0,0,0,0,0,0,0,0,0,0,0,0,0,0,0,0,0,0,0,0,0,0,0,0,0,0,0,0,0,0,0,0,0,0,0,0,0,0,0,0,0,0,0,0,0,0,0,0,0,0,0,0,0,0,0,0,0,0,0,0,0,0,0,0,0,0,0,0,0,0,0,0,0,0,0,0,0,0,0,0,0,0,0,0,0,0,0,0,0,0,0,0,0,0,0,0,0,0,0,0,0,0,0,0,0,0,0,0,0,0,0,0,0,0,0,0,0,0,0,0,0,0,0,0,0,0,0,0,0,0,0,0,0,0,0,0,0,0,0,0,0,0,0,0,0,0,0,0,0,0,0,0,0,0,0,0,0,0,0,0,0,0,0,0,0,0,0,0,0,0,0,0,0,0,0,0,0,0,0,0,0,0,0,0,0,0,0,0,0,0,0,0,0,0,0,0,0,0,0,0,0,0,0,0,0,0,0,0,0,0,0,0,0,0,0,0,0,0,0,0,0,0,0,0,0,0,0,0,0,0,0,0,0,0,0,0,0,0,0,0,0,0,0,0,0,0],[0.008493236570288288,0.010638507905384322,0.00904016067408936,0.001411907121176247,0.002342652636974849,-0.0016420431916553827,0.0009008643132518455,-0.0004791817841670556,-0.0018990391098963398,-0.0019082210153975364,0.0010790963039266012,0.0015674198457368259,0.005617453877245417,-0.0005795731732758263,0.0018029796436201731,0.0024062950248662706,-0.002164175304188549,0.003430939964633371,0.0006300029642063047,0.003677556143821,-1.7952590143242755e-7,0.0019367576013391823,0.004845291470661421,0.0035475327584830944,0.003771341202004217,0.00480028321013161,0.0035756341701628303,0.001236061371842268,0.00047069409864245934,0.0121316033247147,-0.0003276740387068736,0.0036800963410319205,0.0010617475137913968,0.0013836582311296908,0.0013124811870412047,0.002216148833872867,0.002881477871274212,0.0019163629821180718,-0.001115608265427637,0.0006751543793449891,0.006426762065222093,0.00142979572066381,0.0066670428740282705,0.0004771402971023161,-0.003475254789443461,0.004829276476365745,0.0012220042946988745,0.0028587519085644087,0.002447005418766617,-0.00012974142830568972,0.0018260123574345797,-0.0015069028973227372,0.0010137081721980448,0.00008446998315068626,0.0004226656306822236,0.0011660921447830283,-0.0010541862682563045,0.0045733768199079546,-0.0003730382744680288,-0.0018584288872293532,0.0020403396663757917,0.0007549094359517507,0.0010710785787186585,-0.001258514046313484,0.0008635639199687103,0.002877090527397634,0.0017359440174626085,0.000564759944511941,0.0016629942046411479,0.00008854233912419871,-0.00184444409499275,-0.0008738628619286556,-0.0021031909168797614,0.0017569526372385722,0.008759229364423072,0.001536494412243978,0.001997510161361584,0.0011062333695681954,-0.0012387051401466244,0.0018782959051858042,0.00011544584855648178,0.001739404500375189,-0.0007172722536889266,0.0015764448211075034,0.004323138277472752,0.0024186465412014465,0.0007060594588597115,0.00333603463972593,-0.00013903395855047965,0.0008026523952037741,-0.0019226892387254806,0.000055326304774029004,0.0018301539675587512,0.0006339809162627711,0.002622771081446024,0.0020673240255035244,-0.000586616450682327,0.0005951550522532423,-0.00022039066983242368,0.001490776028149557,0.002356642967065136,0.001301511352730802,0.0026801232338624285,-0.002514602236967887,0.00017199942433448846,-0.000506359180011673,0.001606028941591584,0.0017088073340510604,0.0005681088016173534,0.0006842785210551382,0.0041166404932483185,0.0003464619216580204,0.0008372355518585786,-0.0014053822181830055,0.001765459751877736,0.0029764857945523745,-0.0000017184307025655716,0.0014486740032154286,0.0019258303771693486,0.002592960827670591,0.0006095805218508363,0.0022945569959761645,0.0011524944625518705,0.0006222765596047101,0.0027136753331824257,0.0014744111219511882,0.002098464926558687,-0.0011280609220536498,0.00021305489481182605,0.001452503376542685,0.0016158386114321467,0.00004233104763342971,0.000670521172901959,0.0008949177415455245,0.0009792602932439888,0.00031214436198345014,-0.0009706426224267933,0.0004434175726680239,0.0008165969899158018,0.0003941074481487836,0.00043772244866642273,-0.0010756190443410839,0.0007554637642773068,0.00021108034629991997,0.000555008704228019,0.0026656933907081124,-0.0021750493640944036,0.0017907529940724004,0.00015162224136696094,0.0003143979286489728,0.00012490989859945416,0.0007770047837731947,0.0008171938689646884,0.0037762536657875907,-0.0007519584712067708,0.0009101874354289393,0.001072550726702692,0.0006084293367636078,0.002033823651853441,0.0002039956618773561,-0.000021784578121368235,0.0009446643521065642,0.0046770635022164485,0.0010441498819220318,0.0020340694586763646,0,-0.00223511421295575,0.0015928585634121834,0.0032628273677569116,0.001691954289017131,0.001427994327740319,0.0025786934916642813,0.0010906928648344342,0.0011758477674731834,0.0019939898702801846,-0.0013329260606313009,-0.00014188279670121693,0.001361002003378175,0.0023807108471758406,0.0024970832815469695,0.00020691792876573265,0.0009105890822935632,0.0011219591248421707,0.0012569028272152135,0.000983872624106184,0.0006249875132132807,0.0037254006808145144,0.002985848823123867,-0.00046200307709427373,0.0030530461030262093,0.0018744520095026174,0.002778077053478479,0.0016223418679024207,0.0025919957401637087,-0.001302961081706649,0.00161014259865922,0.0014794115341975932,0.0017461711276606613,0.002515029480107118,0.001901864884988567,-9.66378343356675e-7,-0.0008144217033243708,0.0028617513349228356,0.002244346374310685,-0.0007071069562592309,0,0.0016292695331509147,0.0023862369250477133,-0.0017769003892612058,0.0016963358596294262,-0.002561765703561731,-0.0008831145504365799,-0.001437991677968908,-0.00027234586862977754,0.0006828192809342331,-0.0001766816534081449,-0.0004503018424872796,0.0019543713207428675,0.0007967446564477446,0.0017808101213645693,-0.000026565210995950143,0.00286390247689338,0.0017897989950520208,0.00010982289169554786,0.0023528303937723804,-0.00015810931968921184,-0.0004901451966292409,0.0007646559585214749,0.0026003540168437053,0.0019025344154268993,0.000857263327272841,-0.0012851554408460587,-0.001964498268965732,-0.002580260168145726,-0.0009645073574520394,0.0005652674349449539,0.0016255419993259168,0.0005538089065877623,0.002009810640046189,0.0015551910393350936,-0.00006207344236504428,0.0014236650820344129,0.0006094831213311,0.0021505713404672395,0.00015658168577743488,0.0011635226068453669,0.0005351010251804442,-0.00004667615560499953,0.002298228547761621,0.0007438572822970463,0.00016785323833352073,-0.0005366434599723219,0.002304950909897145,0.0007759344657788312,0.0022570360443393126,-0.001029019143361962,0.00021167331413368223,0.000800098619749135,0.0010707216333699402,0.0013710257646925247,0.0022348776336411995,0.0009783742213678743,-0.0004742411799346317,-0.0012456357546809192,0.0015760725337186216,0.0016781633373078228,0.0023930131869573986,-0.0015619883339890927,0.0002675472119454951,0.001287555214902716,0.0016236621756255123,-0.00018670323744319554,-0.00045884321131350105,0.0003129287922926197,0.0001758462733267205,-0.0006726293281512945,0.002403858622611656,0.001093178171981219,0.002988569221738758,0.0010360215354701119,0.0013335815553697852,0.002588267997276597,-0.00007869199688982718,-0.0006725379488197571,0.00106626616921952,0.0011500381124750132,-0.0018323678388851466,-0.0012990872932867575,0.002347248025479417,0.000853444297793,0.004028763933633949,0.000015075455487988297,-0.0005540101058741921,0.00042390062963839286,0.0013891355039766357,0.0005942161535778344,0.003075175707209494,-0.0012824727604187568,-0.00024329070314241076,0.0009178684127937827,0.0012182371474779524,-0.0013808685025654705,-0.00002950294741274265,0.0005181571065626155,0.0018378017537841176,0.0022048911318882283,-0.0004037711143212575,0.0006379801706356103,0.00004579949977929899,0.001283224271328534,0.00001967884173037168,-0.0009014411712797899,0.00020744153183698786,0.0004955496201463117,-0.00045315666551076805,-0.000432515394359763,-0.00010311070589364077,0.0017971158584523493,0.0032010200307540904,-0.0011747943053541721,-0.0010491120736697477,-0.001150880708107232,0.0009008504757835052,0.002273793665648542,-0.00091328533018466,-0.0007223138751854937,0.0005923489118651844,0.0001264858044434511,-0.0011019368779776391,0.0008897653127073543,0.00026530737136541043,-0.00014004208109798114,0.0007904078515444711,0.000151879603324872,-0.0018187377833536779,0.001754929949314156,0.0017558642168182949,0.00009684268288325762,0.0006984797516905653,0.0007960153950212945,0.00029821750614591536,0.00035073006760023715,0.0011270157642312326,0.0014786601794193781,0.001467404361883559,0.0019365231140396357,0.000851300016724922,-0.002771493150635754,0.003411510565530585,-0.0007978329657036455,0.0019797109319188255,0.00006609269398622498,0.0008836432840199309,0.0006689936506589982,0.0000691581101140515,-0.0002414854490450241,0.001857420596487398,0.0014903772297637735,0.00030544788429593414,-0.0003400101296009078,-0.0006432847795949475,0.0003406871452647972,0.0007435686326531742,0.0023740441413556738,0.00117756490395558,-0.000057916226471761164,0.0007371629074900241,-0.0002941414031277892,0.000048724084525408485,0.00042337811912591424,-0.00021754971083890354,0.0006162565369245749,0.0030171046109516366,0.0017806302168932753,-0.00018325975149819046,-0.00005505161958667537,-0.001703528120159842,0.0010518600920276671,0.0026384700663361904,0.0010207499171915402,0.0006128503373476479,-0.0006934334123097865,-0.0004054924424381697,0.002361130815673948,0.0032066433009400805,-0.0014992192401269192,0.00013521607890244224,-0.00022996199816064194,0.0007222449036364583,0.0006702297711301704,0.0004128622676923571,0.000521358830175607,0.002415022496079429,0.0002940790242433324,0.0008839298200031644,-0.0008962841034649508,0.005010778520707224,0.0003548269714868085,0.0007544469614079598,-0.0003646365659938378,-0.00005549362692878991,0.0012574808437301843,0.0013554939021028967,0.0028451482892668774,0.0020532790146903716,0.0009294032781007382,-0.0002585763954360645,0.0004494340426834052,-0.0009007310078431655,0.0003576025860226765,-0.0017978624099929826,0.0016924163305615783,0,-0.002161749589304557,0.0008161084098583552,0.0008174042400137914,0.0017483694170149443,-0.00048369626620423084,0.0006018812719506825,0.0011998763412970587,0.0014825450279623317,0.00026071118582764733,0.0041422457534434865,0.0004676190926743232,-0.000003706687229904482,-0.00008030215182183904,-0.0006187747739066486,0.00013116835938358068,0.00045777029547469585,-0.0008203397185441461,0.0009753312009294652,-0.0001426456810746806,0.0005294197085929753,0.0026988895957948517,-0.00018802342413423828,0.0000754194371291841,0.00022419007098651287,-0.002828439214611542,0.0032199973992037873,0.00039530574172644826,0.0013224731791036672,0.0013698552128636999,-0.0007615324928659161,0.0015911629276446839,-0.00003535653950912981,0.0023899960396876986,0.00009901364979626325,-0.0014769751924534034,0.0013514568672112,-0.0006068008710507631,0.0010978156275738868,0.0013105003890504989,0.001247555124647728,0.0011780618247700077,0.00014467203651337402,0.00047969423560794127,0.0013892758451797542,0.00015286325993250357,-0.0005714207415221657,0.000016874999394364033,-0.00026144846986457916,-0.00011365763002966524,-0.0001401944459365996,0.0009516658229867193,0.001608372675844956,-0.0004062502523538538,0.00011832044671610992,0.0014780461247018567,0.0007219505966345231,0.0009724875835613595,0.00009459636119876689,0.0000959283185974807,0.000027881573221744864,0.0012630486304662245,0.003182269794896807,-0.00024551899594916446,-0.0009880774484640168,0.0009439842964751418,0.0004525404600085217,0.0008682053131180318,0,-0.0012824800584433377,0.00031894186677732374,0.0002864009748524739,-0.0000419625726497721,0.001235200549181319,-0.0014334152235492554,-0.0004880132255022324,0.0014521169819336397,0.0012977021503104635,0.000683800616638688,-0.001785458374894448,0.0010734437676992773,-0.0003234371506964939,0.0010386598584792264,-0.00009773983104996388,0.0016684854535505915,0.0025124190733905156,0.0008853401772074784,0.0006631864113650048,-0.0011933859198635056,0.0011965682638113082,0.00049369929972315,0.0016047028111762889,0.0009384725535576211,0.002380439578616143,0.000299092999280234,-0.0013258088375429065,0.0005864981545455899,0.00022273995975080813,0.00002220205468445079,0.0022847162402486634,-0.0001672828658238361,0.00134334161632115,0.0004631668734028908,0.0004631668734028908,0.001645874303660893,-0.0017394169449383764,0.0013511904076157783,-0.00022768682701443897,0.0009087073125047046,0.002166047344735932,0.0003358515040524492,0.0005519235567179155,0.0005151276260809051,-0.00014715952007831766,-0.00011966941527873738,0.0007669350898296553,0.00022009327289618556,0.00010985826749154771,0.0008413674365220039,-0.0015192557850974844,0.00002627955106010393,0.00005329678560159429,0.00004091774276958443,0.00004091774276958443,0.0015050736620817707,0.0012875209713955314,-0.0002614963527293459,0.0012426762846769396,0.0014339839177414503,0.001516917149977353,-0.0013383768639500212,-0.000834374463236842,-0.0008488110564362627,0.0005739330920324588,-0.0017640342584202824,-0.0005151416950570727,-0.0004485352126899759,0.00011888098575134745,0.00022996005210067233,-0.00018128091792356225,0.0014905289365686428,0.0005752715204524399,-0.001742907192377036,-0.0009413513754612302,-0.0012992061982135831,-0.0013990622771609567,-0.00007549025301339989,0.0010631627070492558,-0.0005228394631102084,0.001427189151417262,-0.0006587121592754791,-0.0002173100170520706,0.0013370766714271539,0.00058621987319228,0.0005343185581822519,0.001090693022192115,-0.00026140283647830897,-0.0004073481561967282,0.0009548998558249898,-0.0002547476973563576,0.001436821974107381,-0.00032599806399065054,0.0004023753901621304,0.0017218028933427313,0.0009612036694273585,0.00015687539280626061,0.0007642427969319016,0.0008433667355515758,0.0004121226648724617,0.0002450583434723919,0.0010814751073271816,0.0007521286675171993,-0.00039193953616033624,0.0010731139375376075,-0.00003964805550692521,-0.0016706867556288943,0.0006805215608760483,0.0015596136812774384,0.0013478227557371068,-0.00013577012840598225,0.0005013081825182519,0.0012101439613878143,0.0013298736650802902,0.00038172635187044113,0.0010358916313264214,-0.0008225118980573351,0.001375619305014861,0.0005093334191805024,-0.001352387318045991,0.001292645980699927,0.0007880244428696388,-0.00044077645138594987,-0.0005845518906919155,-0.0007459558428747728,0.0007557489237225443,0.00009079170481587369,-0.0007470936419084526,-0.00008096297524390312,-0.0003567968877793374,0.0004666912852073591,-0.0015262488136401785,0.0014057260153462739,0.00046728641120810763,0.0021141699363946727,0.0016722242586922112,-0.0008338351859455022,0.0016756950059996492,-0.0008395855557632877,-0.0008395855557632877,0.00037987847916076873,0.00034411400759308693,-0.0022645704713569184,-0.001098383859368851,0.001602625898354937,0.0008596446830370165,0,0.00026570586552872105,0.0005690176275827711,0.0011376314484592618,-0.00006461712171788345,-0.0007063889127734959,0.0009143114591693619,-0.0007887199273202793,0.0012998997758712067,0.0006393219284982257,0.001390337282128409,0.0011747616547606774,-0.00014922213486088436,0,0.0017055232675910368,0.0025841514295966784,0.0001235961642444548,0.0015779883730819096,0.0012457557238724438,0.0007379313990020188,0.0013235659822743325,0.0006596280593442051,0.0008929560820239482,-0.0005705360288988676,-0.00016428821761434572,0.00029066347645450614,-0.0007706813051500404,0.0009610184616383054,0.0014047375374629096,0.0017737051896833027,0.0010325745446850558,0.0003555656888681532,0.0009186194893571457,-0.0005550222082277241,0.000054761958426949444,-0.00043914451790978573,-0.0005316647332755823,0.0005430474537119278,-0.000023941891825623204,0.00028813065253493705,0.0006165090920998341,0.0005684871256150665,0.0010264593062195605,-0.0021130562884422886,0.001064987495182048,-0.000018293601264678192,-0.0006069231843823734,0.000452548198819588,0.001028250784493963,0.00123045529697586,0.0007265966903197745,-0.0004956827121287077,0.0008271952853381747,0.0006025900002236445,-0.00010967041307742598,0.0001186525949642048,0.00036180505720434574,0.0013679838913090152,0.0009350762014571506,-0.0018675113132753172,0.000856828552543724,-0.000054548369513547514,-0.0011498985276975268,0.0017986350009679135,0.002330103830780859,-0.0002695572604027262,-0.0005146473449045956,0,0.00049092875148364,-0.000013867140164257352,0.00152161809282239,0.0003805395241495267,0.00017827838221373264,-0.0010016942509094196,0.0015364204631602154,0.000562623146883043,0.0008483802087227605,-0.0013956437805662607,-0.0005349120146061527,-0.000020241977086339624,0.0015232814521253105,0.00044509310477130836,-0.0004344563172358442,0.00045297706222366076,-0.001040403689514999,-0.00043671943234175047,-0.0008090252575598151,-0.0012667491122404682,0.00011112296936298383,0.0016996796333247663,0.0006490740624639183,-0.00017619126689331688,0.00010915981360677705,0.0008354856091380088,-0.00046351127809764485,-0.00012998025381359083,-0.0006185279067246462,-0.00028432217567314925,0.0023739748351417622,-0.00044120193840191635,-0.0009454845180446934,0.0011705377319038862,-0.0012815878565868434,-0.0008202464624186712,0.0016304256063547106,0.000057698741933753166,-0.000560612755883065,-0.00073041433452664,0.0013913780482046364,0.0017031496888599727,0.0017031496888599727,0.0010225067855630775,0.0022440992817698425,-0.000020694064509751736,0.0005439725991213291,0.0006332464231633266,0.0006969092339693456,0.001092996797698291,-0.000685088219498495,0.000495862991766369,-0.00026431117896977274,0.0024894671453680726,-0.00015146888849629518,0,0,-0.00017960034783245295,-0.000042179886721822735,0.00029945646652351006,0.0007618388918221365,-0.000060213146239035605,0.0005683347115782449,0.0010776222819330007,-0.0009108457752481519,0.0013559616509779336,-0.0008924338174553888,0.00030441396762791216,-0.00030876517085859145,-0.0004039474716422289,0.0010593514110208751,0.000439902763509698,-0.0002646461431308015,0.0010958492624300016,0.0008599917359021372,-0.00009209908869651071,0.000744637550024064,0.0018675519316985246,0.0002500897904202839,-0.0008163392424641101,0.000051851978867694504,0.000628160188482763,0.0016977349601290776,-0.00041593971079020403,0.00035486982536189423,0.0004428124135727134,0.0011962152911431287,0.0005062813621593903,0.0014929054939113568,0.0003292775948202096,-0.0008568471425355498,-0.002433421401248994,0.0007208104339653707,0.00026526839482032735,0.000027394354104930385,0.00038357283140848106,0.000380137357451437,0.0018916182158553636,0.0004187830070449768,0.00042530569710375206,-0.000653845351730785,0.0009793485154470554,0.0005166651981957408,0.0007807837213677493,-0.0007218233826824915,-0.00008311608112669309,0.0014844969590369077,0.0012138845424022342,-0.0000629628143112069,0.0006453199252947434,0.0015817598371202128,-0.0012318028546220178,-0.0002432608573194217,0.0010854932929029784,0,0.0012622168436979713,0.0013170395686133796,-0.00018753716123730304,0.00036596484723664714,-0.00036664501774084945,0.0003898355075535001,0.000587411177230216,-0.00038638494958956386,0.000761154720730518,0.0006324885399524405,-0.0001814581261280441,0.00033817878021835836,-0.0013788387612006657,0.0003455272659226485,0,0.00034003283389651015,0.000882775418130611,0.0006769434887159021,0.0004415154118115336,0.00016869193681681374,0.0008917232560594406,0.00016276646927922402,0.00003889986923406924,0.000967332368055069,-0.0004836559355170897,-0.002023514535114269,0.00034299064424249566,-0.0003315039108018346,0.001991985878084295,-6.289512884263156e-7,-0.0002902311245780878,0.000011430336964907221,0.0004873437037429919,0.0009898613134165823,0.00030570846497677553,0.0006523458298078925,0.0007127619671682049,0.0015038989331909985,-0.00017734623898167448,-0.000010027258778367378,0.00019168072361970667,0.0004399254823182914,-0.0004207143150470673,0.0013924494425136468,-0.0006811991171040571,0.0009901323993750015,0.0009874362475760813,0.0010788673451096362,0.0008741203431195464,0.00023311707897606904,0.0010728934078868147,0.000573650425147653,0.000023423720995516365,0.00015439168028045177,0.0003404359474423412,0.002287643838705351,0.0005963019105761358,0.00000662759220840142,0.0014742453035835985,0,0,0,-0.001175689638690413,-0.0003146105597845436,0.0008629938165266819,-0.00024143931140100766,0.0004147993959925212,-0.0000980871003466724,-0.0006472308787372522,-0.00104171136441845,0.0010445485042093051,-0.0004883193013335146,-0.0007200095917018792,-0.0003911496650274267,0.0004018915512073993,0.001790643400513617,0.0005725405809106098,-0.0006923743964587978,-0.0002645336760887904,0.0009418048819409396,0.0005803493431528508,-0.0006686897333953406,-0.0020385848951694286,0.0020103543191718506,0.0005197777514341919,-0.0002831874357452818,0.0006629581119768558,0.001685687456028794,0.0006569088610943923,0.0004714641737819069,-0.0014418099891440746,0,0.0013049472599811136,0.00009858940854059496,-0.0005737733802007648,-0.0003854958300354036,0.001062650911884183,0.00024014208069062025,0.0007767436150779292,-0.0007682631018137787,0.00042632715851463734,-0.00047684176600275215,0.0005007701144371231,0.0006978977916254701,0.00006715812054235599,0.0011297745371492997,-0.0015533500609644377,0.0005194416344670195,0.00041427694659062505,0.000622703158102102,0.00011587264339034197,-0.0005091751344394107,0.0006039346955847071,-0.000037209047236897176,0.0004280911953760191,0.00003690726660748125,-0.00048447687860933206,-0.0013077950342340492,-0.00009756953286670317,0.0006160231205490329,0.00018744016978560022,-0.0015083303906823174,0.0006604116941379864,0.0013643254031277523,0.0009407844099408078,0.0002648016005495317,-0.0007627790630303379,-0.000785179956749479,0.0011627808086970305,0.0007554067463015164,0.0015021214082454248,0.00032238621362858913,-0.00034231141164930664,0.0007042603331196299,0.0005472712815998759,0.0008128062417654825,0.0005040311340913895,-0.00031044527813000027,0.0004118145584967528,0.0003618041147278601,-0.0004854156551024586,-0.0006179962676781278,0.0005850038659776629,-0.00041374270779448105,-0.0005473846717851507,-0.0003146813673352231,-0.0006371266920678273,-0.0009456650914392354,-0.0012319538296507266,0.00011838801726496678,0.0006622519824468797,-0.0008804551619928742,0.0014231768362032073,0.000215650241638843,0,-0.00023633469813908408,-0.0014191148855005912,-0.0005815851913646107,-0.0005815851913646107,0.00035868390334654264,-0.0001487999296468139,0.0008219913531346629,-0.0009602711085135336,0.0003389163891288244,0.0005157479582906098,0.00039630877927218004,0.00004942032650274352,0.0008864596830862022,0.00019864678369153462,0.0014248914900281443,-0.0008710005632962026,-0.0002506502924270835,0.0009428976549506829,-0.0007845261411450844,-0.00048274259496111025,0.0008123364343995923,0.00003894909294861033,0.001310235003160779,0.0006072403845052035,-0.00040924816385841563,0.00011014835252763815,0.0015517805754797975,0.0012150201986087452,-0.0006093634295597822,0.0008186053030969923,-0.00033486386255880695,-0.0006144417543779367,0.0008919196069418398,0.0006254907127918052,0.0004852635882993147,0.0004852635882993147,0.00025652585029929686,0.00020892195919130203,-0.0009168225249784273,0.000006750960804050742,0.000017847019277814215,-0.0005975905486306091,0.00043542036131053,0.0005452492350294019,0.0007263067188875354,0.00022561428319070617,0.0010739208838453267,-0.0005268223795838391,-0.00040108073931882193,0.0005568892013676727,-0.0008812900415224108,0.0013515071067818868,-0.00004130811381207957,0.00011018745697637965,0.001513708537971947,0.00000240370211203424,-0.0008100706741028699,0.001380308679612718,-0.00011203238788946794,0.00011951649980353763,0.00013886708188716847,0.0003185106990960673,-0.0003961576588505294,0.0023689981166756216,0.0023689981166756216,-0.0007848759754451821,0.0002107581500423837,0.0007945942508109949,0.0005897737541505734,0.0001878140053123644,0.0009223999197666749,0.0007786274029850911,0.0007786274029850911,-0.0016132555775118793,0.0009837643975829937,0.0013216755395780964,0.00022141265749559553,0.0022927063897400218,0.0004487026383910145,-0.00024656574239545394,0.0005797536979763532,0.0008197789803878211,0.0001302127325366192,0.00045239296713566477,-0.0004324899492099187,0.0008148624374458368,-0.0006167291544652831,0.00014291832957642934,-0.00007112086173278857,-0.0001602796743679427,0.0015386018229766741,-0.00028863281347271,0.0006264501928149321,0.0008674056305880421,0.002083584746548072,-0.0010803764058275108,-0.0009352555454623544,0.0007128106094699064,0.00022345020298285756,0.00037237558116808456,0.00047876829036623916,-0.0003046402400464135,-0.0009543530303193197,-0.0014965193358134254,-0.00014649098982504624,0.0010672305586115936,-0.0001631994495123639,0.00004736856207990827,0.00013622535450726243,0.0008789128024480651,0.000709044147316578,-0.0010199243039993701,0.0008304254288980075,0.0023172219327828912,0.000126640330990274,0.0014107942213140302,-0.00030522168753088644,0.00007963144159123391,-0.000467639180362417,-0.00009075700860518601,-0.0004940130310802084,0.00008584827885743006,-0.0018928206702735085,0.0008670995940982243,0.000703932840047123,0.0006573162065376899,0.0013565974884164889,-0.0008827327753303563,0.0004626604980439605,-0.00041251777775335287,-0.0015057547887192286,0.00006995096341045599,0.0006842055421430186,0.00018527978846269411,0.0005612676703079531,-0.00011515667873992374,-0.0016818187238604736,-0.00029234754512076074,0.0021355043384250387,0.00010457344360309491,0.0009139975812476788,-0.00020202905520264806,-0.0007777931669528898,0.0003063419779736611,-0.00011330623449874841,0.0006273398096036816,-0.0003627832829405055,0.0013956024792837682,-0.0006765542729868517,0.00047280121601287644,0.000919247804418652,0.0017283613186952784,-0.0010263456820120385,-0.0005976303399034207,0.0015678880629473274,0.0003036711053526296,0.00008918238100040355,0,0.00022580636953839592,0.00014901354984595786,-0.00038696802116891814,0.0001270426698485114,0.0011679564471857049,-0.0006589026439373143,0.00081072531726512,0.00081072531726512,0.00081072531726512,0.00008516485371779095,0.000036889427760873074,-0.0001612720793785966,0.000531613475852734,0.0010888765820717778,-0.0006978420151081083,-0.0006621022893332479,-0.00027616252499234744,-0.00024962773374023105,-0.000013502402445506208,0.0000014664214972669827,-0.0012133283501705142,0.0008514826736144294,0.00004693181145946113,-0.00028469578710294875,0.0003454840943424263,0.0005572428758384073,0.000009362706678326706,-0.0004081156248366993,-0.0006005259465639535,-0.00008278005576544168,0.0005754386840430473,0.0006524768769503585,-0.0008620625097404744,-0.00028612078469463734,0.0010291613219003668,-0.0010009964784422295,0.0007047486188342539,0.0001531792520674982,0.0002726987715431238,-0.00008496510664216673,-0.0009863274856539335,-0.000017050925472328134,-0.0000615031026994112,0.0004017750654495316,-0.0006033701901876425,0.00032850007477592977,-0.0012640744018295696,0.000050291708321676835,-0.00005949983580883526,0.0011251311209671817,0.0008318432128435006,0.0003274971265699799,0.0001863542874660351,-0.00024214782441480716,0.0008831842485335562,0.0003020930350162277,0.00047526579007267124,-0.0004542104854865227,0.0004859078372157018,0.0005044838152742893,-0.0007136439500551419,0.00001066328414759562,0.0009780967609867926,-0.0005038560233637734,0.0010010012163031011,-0.00022614411474281045,0.0017183453142519333,-0.0005143026630868698,0.0010654137095640686,0.0007011473660525935,-0.0007179113107938719,-0.0006213985982571746,-0.0013634986825531022,-0.0013634986825531022,0.0015388192601511338,0.0008044398864283761,0.00028787815126604443,0.0016729096080628837,0.0004683530003006365,-0.00016338503247730063,0.0007712401717663804,0.00014703869749531224,-0.0007275677402337386,-0.00006736425207579057,0.0009750047219396011,0.001330471416931872,0.00042957403140814936,0,0,0.00042957403140814936,0.0005567809196366919,0.0005567809196366919,0,0,0,0.0005567809196366919,0.0005567809196366919,0.0005567809196366919,0.0005998955494631716,0.0018811883049294127,0.000646626860869093,0.00021593413394862206,0.0011191440409013566,0.00032978132124558874,-0.000615988678777387,0.0006319193176539317,0.0006507241389292553,0.0016393005296034776,-0.0001447379664262457,0.0003667694229968257,-0.0007992840215088118,-0.0005360402244170554,0.0002502479558913866,-0.00033190978511061625,-0.00041553880656630313,0.00047543396631894493,0.0006332857438952147,-0.0008896330421575835,0.0003458827646509055,0.00024560258588383357,-0.000010692889750854047,-0.000010692889750854047,-0.0005975749114840892,0.0007743985563665088,-0.00029280762341036393,0.0009242328582727974,0.0007279495048888694,-0.00021834996397242159,-0.0006275516521441157,0.00016379563950498537,0.00020976036588472743,-0.0005298033659834567,0.0016081656551675786,-0.0004592153792894233,0.00002949419287049849,0.0010680629819878934,-0.00002058753007075427,-0.000329314111897848,-0.001529328584756923,-0.00019309455043458907,0.0008109397116963371,0.00004467838691264356,0.00021910951906802407,0.0012443546319337675,-0.0001867631665646995,-0.0001106177309858728,-0.0007279164370934555,-0.0008068842779174462,0.0013219382585324486,-0.000034419095870958006,-0.0006389574479378727,0.0004452621560712717,0.0011476518119740446,0.0008223439953485662,-0.00004871598952180806,-0.00011315259999817718,0.0003352784530600981,-0.0007965177598308519,0.00011429119933649498,-0.00013358910542828295,0.0005283944483948054,0.001399176558074828,-0.0004614835404665895,0.00028547984018399914,0.0004583805565430203,0.0004403880310660023,0.00016745255109813903,0.002261674852456622,0,-0.00044010815734791696,0.0017797397284194617,0.0010694951496464928,0,0.00009939247491940281,-0.00012506639716267467,0.00066850714778592,0.0003618845910085516,-0.0006460026462641591,0,-0.00005622318706136741,-0.0007773162627093298,-0.0010074977348634177,0.0005886917691234389,0.0003771618171195455,-0.0012010697333027795,0.0002916984594649943,0.0006514321828614584,0.0007637930565977417,-0.000026534787006031918,0,-0.000667863801815135,-0.0002953041147283201,0.0007086767750797224,0.00045343418096371673,0.0004029027387012173,0.000051610777899673064,0.0006308967613296457,-0.0008150021780527407,-0.00046151903821994546,-0.0006981335775170553,0.00044114067805948364,-0.00003799929806286567,0.00005638632731123626,0.0008339470262969271,-0.002485183872424312,0.0001401239322361664,0.00019198075163337673,-0.000421249774851521,-0.0002005429490926574,-0.0002766289827606471,-0.0011095634785489837,-0.0005012799889642767,0.0002650881402354656,-0.0004011676424306469,0.00015355690073309822,0.000855976653690737,0.0002732415660903958,-0.0006442288046218602,0.0006100074621385469,-0.00048420676897838926,-0.0005386554185690624,0.0007659210396346088,-0.000496450865394339,0.00024713596073656647,0.0022789421396631304,0.0010643908375301955,-0.0007538630511492382,-0.00004654309300643081,0.000031971184914608686,0.0008998919380175507,0.001383056220600057,0.000560022072727205,0.000005773027826703981,0.00023556181238323297,0.00046435758148630376,0.0011578739529694605,0.00002719382837513299,0.00033694447435355057,-0.0004438202909522511,0.0020003790840821783,-0.000041492167645140244,0.0003024471123994043,0.000034312337998215075,0.0013742894934778882,0.0006803770753239941,0.0006663807166827213,0.0003031132310389038,0.001030008765468079,0.0006409414255684816,-0.00048058139485617765,0.0004413881432260339,-0.00036258412978156386,-0.0015386300244670868,-0.00009312307373023055,0.0012982530527042885,0.0008355166563415377,0.0016686427787120602,0.00032492632765141524,0.0006151090422045882,0.000007553325247450324,0.0000940411805462833,0.0007755875062849172,0.00090583206499589,-0.00010357404196840508,0.001452148826320729,-0.00014244455395068934,-0.0000642566973767282,0.0002794943595720716,0.0005296671990664091,-0.00004756550703538233,0.00014848466532527973,0.000520043255078415,0.0009341226155377366,0.0009340199589224986,0.0009572345903039363,0.000600580219508872,-0.000017744818175006706,-0.0007545663918243682,-0.0004972534273079913,0.000391428069846949,0.00047571751677444687,0.0003208386441033685,0.001384119026310039,-0.0009339599545260126,-0.00012380875720083287,0.0004240474753887986,0.0012157749589333136,0.0010695781373058354,-0.0000107773650876516,0.0015226474616692946,0.00021379009538627502,-0.00014406288525682193,-0.00007144136037767434,0.0006922064815522478,-0.00010156424654841526,-0.00008479308617716542,0.0010602914495881372,0.0014159843667327081,-0.0005193957463479647,-0.0009495986893959782,0.00037618119033613407,0.0003214460327358344,-0.0004681401778480334,0.0005641485455399089,0.00044135999666448597,0.0009646443122229749,0.0010700612713397959,-0.0009074633676129314,-0.000530938078232513,0.0006663865061498595,-0.00011890789555806173,0.00036627898898698453,-0.00027098431450393,0.0008519268180140846,-0.0006782734823030412,-0.0004757626580837712,-0.0006466417796665796,0.0005535141597315387,0.0007251916849671551,-4.2184798217277664e-7,-0.00019760674580775905,-0.0003052863758519931,0.0009481135453855852,0.0008092424780760294,0.0005317849868825492,0.0011981577034357624,0.001220556995733147,0.0012263962119423346,0.0006184957890616447,0.0002096628169294825,0.0012465659082880858,-0.0005645218673153506,0.00021878635138075634,0.0011567314316002974,-0.0003349332176176196,-0.0009408271270988982,0.0012296247706044992,0.0009009804699638843,0.0010971445944634864,-0.0008300660050738847,0.00012424023525126364,-0.0001970905923002205,0,0.00020153674011387502,0.0009465345211195912,-0.00023779995426249226,-0.0022070500118187408,-0.00021640772518538793,-0.0001651991317513025,-0.00007776595163955035,0.00008677733498427803,0.001397370674043834,-0.0008473501627457854,-0.00021875488013252203,0.0006709075104789229,-0.0006751393827203213,0.0005211025972935474,0.00008097056815365965,0.0013345474966802613,-0.00036487153236446334,-0.000048760290226912124,-0.000048760290226912124,-0.00006175078501807224,-0.00006175078501807224,0.0002985446211761141,-0.00004489630064052934,0.00018651142900539663,-0.0001433440725681565,0.0005057355001970877,-0.00036751170326732453,-0.0013328860596986125,-0.0005484685534683873,-0.0017236421928820723,0.00029138203215568824,-0.0013851525958483214,-0.0002516353226733438,-0.0010526564274056097,0.0010200426734314394,0.000229406115645668,0.0009057961581663226,-0.00043517328341063834,0.0014232840851010572,-0.00035399460299212417,0.0007554037125076689,0.0006418319463735265,0.0009044616115222765,0.00043276976853075943,0.002565475447003085,0,-0.001127370623958636,0.00008120654803202022,0.0013081008063010127,0.0002706249361587216,-0.0008982837283868174,0.0004932500769906282,0.0006092865519031788,0.000025259326118339253,0.00012158071534228772,-0.00007539043238263616,0.001689297414026582,-0.00005327784769612015,0.00010285832560082566,0.00013026137297250643,0.00005913284454699657,0.0007585891590519644,-0.001280014560103065,0.00018868575563825944,-0.00002368341011503176,0.0006931358036982806,0.0008777978925744339,0.0008777978925744339,0.0008777978925744339,0.0008777978925744339,0.0008777978925744339,0.0008777978925744339,0.0005912210117239415,-7.692889473714335e-7,0.0007284715608315904,0.00032235358373238897,0.001205063704817598,0.0013254946459288726,-0.0005728014565081894,-0.0013684203192395328,-0.0001092400072059212,0.0008732750374801856,-0.00027965800203648444,0.0005249627555686298,-0.0010529202916879658,0.0007447280584958324,-0.00029027621960785025,-0.00036761029004232434,-0.00029027621960785025,-0.00036761029004232434,-0.000059729248964353673,0.0005508306106425565,0.0007642120894503623,0.0007045760682076404,0.00021644600801376887,0.0009099289996196626,-0.00010728333246631821,0.0009810862642338132,0.0005365090084423152,0.0005012916047887277,0.0005972759987809315,0.0013444415035772411,-0.0010866767076583292,0.001053083003926265,0.0005104097078987985,-0.00035121011980143876,0.00046762787376209824,-0.000357879103831168,0.00042760644429348446,0.000600452142665298,-0.0004409895250096919,0.0000016679856352059218,0.0012802943178757873,-0.00011216071571068089,0.000034029632891472515,-0.00048350808827553034,-0.0009831217734677664,0,0,0.001099594162474212,0,0.0005208491835549332,-0.0006275786249892987,0.0006963003878049229,-0.00012420734286473873,0.000827498565128327,0.0010830466692479468,0.00008892660618607177,0.002052452176469556,0.000860016144275006,0.00027088010784353936,-0.00024806285579806594,-0.00012664112214802665,-0.0005539169648403696,0.0003858472870070475,-0.0002552603803460231,-0.0010762472342622181,-0.0010762472342622181,-0.0010762472342622181,0.0008955374700750168,0.001577528903136277,0.00030895978554639533,0.00009220876156616263,0.0011004688077668732,0.0007845590250367966,0.0003504333525252877,-0.00005847582167944803,-0.00007736394588801169,-0.0004253781588532594,0.00007822777789617661,0.001258321696080343,0,0.000034308968520499787,0.0008136890230067745,-0.0003073952877221134,0.0024555413011555813,0.0008026806335757952,0,0,-0.00042641110135816613,0.0013954994393084877,-0.00017190654793749024,-0.00028414747041841934,-0.00047044443578720004,-0.00001965906115465794,-0.00001965906115465794,0.0011550231394820444,0,0,0.0012745479939143764,0.0007561361235945171,0.0011277042739755423,-0.0003921426511636392,-0.0000642900523172413,-0.0000642900523172413,0.00012822537281384703,0.0003578063053875084,-0.000137296271535761,0.001326779321480096,-0.00009357293812839999,0.0002368574086801166,0,-0.0008875032383212989,-0.0008875032383212989,0,0,0,0.00014199468595328893,0.00018786002291159513,0.00014833996420487457,0.00014833996420487457,0.00018786002291159513,0.0010411147347563496,0.0010411147347563496,0.0013184837880559502,0.0010411147347563496,0.0013184837880559502,0.0010411147347563496,0.0013184837880559502,0.0013184837880559502,0.0010411147347563496,0.0013184837880559502,0.0013184837880559502,-0.000021118070034511105,0,-0.0003515451756664421,0.0003608807087094806,0.00000633287195238234,-0.0012245246974638378,-0.00022415266181153237,-0.0006834496606465913,0,0.0004540437430181385,-0.0011753036776090426,-0.0009532142809198162,-0.0009532142809198162,-0.0011753036776090426,-0.0011753036776090426,-0.0009532142809198162,-0.0011753036776090426,0.0006058408459550408,-0.0004206300038585466,-0.0000737481072639152,0.00005237913716224908,-0.00010575941425551853,0.0005514394715079001,0.0002634463163154298,-0.0005139627475235617,0.001386434793019914,-0.0005166506890187452,0.00047742082778703075,-0.0009662457694462161,-0.00043454240345568596,0.0004308908357657858,-0.0003556153051345034,-0.0009742507937458021,-0.00026516537598617534,-0.00006636921163726895,0.0003863264303874787,0.0001864977296137269,-0.001648930171643657,-0.0017333610536051506,0.00015090820958706325,0.00018606831355686679,0.0013419411222539478,0.0004743262130041928,-0.00003131397509650192,-0.00014272105965078714,-0.0010472885554355317,-0.000017511038103080345,0.0008538283673182492,-0.0008325572941037364,0.00015790278664359268,-0.0001793179241812301,-0.0006788132182375338,-0.00007063051525891978,0.0007382183688750823,-0.00010964009182647116,0.0020064819627539556,0.0016224203542113441,-0.0011838667980437027,-0.00012157927882923793,-0.000028643271033013,0.0006545245768552832,-0.001087592073985195,0.001218769589973848,0.00045219683470188555,-0.00029670180982883297,0.0014883475617798693,-0.0002369493529579513,-0.00015905006469180765,-0.00015233347545915118,-0.00030574768941644454,0.0009250439350486575,0.00002049433654536121,0.0015514389563486028,-0.00026983427026901446,0.0008504184416254868,-0.00007588764191802824,-0.00023638421498078493,0.0009960556822701983,0.0007760639041866972,0.0006633807696462089,0.0007792931107698823,-0.000028939641757726078,-0.0004962724812900891,0.0008639547629593037,-0.0005556336450584663,-0.0011420579177164889,0.0001644034665739059,0.000010485899303889776,0.00161163475935164,0.0003346139677975141,0.0003346139677975141,-0.0010320530752920753,0.0011968761490496879,0,-0.0008035101373913792,0.000018985162458159578,-0.0006763314197595254,0.0016344562239623901,0.0009378986683687899,0.0006538181337985896,0.001092039862884208,0.00019502853721318044,-0.00008774342621983777,-0.0003298532557834964,-0.0006161393864637864,-0.000009522853843993103,0.0000705979863515756,0.0011707447370171292,-0.0010149343219485723,-0.0004340965501600844,0.00019194722538464545,-0.0006383201240763649,0.0007334804685200605,-0.0011993761696742044,0.000636980111293827,-0.0002063856083133913,-0.0004920110587179837,0.001356105725851499,0.0006437147095082093,0.0008774629485954367,-0.000649596885370146,-0.001347274265607376,0.0017787186693432996,0.0004642791701059795,0.0003357109811078685,-0.000049544802703880306,-0.0005295121642976153,0.00047606209707002245,0.00022355391765280764,-0.0006418914284798879,0.00043603994855153456,-0.00003283094593215674,0.0003528670204253241,0.0010562002134301312,-0.0012525304518941158,0.0003584953330320154,0.0000761547093435255,0.0002987176796002998,0.001217623204197371,-0.00002904432601224174,-0.0007696379147892956,0.0010281091169612397,0.0009448334183963853,0.00020548090246061542,0.000043252237799884193,0.00046622543197675343,-0.0002870807500744288,-0.000571831987190959,0.0009652312149147966,0.00029965465725606403,0.0002936005075360784,0.0012419607211853186,0.0007424675208817088,0.000058798405081995605,0.0011637829492727213,-0.00026508743253408256,-0.0010831670531574443,0.00018203728540824323,0.0008073711430209485,-0.00026719370723023454,-0.0005706225437568432,-0.0003914267938450054,0.0011826838779267716,0.00026342977019177014,0.00026342977019177014,-0.00024191058247146987,-0.00024191058247146987,0.000763189860644134,0.00013302352812001594,-0.00029766154929445504,-0.00018519089807097832,-0.00006337135517579917,0.002125285221332023,-0.0006258230212830951,-0.0005855858931337307,0.000995493941473762,0.0013910120041829078,0.0015374927417988252,0.0015374927417988252,0.00010610377789971347,0.0006588783182358631,-0.0005786057076968514,0.00006971026167354902,-0.00018949605392337145,0.0005789269652056962,-0.00016750708915724672,0.0013542638213489755,-0.00027246318245202514,0,-0.00033594437972532434,0,-0.0003318491940958866,-0.00040916673830792205,0.0007748048446001164,0.0011276196690362314,0.0016670995515319102,0.0003864865854127351,0.00021137081054408381,-0.00022617468148531056,0.0011331073159006814,0.00022770670567584306,-0.0011035173184728336,0.0004941956478631812,0.0005473095581918919,-0.0007665499883014373,0.0011274781434562977,-0.00044750946105529536,0.00014432006324609453,0.001606810007555829,0.0003791852055361502,0.0008496683836829255,-0.00003131804794897388,-0.000051562881703645105,0.0019713886019726997,0,0.000436812945446209,0.00018505164658675824,0.0002997541606082338,-0.0005332151462139262,-0.0001383676160659183,-0.0001536068818280924,-0.00020476175493812414,0.0005724977638915667,-0.000027624754381490074,0.0007480825020330274,0.0004850545477652269,0.0009482339137267116,0.0000778234907349806,0.0003563570230257121,0.00009923946703664134,0.0003743119236437187,0.0003743119236437187,0.0003743119236437187,0.0003743119236437187,-0.0000025078985860355312,-0.00034311326137979626,0.00009020752537970017,0.0006160861464632545,0.0005618845211992038,0.0004310974325320572,-0.00017394932907738458,-0.0001410792698022507,-0.00017394932907738458,-0.00017394932907738458,-0.0009470446268118929,-0.0003727732289027424,0.00009410868956700525,0.0009096144537898808,-0.0007018821179234963,0.0004556834092908035,-0.0004154750993391794,0.0010722498036471488,0.0011666011999586778,-0.0005915910788556399,0.001107455484591677,-0.00019073172503254426,0.00041837039964546906,0.00046385213512244476,-0.0011424486400486466,-0.0011734195815841517,0.0014747602278490709,0.00034140736811954885,0.0005426527705430362,-0.00042853863195305495,0.0003360725095588926,0.0009964771192273604,-0.0002543091528261698,0.0007347555800389503,0.001248072607039068,-0.0002118914851140026,-0.0005440548883770587,-0.0005440548883770587,-0.0006708142376063739,-0.0006708142376063739,0.001163412993386863,0.00019625344823427437,0.0006893268217210012,0.000944276076691898,0.001466349313340088,-0.00007807532626429362,0.0007053118025844417,0.0014420291514477318,0.0007061703000638896,0.00017585200026794452,0.000058882034308762194,-0.00027986668660095847,0.00024827382243792985,-0.0010429728908262002,-0.00007919105175462711,-0.0012672493839028538,0.0012306257480357336,0.0006773419177504589,0.00037645027563254035,0,0,0.00006121501645307953,0.0005223918565651995,0.001080880921613733,0.001485356817992203,-0.00039456840085128693,0.0004265107587903992,0.00034044264949202623,-0.0001526628466911037,-0.00018823176356231358,-0.0001526628466911037,-0.00011975680966599761,-0.00018823176356231358,-0.00018823176356231358,0.0010170161041978907,-0.001655880937871493,0.000004254011764410457,0.001289039558196319,0.0017195891835785455,-0.0002747073528013236,0.00028825403222360274,-0.00010543084690262436,-0.0007128474503032582,0.00004285701468939804,-0.000028046921821039852,0.000617530881580873,0.0002823022322265854,-0.00005364153699969617,-0.000884817629688203,0.0007571039015270944,0.00001751221802949579,0.0004090653953742979,0.00036115887360898375,0.0004090653953742979,0.00036115887360898375,0.0004090653953742979,0.000809541117127488],[-0.0007258864404044457,-0.01170498329987492,-0.0028051573732041737,0.003936080081254877,-0.0046356278156966255,0.00923149357777729,0.004814122761080408,-0.007957913310747397,0.0039810664950184725,0.0050802337830695155,-0.004574346775448431,0.004295485320551955,0.004945293826711631,0.0025233600804152215,0.001364091060622091,0.003725716356838104,-0.0015730788422263337,-0.0025236251233181147,0.003115761904141382,-0.0011746925185664632,7.481358838605543e-8,-0.003330307873698101,0.00047169066684051,0.000045965828180039004,0.0035330506801738663,0.005344805026360682,-0.004505873374357822,0.0016371395443659455,0.00008536322237309357,-0.008767595500533416,0.004519869782669516,-0.002161563220099912,0.0012387328791556278,-0.0005534668946611446,0.0009152850382572605,-0.0007744574054738758,0.0011619788807005968,-0.005922628381242854,-0.0019787895578215003,0.0010952732330625561,-0.003242210889274427,-0.001416872286363887,-0.0022187813323852204,-0.004933283639444201,-0.0015869580642939815,-0.0035326863509050625,-0.00237031952481844,-0.004832747884623824,0.0027677770738744507,0.00010847087822147965,0.0013014963197700046,-0.0007376428484097773,0.0000463952510999418,-0.003532684363858913,0.0017427465617686172,0.00008235895697471251,0.00534357588415742,-0.004536973078996894,0.0012931633643906292,0.0015740075371900018,-0.0016362314922488128,-0.0039910375325363295,0.0010364165034496618,-0.0022881982593807608,0.0057984519442826005,0.00004197657578547921,0.004904465062702253,-0.004038358600017187,-0.003011416233756156,0.0028717339871552443,0.001125893689237395,-0.004395564697356299,0.0072550669370259864,0.004163370814439251,-0.0019529159920042673,-0.0012330522828124736,0.0007297878943793698,-0.0002888062870891681,-0.008656035041053564,-0.0024941852254664887,-0.006137022828290643,-0.00009241258382067195,0.001999726177703599,-0.0010446769283383112,-0.0038634383516629625,-0.0022696614218757007,0.0019934571475225295,0.00015101310616418028,-0.003065283929620308,-0.0021384804963406907,-0.0016671185331874618,0.0019858568256567763,0.0014290247935235274,0.0010305567700612825,-0.0009090015338534061,-0.000655633423988937,-0.003447914033964452,0.002916132640152032,-0.0029807476612307995,-0.0044625858761499805,0.00039061375187892804,0.001228683379955582,-0.0014973437377563464,-0.002776582396726125,0.0007667440556103899,0.004586215864691543,-0.0031052950401037815,-0.003017911996867212,-0.000005455642863919292,0.0006039509137816905,-0.006746235019652374,-0.0019319741304690617,0.0001736408981958883,0.0007011045714633403,-0.003418036735708447,-0.0012139264116143216,0.006692341521158048,-0.0016340521472797925,0.0007125358140414283,-0.00374950144459789,0.0011821804854953541,-0.0015501836087947563,-0.0034647096904359613,-0.0027767266147349,-0.0005463183310044765,-0.0050352765864723065,0.0029476209602919165,-0.0038022533102439224,-0.004897377620679372,0.00024813363541791554,-0.0006802693320658031,-0.002048991016669489,-0.0024834168411536476,0.00041156770499158946,-0.0030371948920521015,0.0011492291033881543,0.005297999631587801,0.00041790964320659503,0.0005378921120060296,0.0028895200786161306,-0.000029038056716924345,0.0019534006453632204,-0.0012937069390020087,-0.001587336728417939,0.0014111553783672868,0.0007828070314001305,-0.0031649129690106454,-0.002956780293680746,0.0022601347924058462,-0.006311056582483961,0.0071259643911503485,0.0026664421569221296,0.0024219357913797023,-0.003142217565171271,-0.00016322496712954966,-0.001498818420682082,-0.00224229353565266,-0.00206190441331369,0.00039605844840457857,-0.003961484117864524,0.000261582809358666,-0.0006313235134011363,-0.0009557289025353723,0.002082120271747309,-0.00026057417762795874,0,-0.000140019953027884,0.0006954102880481297,-0.0015547988001763029,0.0008531320750997705,-0.0006099544919923469,-0.00294341946467252,0.0008869943212975989,0.001875582534716937,-0.0016568293805895042,-0.00285089146722507,0.0072557405923615445,0.0007944908749479883,-0.0004649319972170591,0.001983747608247242,-0.0022865760738490027,0.001036205711177578,0.0030962176236194864,0.0029218838746060917,-0.003653107136238949,-0.0008904363222700629,-0.003855833089200203,0.0007273885550396689,-0.0017088222853003285,-0.00213505175808708,-0.001514055015710748,-0.0039146637311099075,-0.0012149850214307413,-0.006186669479314637,0.00024170468762684625,0.0013722313196988035,-0.00013032999348836112,0.0026714412447558403,-0.0009257598851108303,-0.0018618579242965444,-0.0014359300849119947,0.0019192068641445104,-0.00247128818635719,0.0008881887146481586,-0.0008523363438841596,0,0.0017985562509844934,-0.0015956969619754084,-0.003277179800155681,-0.004219357650499343,0.0003720874499664788,0.002065395623170102,0.0067913237786564485,0.00026768703930017993,-0.002531484172522752,-0.0017061136806737268,-0.00579137441978399,0.0018619001830512845,0.0008272588151787328,0.0006927960908823302,0.0004561725905269426,-0.004631942474035946,-0.006658177947016807,-0.001100900975475905,-0.0020542861102827714,-0.0020119542865946636,0.0030427653239248104,0.0011562729219821413,0.0039688019062254255,0.0010561605918613173,-0.0005988679586386009,0.0015224121601766089,0.0010224850320485342,0.0017948607752568506,-0.000499926717810238,-0.0031833294672032825,-0.0009647325035379095,-0.0008325057117834307,-0.002964564792787697,0.001330368792201314,-0.0033733382210609296,-0.0010297130389820218,-0.00031338033429066366,0.0005459996506743509,0.0026306043162075145,-0.003738583738382314,0.0009694906519330036,-0.0007325188105304193,0.0024138489776316125,0.0018924041567354194,0.0020517908360474335,-0.001691974085145142,-0.00404862881197656,-0.004291417510491803,-0.0013790466112812074,-0.0031206555736770533,-0.002728544578491433,0.0006061608500918547,-0.001987103712050506,-0.002081996767618132,-0.0003019774026301565,0.0005629991133664214,-0.0008616263995193241,0.0010299022324649146,-0.0029941219830975246,0.0030608514449235085,0.00046133202636020683,0.004010862819740584,-0.0006704184366799582,-0.002809460054836265,-0.00039760152506645145,0.0011700231966428102,0.0011644891374252083,-0.002190226938400683,0.0003148278294016245,0.0013629188048904298,-0.0003962150826370374,-0.0014319626519580572,0.00012003326580578382,-0.001317106139976707,0.0005856872218537303,-0.004042966390029856,0.00004837365129483338,0.00023580612118676337,-0.004926080504651313,0.002787491403861077,0.0010923699793009283,-0.001518135001425709,-0.0016630299473841992,-0.0014673387831519841,0.00033909234765527234,0.00234744678895233,0.00024118210692873417,0.002109542181551288,-0.0008824624083201061,-0.000568075366404954,-0.0015613627371649772,0.0029797086982730333,-0.0008982509555920659,0.0019387409249142884,-0.0018941584910993862,0.0008036713085985669,-0.0015558055986625724,0.0012645805192127472,-0.0026005234128785473,-0.0002448454261402155,-0.003272171395438851,0.0010088653033550484,0.0004807282831124624,0.0019449127658028567,0.002308696851905799,-0.00005266242820488655,-0.0029160056515123555,-0.0013654191215519374,0.0014649555303394356,0.0019620416784317664,-0.0011398276218593255,-0.0024769318442005544,-0.002366189432218575,-0.002160412447462744,-0.00246359787259552,-0.0005222080136434582,-0.0001455813886320411,